nep4_zbl 2 Cu Zr 
zbl 1 2
cutoff 7.6 7.6 368 368
n_max 7 7
basis_size 9 9
l_max 4 2 1
ANN 80 0
  1.2649961e-01
 -1.4726721e+00
  1.2817712e+00
  1.2084942e+00
  1.0508468e+00
 -4.8390670e+00
 -1.6427010e-01
 -1.9034377e+00
 -1.8571004e-02
  9.1176909e-01
  1.5779754e+00
  9.5456943e-02
  1.0605785e+00
  6.8500412e-01
 -2.3231635e+00
 -3.8222668e-01
 -3.0240254e+00
  1.6780837e+00
 -1.1486163e+00
  4.2282695e-01
 -1.3609420e+00
  2.4408975e+00
 -1.2381312e+00
 -8.1092697e-01
 -1.5265968e-01
 -1.0495878e+00
  1.8654095e+00
 -8.4652239e-01
 -5.1374459e+00
 -1.2946419e+00
  7.5855523e-01
 -5.9384829e-01
 -1.7418031e-01
  1.7656319e+00
  2.3226128e+00
 -6.6929162e-01
 -8.5132164e-01
 -1.1007522e+00
  5.0176156e-01
 -5.4376435e-01
  5.0623947e-01
 -8.4779542e-03
 -1.7054625e-01
 -5.1732361e-01
  1.2649038e+00
  5.7992476e-01
  7.4257928e-01
 -5.0205171e-01
  1.6887443e-01
  3.8152733e-01
 -2.0812322e-01
 -7.8244112e-02
  4.2753112e-01
 -9.2561826e-02
 -2.3181981e-01
 -3.0377112e-02
  1.3626000e+00
  8.4454352e-01
 -2.8028212e+00
 -1.0152109e+00
  4.8880424e+00
 -5.4863978e-02
  1.7778922e+00
 -3.8621609e+00
 -1.2377262e+00
  1.1882081e+00
 -1.7691688e-01
 -1.0306675e+00
 -2.2958612e+00
  3.4141973e-01
  7.0325367e-02
  3.9352015e-01
 -7.2913510e-01
  1.0208919e+00
 -2.1288571e+00
  1.0332122e-01
 -4.4401298e+00
 -5.1074839e-01
 -1.2030682e-01
 -5.2236617e-01
 -1.6732607e+00
  2.4047163e+00
 -1.4754375e+00
 -4.2286248e+00
 -5.1588464e+00
 -1.6864043e+00
  7.4370027e-01
 -1.0230561e+00
 -2.1949193e+00
  2.4212275e+00
 -1.3043169e+00
 -2.9175135e-01
 -3.5160470e+00
 -3.3126287e-02
 -1.1008394e+00
  3.3554881e+00
 -4.7276351e-01
 -3.7008154e-01
  5.5235684e-01
 -2.3104437e-02
  1.3762530e+00
 -1.3103385e-01
 -2.1175267e-01
  3.6318231e-01
 -1.8038200e-01
  9.8220980e-01
  4.3092346e-01
 -3.9020555e+00
 -1.2913693e-01
  7.1338080e-02
  6.1497670e-02
  7.2329856e-02
  2.9724712e+00
 -6.6986561e+00
 -2.8617959e+00
 -2.5008619e+00
  9.3763880e-02
 -2.6660082e+00
 -7.0723373e-01
  1.0732337e+00
  5.4517514e-01
  1.4565119e+00
 -2.3639731e+00
  2.4460094e+00
  1.2930524e+00
 -5.9361511e-01
  1.6154429e+00
  2.7080834e-01
 -8.0349797e-01
  3.8039155e+00
 -2.4208407e+00
  4.0561786e-01
  7.3076433e-01
 -2.5797305e-01
  5.1554012e-01
  3.4859547e-01
  1.6683800e+00
  3.6658638e+00
 -3.5892181e+00
  6.4299518e-01
  8.5028648e-01
 -2.1445708e+00
  3.5754421e+00
 -1.3944579e+00
 -1.3295459e+00
  1.7683287e+00
 -1.7132013e+00
  1.2082964e+00
 -1.0318995e+00
  5.6636763e-01
  8.6818737e-01
 -3.8234302e-01
 -1.1304747e+00
 -5.8208078e-01
 -8.2378525e-01
  5.9524971e-01
  4.2062274e-01
  1.6653715e-02
  6.9142884e-01
 -1.0362362e+00
  3.7889877e-01
 -2.5343367e-01
  5.4855533e-02
 -1.9534342e-01
 -1.0862482e-03
 -1.0331491e-01
  3.4746331e-01
 -1.4154577e-01
  4.1478932e-02
 -1.4119437e+00
  6.8507427e-01
  8.4805673e-01
 -8.1048690e-02
 -8.0082065e-01
 -7.0521218e-01
 -1.0345862e+00
 -2.1359201e-01
 -2.8627300e-01
  2.9910615e-02
 -1.7833009e+00
  1.0041854e-01
  5.1185422e+00
 -6.5888457e-02
 -4.8964191e-02
 -1.0751185e-02
 -8.6445624e-01
 -7.1261811e-01
 -2.9020697e-01
 -3.3425564e-01
  5.7750486e-02
  1.9074036e-01
 -1.1509032e-01
 -2.8867796e-01
  4.4388276e-02
  5.0305367e-02
  1.6085662e-01
  3.0595508e-01
 -3.3499354e-01
  3.4168181e-01
 -1.5555546e-01
 -1.1746238e-01
  6.2550880e-02
 -9.9423528e-02
 -5.9948042e-02
  9.2116088e-02
  2.8265494e-01
 -1.3440639e-01
  3.0210075e-01
 -3.9458317e-01
  2.8499351e-03
  1.5858486e-01
  3.1059580e+00
  1.3218765e+00
 -6.9677681e-02
 -2.0024611e-01
  2.7753931e-01
  1.4942151e-01
  2.6877221e-01
  3.3996189e-01
  1.5563011e-01
  3.9380121e-01
 -4.3446418e-02
  1.4568065e-01
  1.9690105e+00
  1.5042293e-03
 -2.6666265e+00
 -2.6141778e-01
  2.7065618e+00
 -1.3231186e+00
  2.5767360e+00
  2.3856124e-01
  1.3351902e+00
 -1.7410935e-01
  5.5554968e-01
  3.8671875e-01
 -1.1185781e+00
  1.8430440e-01
  1.5670580e-01
 -1.7001912e-01
 -1.0200992e-01
  1.8120618e-01
 -4.6591753e-01
 -1.5946627e-02
 -1.1621748e-01
  5.3286368e-01
  8.7575585e-01
  5.4236436e-01
  9.5871009e-02
  2.9419953e-01
 -3.3547762e-01
  1.8888162e+00
  3.7414598e-01
  6.5171921e-01
  4.0731514e-01
  4.2663449e-01
 -3.6468625e-01
 -7.0910704e-01
 -8.0851734e-01
 -1.7800692e+00
  2.7752799e-01
  7.8470671e-01
  4.0798372e-01
  3.6602470e-01
 -1.1527794e-01
 -1.7499731e-01
 -1.5192039e+00
  9.3110204e-03
  4.3456696e-02
  1.4031044e-01
 -1.0665922e-01
  2.1738695e-02
 -6.7519689e-01
 -1.3392229e-01
 -3.1549838e+00
 -8.8767216e-02
  3.7458035e-01
  4.8749141e-02
  3.0265436e+00
 -2.2712587e-01
  1.0623456e-03
  1.1737636e+00
  1.5630116e-01
  5.0279802e-01
 -8.9369875e-01
 -1.4491765e+00
 -4.9235743e-02
 -3.0454779e+00
  4.3261766e-02
  6.6323185e-01
 -6.5987781e-02
 -1.9544045e-02
  2.5477910e-01
 -7.5376016e-01
 -5.0033313e-01
  7.2583222e-01
  2.4670212e-02
 -4.6005476e-01
 -3.5070427e-02
  1.2834937e-02
 -4.5247582e-01
 -1.1895627e+00
 -1.0611157e-01
 -2.1751593e-01
  1.0056954e-01
  9.7592932e-01
 -5.8804119e-01
 -1.0593313e-02
 -2.9569396e-01
 -5.3415451e+00
 -5.5935293e-01
 -1.1096686e+00
  3.4232080e-01
  2.0577850e-02
 -2.4612620e-01
 -3.5423282e-01
 -2.1111035e-01
 -1.5332230e+00
 -2.4295239e-01
 -1.6160306e-01
 -6.0014576e-01
  2.6284948e-01
  1.8788467e-03
 -2.3465067e-01
 -7.3687148e-01
 -3.5496032e-01
  3.6253603e-03
 -4.0102288e-01
  2.7588236e-01
  1.9128907e-01
  2.2859807e-01
  1.0363872e-01
  4.8858874e-02
  1.4948922e+00
 -1.5933305e-01
  1.5162018e-01
  3.7787798e-01
 -4.4688009e-02
 -8.5463949e-02
  5.3658456e-01
  5.9721106e-01
 -1.4857112e-01
  4.3809438e-01
  7.7582914e-01
  1.3636211e-01
 -1.0475248e-01
  8.1556611e-04
 -4.0342286e-01
  6.3625276e-02
  3.0585340e-01
 -1.2330129e+00
  1.6792350e-01
  3.3518802e-02
  2.9119060e-03
 -1.0886194e-01
  1.7144632e-02
  5.1751608e-01
  1.2581316e+00
  2.9639633e+00
 -1.6651623e-01
  2.9406862e-02
  1.4273469e-01
  1.5716782e-01
 -1.5627012e-01
 -7.0052341e-02
 -2.6385871e-01
 -8.9700198e-01
  1.5605371e-02
  1.2849729e-03
 -3.0335004e+00
 -4.6998048e+00
 -1.9407343e-02
 -3.8805060e-02
 -4.7961239e-02
  3.5699594e-01
  1.8127210e-02
 -1.5964033e-01
  7.7554852e-02
  4.6889288e-03
 -2.8195742e-01
 -9.1784522e-02
 -1.4040317e-01
  9.1032170e-02
 -3.7583324e-01
 -1.0554986e-01
 -3.7588575e-01
  3.4614912e-01
 -2.8144827e-01
 -7.8907117e-02
  3.5943344e-01
  2.4266222e-01
  4.7099835e-01
 -1.3057670e-01
  2.1854603e+00
 -2.5118798e-01
  1.0771560e-01
  3.8525908e+00
 -2.5896654e+00
 -6.0266697e-01
 -3.5223813e+00
 -2.1249747e+00
  1.3580351e-01
  4.3624002e-01
  7.2720237e-02
  2.0040099e-01
  6.1313218e-01
 -8.4718645e-02
 -1.9627051e-02
  2.9585627e-01
  4.2615873e-01
  7.4354541e-01
  2.5041094e-01
  1.1597005e-01
  6.4696056e-01
  4.6697825e-01
 -1.0313476e-01
  2.9665357e-01
  3.8002753e-01
  1.1094981e+00
  4.7852990e-01
  7.6223493e-01
  8.1105602e-01
  3.0870817e+00
  3.1594241e-01
  5.3945500e-01
  6.1122358e-01
  8.7068245e-02
  3.7299308e-01
  3.2590610e-01
  5.9429365e-01
  1.3863754e+00
  1.3427077e-01
  2.0923336e-01
  1.3570958e-01
  1.1524932e-01
 -1.7856444e-01
 -2.7231020e-01
  6.9140333e-01
 -1.3561095e+00
  2.9474141e-02
 -1.0901100e-01
 -7.6092708e-01
 -1.9734937e-01
 -6.8142608e-02
  1.0663912e-01
 -6.8915057e-01
 -1.5639284e-01
  2.4569482e-01
  1.1458587e-01
  1.3703288e+00
  3.0097783e-01
  1.8699785e+00
  3.3149259e+00
  6.0265929e-01
 -3.5615149e-01
 -2.0558286e+00
 -3.1205580e+00
 -2.2211345e-02
 -1.2307467e+00
 -8.1550056e-01
 -3.7349311e-01
 -5.0468630e-01
 -5.5326402e-01
 -2.1786492e-01
 -3.3831933e-01
 -9.2964464e-01
 -9.4978821e-01
 -5.7361788e-01
 -1.3417304e-01
 -1.3966675e+00
 -1.4634110e+00
  7.1489942e-01
 -6.5607995e-01
 -1.1485710e+00
 -1.1589744e+00
 -5.2114183e-01
 -6.6192412e-01
  1.1581306e+00
  4.3354845e-01
 -4.2044035e-01
 -1.6470283e+00
 -6.6613829e-01
 -1.9114804e+00
 -1.0917480e+00
 -1.0159528e-01
 -4.5006528e-01
  1.7383304e-01
  3.2336959e-01
  5.9134531e-01
 -3.3962795e-01
  3.1050792e-01
  5.8932728e-01
 -1.0350693e-02
  3.9241901e-01
  1.0882707e-02
  5.5659730e-02
 -9.2637256e-02
 -9.2779756e-02
 -8.8085895e-03
 -2.9128790e-01
  2.1208562e-01
 -2.2250399e-01
  5.3406458e+00
 -3.2694855e-01
 -7.8472747e-03
  6.2149608e-01
 -1.8924968e+00
 -3.8734260e-01
  7.9823965e-01
  6.8163061e-01
  1.1008531e-01
 -1.5887891e-01
  1.2570904e+00
  2.8345099e-01
  1.9916870e-01
 -3.3430633e-01
 -2.8412291e-01
 -7.8777194e-02
 -2.2436075e-01
 -2.9297489e-01
  4.3270856e-02
  1.9762084e-01
  7.1439058e-02
 -4.8580475e+00
  1.5991433e-01
  6.4247519e-02
  1.5978718e-01
  2.1824671e-01
  2.4862328e-01
 -3.5827613e-01
 -9.1252767e-02
 -3.8055885e-01
 -2.4233638e-01
 -8.2019824e-01
 -1.7540450e-01
 -5.8315158e-01
 -2.7666345e-01
 -5.3240973e-01
 -3.8041818e-01
 -6.2147576e-01
  2.6251242e-01
 -2.6863974e-01
 -4.1230619e-02
  1.8635373e-01
 -5.8515526e-02
  7.9702526e-02
  2.1068133e-01
  1.6849221e+00
  3.9388135e-01
 -5.0443679e-01
  1.6727337e-01
  2.3490846e-01
  4.2771059e-01
 -7.9145230e-02
 -7.8041434e-02
  1.0713814e-01
  6.3698754e-02
 -3.1458832e-02
  1.0005404e-01
 -5.5409204e-02
 -4.4309062e-01
 -4.0384358e-01
 -4.6281404e+00
  6.9643736e-01
 -2.7761583e+00
  9.0436727e-01
 -1.4709617e+00
 -2.0234337e+00
 -8.5972393e-01
 -2.3450313e+00
  8.5754097e-01
  4.1919175e-01
 -4.2553008e-01
 -1.1347858e+00
  3.8978788e-01
 -1.4231081e+00
  1.0383295e+00
 -5.4735827e-01
 -3.3777685e+00
  5.5586332e-01
  5.6989592e-01
 -2.4058826e+00
  5.7804561e-01
 -3.1712213e-01
  1.4043940e+00
 -1.3794540e+00
 -1.9897368e-02
 -9.1986626e-01
  1.0357044e+00
  2.1251621e-02
 -1.2710038e-01
 -1.4094654e+00
 -6.3816750e-01
 -2.4850469e+00
 -3.3714318e+00
 -7.3093981e-01
  2.9677957e-01
 -1.9857221e+00
  2.7696526e-01
 -1.7919557e-03
 -1.5973104e+00
 -1.8756577e+00
 -3.3747721e-01
  2.9368768e-03
 -4.0764841e-01
  9.0456486e-02
 -3.0265384e+00
 -1.2454720e-01
  9.8508382e-01
 -1.3496737e-02
 -2.2367884e-01
  1.5793660e-01
 -1.3069700e-01
 -8.3463542e-02
 -2.8663312e-04
 -1.7606339e-01
 -1.0068959e-01
 -4.1661768e+00
  4.1247177e+00
  1.1424984e-01
 -1.9314342e+00
  3.0806750e-01
 -4.0923586e+00
 -1.5320292e+00
  1.3943005e+00
 -3.0189192e-01
  4.3967503e-01
  3.3011013e-01
 -3.1967402e-01
  1.9766501e-01
  6.9185477e-01
 -5.8109117e-01
 -2.0342152e-01
  2.4392919e-01
 -1.4541651e-01
  7.5264558e-02
  3.0502684e-02
  1.2331671e+00
  5.7382452e-01
 -5.7202804e-01
  7.4697830e-02
  4.8350400e-01
  1.0040815e+00
  1.0793135e+00
 -1.0861033e-01
  9.2721027e-01
 -6.4209945e-02
  4.4077149e-01
 -2.2030903e-01
  3.2482482e-02
  1.3227019e+00
  7.6197833e-01
  2.4491343e-01
  3.0578622e-01
 -3.9991817e-01
  5.6113166e-01
 -6.0701752e-01
 -1.1661836e+00
  1.0132831e-01
  3.8488099e-01
 -6.8638876e-02
  5.9704151e-02
  1.8778393e-01
  2.2275154e-01
  1.1001439e-01
 -1.0191157e-01
  7.8583166e-02
  1.4977129e-01
  2.3937675e-01
 -5.3029023e-02
  1.4457846e+00
  2.4249902e-01
  9.2382386e-02
  8.0364600e-02
 -3.6938775e-02
 -9.3456030e-01
 -4.6511960e-01
 -2.6099432e-01
 -3.7079077e-02
 -1.3548668e-01
 -8.3486192e-02
 -1.2583092e-01
 -6.9320403e-02
 -1.2922810e-01
 -3.4379834e-01
  7.3068881e-01
  9.8886922e-02
 -7.7467370e-01
  2.8021508e-01
  2.4375957e-01
  3.4662914e+00
 -8.8412911e-01
 -5.1980759e-03
  9.4263859e-02
  1.6631897e-01
  1.1262286e-01
  4.9325634e-02
 -5.3739183e-02
 -3.3216063e-02
  2.0001674e-01
  1.4446788e-01
  7.7305526e-02
  2.9246724e-01
 -3.1899449e-01
 -8.2152359e-02
 -1.1970891e+00
 -2.1824958e+00
 -6.8173361e-01
 -1.4982970e-01
 -1.2112665e-04
 -3.5157967e-01
  3.5747382e-01
 -2.8322551e-02
 -5.4972954e-03
  9.7812608e-02
 -3.6525047e-01
  1.9592035e-01
 -4.8503862e-03
 -2.0997675e-01
  2.4806532e-01
  3.8623878e-01
  1.9790843e-02
  1.2537889e+00
  1.1187503e+00
 -3.8740936e-01
 -9.4566144e-02
  2.0828216e-01
 -3.4694701e-01
 -1.5937875e-01
 -7.3198384e-01
  1.9100226e-01
 -1.9848004e-01
 -6.2374109e-01
  3.4086683e+00
 -4.6871316e-01
 -2.1279636e-01
 -9.2758709e-01
 -7.2747684e-01
  4.9117833e-02
  5.7692969e-01
 -1.0435095e-01
 -1.1917785e-02
  3.3615130e-01
  3.2288171e-02
 -1.6395466e-01
  1.4021803e+00
  6.2952556e-02
  1.5849246e+00
 -2.4421524e-01
  7.8502655e-01
  4.2894874e-02
  4.1321048e-01
  5.5528115e-03
  6.6812670e-01
 -3.4823436e-01
  1.2326990e+00
  2.1385776e-01
 -1.4574370e-01
  4.2082254e-02
  1.9669999e-01
 -7.9661578e-01
  1.9431659e+00
  1.1668907e+00
  6.7421800e-01
 -1.5573293e-01
  1.7984636e+00
  6.0905886e-01
  4.6609753e-01
  1.6188836e-01
 -4.8389435e-01
 -3.3768737e-01
 -4.3257248e-01
  7.3600784e-02
  7.5053662e-01
  1.9278979e-01
 -1.0904003e-02
  5.3233683e-01
  6.1499666e-02
 -9.6755999e-01
  2.9584277e-01
  2.8064858e-02
 -2.3146290e-01
  3.9828047e-02
 -1.6178258e-01
 -4.3415733e-02
 -1.5688983e-01
  2.1362680e-01
  9.6902274e-02
  1.8517729e+00
  1.5608180e-01
  4.5711312e-01
  6.3553542e-02
 -1.1615454e+00
 -2.5247431e-01
  4.2572016e-01
  1.9563781e-01
 -1.7575592e-01
 -1.5511256e-02
  4.9060825e-01
  2.1597612e+00
 -1.8633670e-01
 -4.4167568e-03
  9.0667419e-02
  1.1827492e-01
  3.3681649e-01
 -2.6894987e-01
  1.3951483e-01
  2.9390079e-01
 -1.0016913e-01
 -5.6650311e-02
 -6.4362270e-01
  4.2026195e-01
  9.6379600e-02
  1.9433545e-02
  2.8117761e-02
  8.4814884e-02
  1.9925606e-01
  1.8709336e-01
  3.4329280e-01
  3.9125943e-01
  1.0282293e-01
 -2.6613855e-01
  8.3700240e-02
  9.4028339e-02
  1.8409480e-01
 -6.7014031e-02
  1.0108709e-01
  8.4939254e-03
  7.0087627e-02
 -1.6105030e-01
  3.3128113e-02
  9.4814551e-01
  1.9740802e-01
  1.6724154e-02
  2.8928706e-01
 -6.5420635e-02
 -1.4680383e-01
 -1.5696511e+00
 -2.0432217e-01
  1.4375901e-01
  5.9342749e-02
  2.7207631e-01
  3.6599481e-01
 -3.7354729e+00
 -1.9780983e+00
 -3.1419584e-01
 -2.7848818e+00
  8.0686373e-01
 -7.3296934e-01
  2.0360833e-02
  1.5180461e+00
 -2.4502082e-02
  1.5700909e-01
  9.5071040e-02
  1.2021016e-01
  1.3310072e-01
  3.7289870e-01
  1.0547807e+00
  1.6383582e+00
  5.0990894e-02
  4.8571604e-01
 -1.2569401e-01
  3.8839638e-02
  1.2932293e+00
  3.0734915e-01
  2.2684008e-01
  9.8882154e-02
 -8.9037263e-01
  4.2836073e-01
  7.2725338e-01
  3.8291469e-01
  6.5309864e-01
  2.8513637e-01
  2.3550110e+00
  4.9363014e-01
 -3.2581473e-03
 -1.7219683e-02
  1.0512952e+00
  2.1789309e-01
  3.6169201e-01
  4.1051212e-01
  8.0717616e-02
 -3.5777640e-01
  8.0255963e-02
  8.3074248e-01
 -2.2853840e-02
 -6.3224114e-02
  3.0146095e-01
 -2.4714918e-04
 -2.2838315e-01
  8.7364562e-02
  2.3285210e-01
  1.1789143e+00
 -2.3508975e-01
  6.5211125e-02
  2.5185268e+00
 -1.4281520e+00
  7.3742712e-01
  1.1617266e+00
 -3.9966902e-01
  1.6000806e-01
 -1.1506714e+00
 -2.6859078e+00
 -7.7725607e-01
  1.7915764e+00
  7.1690774e-01
  1.5177377e-01
 -9.1038607e-03
 -2.4190442e-01
  3.2819843e-01
  1.1681010e-01
  1.9448308e+00
  4.9740517e-01
  8.9061099e-01
 -6.9212556e-01
  9.4209708e-02
  9.6991181e-02
  3.9026213e-01
  1.6817190e-01
  4.4587487e-01
  5.5933511e-01
  2.2465041e+00
 -2.1642293e-01
 -7.7721477e-01
  2.0945112e-01
  1.3098806e+00
 -1.6791745e-01
  1.0170565e+00
  5.4283035e-01
  5.0080907e-01
  3.9130166e-02
 -3.9522353e-01
  4.2669591e-01
  2.5966566e-02
  2.5337130e-01
 -6.0897976e-01
  7.8162676e-01
 -5.8029681e-01
  2.0842335e-01
  2.1166629e-01
 -1.9881809e-02
 -3.5798731e-01
  1.0045180e-01
 -3.1861755e-01
  2.4907506e-01
  1.0578025e-01
 -1.1158697e-01
 -6.5248661e-02
  2.8857198e-01
  1.3580754e+00
 -9.4480798e-02
 -9.0947445e-04
  5.5108383e-02
 -1.6260424e-01
 -5.2479953e-02
  1.7393421e-01
 -6.8617862e-01
 -3.4182122e-01
 -3.2530415e-01
  1.6544844e-03
 -3.1728253e-01
 -4.3611042e-02
  3.2367170e-01
  9.9618554e-02
  8.7048441e-02
 -2.0118834e-01
 -6.9778062e-02
  1.0140600e-01
 -9.6706189e-02
 -1.6683686e-01
 -2.7616051e-01
 -1.9091761e-01
  5.0753061e-02
  2.1010990e-01
 -1.1441752e-01
  4.7549462e-01
 -2.3576503e-01
  1.9096914e-01
  2.7365644e-02
  1.0780605e-01
 -7.4954674e-02
 -2.1466184e+00
 -3.7484097e-01
  3.7355661e-01
 -4.7339004e-02
  8.7893039e-02
  5.8606267e-01
  2.8474785e-02
  1.5331164e-01
  1.4825407e-01
  3.0716038e-01
  3.0930373e-01
  2.9409879e-01
  8.1027949e-01
  2.1765932e-01
 -8.2401074e-02
 -4.7930998e-01
 -2.7359661e-01
  6.0171109e-02
 -9.4754333e-03
 -5.0200175e-02
 -7.3885404e-02
  4.3715786e-02
  1.7220699e+00
  2.0413668e-01
  1.3395952e-01
 -2.8233581e+00
 -1.0199793e-01
  5.6218479e-02
  1.9219494e+00
 -3.0955389e-01
 -5.0960231e-01
 -7.7040380e-01
  4.8244500e+00
  4.9101758e+00
  1.0634859e+00
  9.8336977e-01
  4.3144450e-02
 -7.0870090e-01
 -4.7911781e-01
 -5.7112855e-01
  3.3610144e-01
 -3.6680752e-01
 -6.6271174e-01
 -9.0734190e-01
 -1.1894219e-01
  9.2910492e-01
 -4.0960941e-01
  4.4570422e-01
  1.2375727e+00
  4.6107480e-01
 -1.8611304e-02
  2.3843794e-01
 -8.1875151e-01
 -4.5900992e-01
  1.0836775e-01
 -4.8581687e-01
  3.5628483e+00
  1.0763260e+00
 -8.4737986e-01
  7.0148712e-01
 -3.0763140e-01
 -6.0166883e-01
 -2.7301255e-01
 -2.3275803e-01
  3.1149903e-01
  4.1111603e-01
  2.1294543e-01
  6.8791634e-01
 -1.4322484e-01
  1.3150211e-01
 -2.6405677e-01
 -2.9220289e-01
 -2.6753306e-01
 -4.3405896e-01
 -2.1043223e-01
 -1.9975103e-01
  1.3054131e+00
 -6.8128161e-02
  4.5439202e-02
  6.5091503e-01
  1.9321568e-02
 -1.7030576e-01
 -8.3593476e-01
 -3.9105129e-01
 -3.0388808e-01
 -2.3641655e+00
 -1.3575527e-01
 -7.8847730e-01
 -3.3889236e+00
 -1.3125557e+00
 -5.6839883e-01
  1.4209241e-02
 -1.0051543e+00
  4.0243804e-01
  8.0697078e-01
  1.1222725e+00
  7.8584290e-01
  7.6563394e-01
  7.6210761e-01
 -1.2586911e-01
  4.1726227e+00
 -9.8508626e-01
 -1.0306696e+00
 -5.4577895e-02
 -7.1591538e-01
  7.3479462e-01
 -2.3555887e-01
  4.8459810e-01
  2.3809138e-01
  6.9728367e-02
 -6.7662656e-01
  4.9534494e-01
 -3.3776243e+00
  2.1569683e-01
 -1.2641577e+00
  3.3394182e-01
  1.7075309e-01
  1.6016753e+00
  8.8997281e-01
  1.6716120e+00
 -1.5782579e+00
  2.8635138e-03
  1.7303238e+00
 -3.0709770e-01
 -1.9279456e+00
 -4.7128606e-01
 -5.2862890e-02
 -3.2562032e-01
 -3.6037061e-01
  1.7738692e-01
  1.4181589e-01
  1.4615443e-01
 -1.2789167e-01
  5.9595328e-02
  2.9975504e-01
 -7.6413895e-03
 -3.1140301e-01
  3.9042188e-03
  2.1395063e-02
 -1.2249088e-01
 -1.7913252e-01
  2.4440618e-02
 -2.7588870e-02
  1.4107826e-01
  2.6188263e-01
  2.9009093e-02
  1.2138020e+00
  1.1518253e-01
  1.9246228e-01
  2.1252148e-02
 -1.9458514e-01
 -8.0324024e-02
 -2.8160133e+00
 -1.6430296e-01
  7.3877752e-01
  3.0241122e-02
  8.1950754e-02
 -4.4705671e-01
 -2.1201124e-02
 -9.0882704e-02
 -1.4742441e+00
 -2.6396202e-02
  1.8421890e+00
 -3.2722348e-01
 -1.7478737e-01
  2.7042568e+00
  3.6929738e-02
  1.0593168e-01
 -1.4141959e-01
  3.1925750e-01
 -1.6214502e-01
 -9.0556361e-02
  8.9057602e-02
 -2.1676247e-01
 -1.3076682e-01
 -2.2379406e-02
 -1.7812482e-01
  7.3729068e-02
  1.1320318e-01
  1.3841751e-01
 -1.6270015e-01
 -3.4256157e-01
 -2.7140045e-01
 -8.7728381e-02
 -7.2475290e-01
 -3.1330302e-01
 -2.8917813e-01
  5.5888814e-01
 -4.3277338e-02
  1.5077905e-01
  9.6348904e-02
 -3.8548484e-02
 -1.7368549e-01
 -7.4753121e-02
 -1.0421157e-02
  1.7527577e-01
 -4.2754211e+00
  2.4705310e+00
 -6.2766361e-01
  1.3890628e+00
  1.7323635e+00
  1.4318694e+00
  1.7996754e-01
  1.8356951e+00
  4.0141888e+00
  1.2300501e+00
 -1.0467424e+00
  4.6993530e-01
  1.0231050e+00
 -7.7813894e-01
  1.3106422e+00
  6.8170726e-01
  3.5097435e+00
  1.3562815e+00
 -3.2776809e+00
 -9.8975462e-01
 -7.2296268e-01
 -1.0117936e+00
 -5.8965057e-02
  1.8901404e+00
  3.0195127e+00
  7.0958304e-01
 -9.4625980e-01
  3.2980692e-01
 -6.7808157e-01
 -1.5043547e+00
  2.9354480e-01
  3.5170124e+00
  1.8537135e+00
  9.3114674e-01
 -3.2831714e+00
  1.1041023e+00
  5.3587992e-02
 -2.7813190e-01
 -2.0769274e+00
  1.9272557e+00
 -6.9728885e-03
 -6.4761508e-01
  2.5600438e+00
  2.7154571e-01
  2.8579400e+00
  3.4964044e-02
  3.3472136e-01
  1.1336058e-01
  2.0072387e-01
 -5.1681525e-01
 -5.3640795e-01
  4.4335164e-02
 -2.4667704e-01
 -2.1536793e-01
  1.7395642e-01
 -2.6825330e-01
  5.5777731e+00
  7.3778069e-01
  4.4036105e-01
 -3.6805865e-01
  3.3072323e-01
 -2.3848641e+00
  3.6459780e-01
  2.7500761e-01
 -3.8622678e-04
 -1.8624547e-01
 -1.0460481e-02
 -3.1145025e-02
 -1.1616132e+00
 -1.2508185e-01
 -1.7477024e-01
 -3.3009022e-02
  2.8536013e-01
 -1.9348376e+00
 -7.1574789e-01
  1.6718818e-01
  1.7932731e-01
 -5.7711911e-01
 -2.4266027e-01
  2.6717201e-01
 -4.0356100e-01
 -7.9756486e-01
 -1.6741413e-01
  6.6678017e-02
 -1.6631144e-01
  4.8769485e-02
  3.3560777e+00
  2.2231604e-01
  7.2762042e-02
 -4.7726121e-02
 -7.5443380e-02
  1.1298521e-01
 -8.0094762e-02
  2.3506422e+00
 -6.5983236e-02
 -2.1547662e-02
  1.1866044e+00
  6.7551292e-02
 -4.3511933e-01
 -7.1025617e-02
  1.6376126e-01
  9.5140100e-01
 -4.2020086e-02
 -1.3761960e-01
  2.8293064e-02
 -1.0216480e+00
  2.1506256e-01
 -1.7412579e+00
 -1.8559000e-01
 -2.4479114e-01
  6.1298460e-02
  1.0110790e-02
 -2.7579784e-02
 -3.0665213e-01
  3.1793113e+00
 -6.0784101e-01
  1.8926790e+00
 -1.7597514e+00
 -1.2920569e+00
  8.1139576e-01
  7.7234441e-01
 -1.3817954e+00
 -2.7579471e-01
 -4.4317690e-01
 -3.9110425e-01
 -1.3992574e+00
 -2.5946373e-01
  8.8984913e-01
  3.6048973e-01
  5.2493882e-01
 -3.0948266e-02
 -7.8077412e-01
  8.9432694e-02
  3.9063904e-01
  5.2092218e-01
 -1.2918782e-01
  1.5781304e+00
 -2.9474956e-01
  4.1833842e-01
 -7.3627716e-01
 -1.6368028e+00
 -1.3128904e-01
 -7.0818734e-01
 -1.3190615e+00
  1.9983380e+00
 -1.0722023e+00
  1.2307684e+00
  5.1109242e-01
  3.2739270e-01
 -1.3195884e+00
  2.4520952e-01
  1.3082679e-03
 -2.4519178e-01
 -4.8250830e-01
 -7.2543466e-01
  2.7030725e-02
  1.6284768e-02
  7.5434893e-02
  8.3275609e-02
 -1.2544650e-01
 -1.7401362e-02
 -2.8682002e-01
 -1.1606375e-02
  1.3096518e-02
 -4.2045165e-02
 -7.2813049e-02
 -9.7642764e-02
  2.8147642e-02
  1.9430432e+00
  9.4094044e-01
 -4.8366671e+00
 -3.8389254e+00
  1.9907486e-03
  1.2083888e+00
  1.7279115e+00
 -1.2931038e+00
  1.7293527e+00
 -5.4025376e-01
  3.2392630e-01
 -3.4298328e-01
 -6.6561049e-01
 -5.3163260e-01
 -1.6398835e-01
 -1.1871504e+00
  2.9533188e+00
  6.4078984e+00
  2.2888682e+00
 -4.1074780e-01
  3.4369951e-01
  4.3037039e-01
 -1.7438580e+00
 -8.8450648e-02
  2.7609973e+00
  4.3914886e+00
  3.6320429e+00
 -1.5077101e-01
  2.9143205e-01
  9.6710795e-01
 -6.4838845e-01
  1.8743558e-01
  2.9991632e+00
  1.1800151e+00
  2.2454391e+00
  1.8666972e-01
  1.8480890e+00
  9.0946269e-01
 -1.0739390e+00
  1.0869969e+00
  1.3422322e+00
  1.3482531e+00
 -1.4792122e+00
  8.3693933e-01
 -4.2087942e-01
 -1.6833794e-01
  1.2816557e+00
 -1.6734900e-01
  1.7165440e-01
 -1.3281640e-01
 -2.2438655e+00
 -1.8685336e-01
  2.0885320e-01
 -7.3582992e-02
  2.0582654e-01
 -1.4531806e-01
  4.2309612e-01
 -1.9860208e+00
  3.8347566e+00
 -9.5618188e-01
  1.9815203e+00
  4.3631105e+00
 -1.1425791e+00
  6.1266899e-01
  1.3194257e+00
 -4.0749991e-01
 -3.6960185e-01
 -3.8790521e-01
 -5.2609354e-01
 -1.6561772e-01
  4.8185605e-01
  8.0030942e-03
  1.1030554e+00
  4.5060360e-01
  4.9976164e-01
  2.0140357e+00
  2.1374558e-01
  3.1082201e-01
 -7.3087609e-01
 -3.4869152e-01
  7.7050596e-01
 -6.6344523e-01
  9.2939162e-01
  2.0464978e-01
 -2.1365397e-01
  1.2184229e+00
  1.5686436e-01
  1.8741786e-01
  3.7175223e-01
 -1.7148905e+00
 -3.3048388e-01
 -3.5008749e-01
 -7.7025920e-01
 -1.5585670e-01
  5.0879133e-01
  9.9405217e-01
 -6.3724744e-01
 -5.5045670e-01
 -3.0326118e+00
  2.4964453e-01
 -2.1431889e-01
 -1.7467792e-01
 -2.5889480e-01
  2.2120567e-01
 -1.5859876e+00
 -4.1820342e-03
  2.4431005e-01
 -1.9576859e-01
 -6.5480411e-02
 -1.9289223e-02
  1.6791411e-01
  9.9435188e-02
  1.1326591e+00
  2.4964939e-01
  2.3452437e+00
  1.2808008e+00
 -1.9457167e-01
  6.6809517e-01
 -7.2330773e-01
  1.0589130e+00
  9.9796265e-02
  1.4889339e+00
  1.5450042e-01
 -1.2402537e-01
 -1.4907050e-01
  4.9500860e-02
  1.1000472e-01
  8.7152414e-02
  1.7573076e-01
  3.8378778e-01
  9.5799111e-02
  1.2675266e-01
 -1.5135455e-01
  4.1687214e-01
 -3.2646629e-01
 -2.8837010e-01
  3.1302667e-01
  1.9265015e-01
 -3.0307180e-01
 -8.5883230e-02
 -4.1303027e-01
 -1.1438604e-01
  1.2611460e-02
  2.5520775e-01
  5.1298904e-01
 -1.1555262e+00
  2.1715824e-02
  1.5849233e-02
 -1.2907225e-01
  9.7222567e-02
 -7.0613045e-01
 -2.5385830e-01
 -9.7019672e-02
 -9.0447553e-02
  2.0004761e-01
  2.3759200e-01
 -1.9635580e-01
  2.8887522e-01
  2.5381560e+00
  2.6685125e-01
  1.0553209e-01
 -1.3304745e-01
 -3.6801785e-02
  3.1236503e-01
  8.1839882e-02
 -4.9056384e-01
 -1.0911469e-01
  7.8446738e-02
 -3.2503612e+00
  3.7995062e+00
 -3.3039558e+00
  1.4825962e+00
  1.3256918e+00
  5.9496713e-01
  1.5659705e+00
 -1.4916083e+00
  1.0628096e+00
 -1.3283902e+00
 -9.5128250e-01
  4.6019830e-02
 -1.7855433e+00
 -2.8862190e-01
  4.6322554e-01
  4.5074779e-01
 -1.3535891e+00
  3.2601213e+00
 -6.5540212e-01
  4.5176277e-01
 -4.2408502e-01
 -7.3860210e-01
 -3.0821049e+00
  7.0527351e-01
  1.9429663e+00
  9.8112196e-01
  4.0630829e-01
  7.2494276e-02
 -2.1481047e+00
 -5.9903228e-01
 -1.7817843e+00
  3.3208826e-01
  1.0476985e+00
 -2.7133944e+00
 -9.3072718e-01
 -1.3341365e+00
 -2.4012976e+00
  9.8462951e-01
 -9.8026729e-01
  2.9641330e-01
 -5.6532276e-01
 -1.1075667e-01
 -4.1757464e-01
 -6.4889902e-01
  2.4592767e+00
 -3.0803251e-01
 -5.7845235e-01
 -5.2149404e-02
  3.0265051e-01
 -1.0062304e-01
  4.9405912e-01
  8.0264710e-02
  1.0867641e-01
 -3.5757568e-01
 -2.5050813e-01
 -1.3241931e+00
 -1.6109763e-01
  2.5346237e-01
 -1.7400949e-01
 -3.5583520e-01
  1.9128805e-01
 -9.2673562e-02
 -1.1145613e-01
  4.6638057e-02
 -1.1936738e-01
  2.2406566e-01
  2.2892809e-01
  1.0260756e-01
  3.3524856e-01
  6.8600252e-02
 -1.6888867e-01
 -1.1843643e-01
  2.3179133e-01
  4.1266695e-01
 -1.1035333e-01
  4.9181145e-02
 -1.0833922e-02
 -2.4852403e-01
 -1.3915175e+00
 -6.7228097e-01
 -1.3589762e-01
 -3.0617354e-02
 -3.9109077e-02
 -2.5001010e-01
 -4.1550490e-01
 -2.8219089e-01
 -6.5707934e-01
  8.9709181e-04
  7.8342371e-02
  3.1183675e-01
  1.2681206e-01
  1.0087267e-01
  2.2361913e-01
 -3.3482665e-01
  1.4153719e-01
 -3.4388992e-01
  1.5609857e-01
  1.1030500e-01
  2.6636451e-01
 -1.8503734e-01
 -4.5241937e-02
 -2.5600854e-01
  2.1661034e-02
 -4.8023745e-02
 -4.2694010e-02
  2.2147128e-01
 -5.6114583e-03
  1.5472811e-01
  2.5931230e-01
 -4.5164740e-01
 -7.8367833e-03
 -7.4592352e-01
  5.1039147e-01
 -4.3563180e-02
  6.2843955e-01
  1.0448793e+00
  1.6886829e+00
 -2.0824166e-01
 -3.5872099e-01
  6.5985310e-01
  1.6997518e-01
  2.1155888e-01
 -2.5340480e-01
  2.9827890e-01
 -2.5013635e-01
 -2.7796641e-01
  1.2504686e-01
 -1.6930507e-01
 -1.2033004e-01
 -1.6917892e+00
  1.9199581e-01
 -8.5519016e-02
 -9.2532448e-03
 -2.2798072e-01
 -6.9012217e-02
 -1.7565052e-01
 -1.7552529e-01
  5.7871139e-01
 -1.4306907e-01
 -3.3778638e-01
 -6.1930567e-01
  4.6021947e-01
  5.0443149e-01
  1.7241322e-01
 -3.0749215e-02
  8.9114487e-02
  2.4125736e+00
  2.2024530e-01
 -3.0589831e-01
  9.9677797e-03
  9.5225401e-02
 -2.8022370e-01
  7.5957388e-01
 -2.9528040e-01
  1.8459153e+00
  6.9685340e-02
 -2.8108054e-01
  1.3865426e-01
  4.8476386e-01
  5.3763194e-03
 -4.7471344e-02
 -8.3371289e-02
  4.5769222e-02
  6.0245452e+00
 -8.2818627e-02
  2.3759766e-02
 -1.3755150e-01
 -1.5075427e-01
  5.0781304e-01
  2.4114556e+00
  5.2352166e+00
 -7.6234186e-01
  1.1898710e+00
  1.0145133e+00
 -6.5760440e-01
  4.7122082e-01
  8.0261523e-01
 -5.1480919e-01
  6.8887657e-01
 -2.0119439e-01
  1.7053150e+00
  6.9024436e-02
  6.8694431e-01
  2.4479055e-01
  9.3304729e-01
  1.8412904e-01
  1.7244256e-01
  2.8790450e-01
  1.1707544e+00
  5.8110911e-01
  1.0593524e+00
  1.3097903e+00
  2.0021260e+00
  3.2384712e-02
 -3.8932273e-01
 -2.1277577e-01
  1.4709984e-01
  5.7774341e-01
  1.5700425e+00
  1.8967302e+00
  3.7761185e-01
  2.2796293e-01
  2.6868474e-01
  6.6985524e-01
  1.0877330e+00
  4.4425878e-01
  1.7858687e-01
  7.1196854e-01
 -7.2257631e-02
  3.1883511e-01
  1.0806949e-01
  2.2577128e-01
 -4.6390757e-01
 -1.8919724e-01
 -5.4439928e-02
  1.7669465e-01
 -9.9756345e-02
 -2.2661769e-01
  7.7705276e-01
  1.7781383e+00
 -3.5487726e-02
  2.9485953e-01
  1.4705957e-01
  4.5832198e-02
  1.2136920e-01
 -5.9483945e-01
  2.7608886e-01
  1.5202260e+00
  4.7400210e-02
  1.4131474e-01
  3.0237597e-01
  3.9747718e-01
 -2.2054502e-01
 -1.8972011e-01
 -1.9788626e-01
 -1.8586512e+00
 -1.8682578e+00
  6.1519857e-02
 -7.6733880e-02
 -1.2753640e-01
 -1.5766090e-01
 -8.6886592e-02
  2.7628431e-01
 -1.5495788e-01
 -1.2973621e-01
 -1.1673146e-01
 -3.2549623e-01
 -4.6682552e-02
 -1.2501337e-01
 -1.4830160e-01
 -1.1106619e+00
 -2.4238801e-01
  1.6182688e-01
 -2.4791595e-02
 -1.9712080e-01
 -9.9175438e-02
  4.3739721e-02
  1.1831841e-01
  1.0027261e-01
  1.2274426e-01
 -2.8331906e-01
 -2.0899457e-01
  1.8438581e-02
 -3.8342655e-01
 -1.1958102e-01
 -9.5912881e-02
  1.5948305e+00
 -1.9369771e-01
 -1.6024239e-02
  1.1057921e-01
 -1.3595964e-02
  1.0092952e+00
  1.9550313e-01
  1.6931215e-02
 -2.6751731e-02
  6.5919966e-02
 -1.6118804e-01
  8.5460745e-02
  5.3777707e-01
 -2.6813161e-01
  1.8573005e+00
 -5.5637616e-01
 -1.6750798e+00
 -1.4393584e-01
 -2.6165828e-02
  1.1596019e+00
  1.5736845e+00
 -7.3252530e-03
  1.8919885e+00
 -1.9102910e-01
 -7.8033352e-01
 -6.2408322e-01
  1.8805186e+00
 -1.6150869e+00
 -2.4855023e-02
  1.3119267e-01
 -9.9811721e-01
 -7.4118519e-01
 -4.5667583e-01
 -3.9338768e-01
 -4.1793054e-01
 -2.2574316e-01
  2.8980818e-01
  6.2564444e-03
  7.2013068e-01
 -5.0204575e-01
  2.4467880e-01
 -2.9572582e-01
 -8.3607376e-01
 -1.1867820e-01
 -1.0637372e+00
 -9.6096091e-02
  2.7180812e+00
 -1.4908717e+00
 -6.3651592e-01
 -8.5863978e-01
 -1.3493811e+00
 -5.7262582e-01
 -2.1566558e-01
 -2.0323496e-02
  1.1414801e-01
 -2.3842981e-01
  2.2176003e-01
  1.4236644e-01
  4.7625694e-03
 -1.0399492e+00
 -4.6509340e-02
 -1.5312073e-01
 -2.9167566e-01
  4.5511952e-01
 -7.0053166e-01
 -2.6165366e-02
 -3.5776016e-01
 -1.8087220e-01
 -3.9760208e-01
  3.2134899e-01
  1.0637951e+00
 -3.9042631e-01
 -1.9227809e-01
  4.0246941e-02
 -9.9852085e-02
  3.3312541e-02
  8.5559642e-01
  6.5353476e-03
  3.8460907e-01
  1.1383387e-01
 -2.8689545e-01
  2.6753259e-01
  1.8074469e-01
 -5.6969561e-02
 -2.3208344e-01
 -8.8615485e-02
 -1.6922344e-01
 -4.0710845e+00
  1.1889162e-01
  3.0774015e-01
  2.5676465e-01
  1.0840092e-01
  9.0730209e-03
 -4.3224216e+00
  1.6120140e-01
  3.7078440e-02
 -8.3781876e-02
 -5.0723237e-01
  2.5828223e+00
  2.9774496e-01
  3.9852280e-02
 -1.9167729e-01
 -3.7320148e-02
 -1.1226969e-01
 -2.0856568e-01
  7.6870464e-02
 -3.0770894e-02
 -4.1648626e-02
  4.0572859e-02
  1.1252116e-01
 -1.4616141e-01
 -2.3858677e-01
 -2.3084424e-01
  4.2850826e-02
  2.3014344e-02
 -1.2602875e-01
  7.6288521e-01
  5.7386488e-01
 -1.8029852e-01
 -9.1719426e-02
  6.7677490e-02
 -6.1425887e-02
 -8.7800048e-02
  1.2652412e-02
 -1.9317476e-01
 -9.3562119e-03
  2.1526363e+00
  4.6441951e-01
 -7.3096883e-01
  1.7371459e-01
  5.1945662e-01
 -3.3932844e-01
  2.2378752e-01
 -5.6356020e-02
  7.1591154e-02
 -1.4992037e-01
  2.8016984e+00
 -7.2756134e-02
  2.3346917e-01
  1.3015229e-01
  4.2095996e-02
 -2.4475423e-01
  3.7948185e-01
 -6.4847672e-01
  2.6998025e-01
 -1.9669299e-01
  3.6521214e-01
  8.9563847e-01
  1.0497884e-01
  2.1022010e-01
  2.1593228e-01
 -1.1909194e-01
 -2.6189808e-02
  7.4742204e-03
 -1.2765445e-01
  1.8038808e-01
  1.3872087e+00
  4.3263531e-01
  3.2626110e-01
  2.6750836e-01
  1.1352354e+00
  2.2777717e-01
 -3.1545901e-01
 -2.1837509e-01
 -3.2400006e-01
 -1.3137008e+00
 -2.0254938e-02
  2.7200129e-02
 -8.3824776e-02
  1.9844455e-01
 -6.8440154e-02
  4.1726433e-02
 -3.1975353e-01
 -6.3618436e-02
  6.7855638e-01
  7.8084362e-01
  1.1488200e+00
  2.6094351e-02
  1.1340520e+00
  5.6983724e-02
  2.3338467e-01
 -7.0466816e-02
 -1.8867223e+00
  4.3087924e-01
  1.7020813e+00
  5.8010516e+00
  1.8748999e+00
  1.8515272e+00
  1.6295915e+00
  1.8780854e+00
  3.2027783e+00
 -5.5285162e-01
 -1.6597964e+00
 -4.2327324e-01
 -2.8370426e+00
 -2.0083792e+00
 -1.7878299e+00
  6.6677254e-01
  1.3029490e+00
 -1.0898963e+00
 -1.5587078e+00
 -3.1127417e-01
 -5.1735502e-01
  8.9080608e-01
 -1.5286320e+00
  3.4725475e+00
 -9.4446659e-01
 -3.5422373e-01
 -3.0578666e+00
  2.3615442e-01
 -8.0838603e-01
 -6.8001628e-01
 -3.1527944e-02
 -3.6804619e-01
 -6.2408537e-01
  2.6352274e-01
  2.4046280e+00
 -1.3875920e+00
  2.3012817e+00
 -2.6711845e-01
 -2.0357971e-01
 -8.1891155e-01
 -2.5522524e-01
  1.7762241e-01
 -7.1966991e-02
  8.5207260e-01
  2.7230713e-01
  3.1393489e-01
 -3.6330926e-01
 -4.7275692e-01
  2.2724254e-01
 -1.5590365e-01
  1.3053757e+00
  2.0859540e-01
 -9.0264760e-02
  1.0093823e-01
  8.3605960e-02
  2.0384477e-01
 -2.5176269e-01
  1.3925160e-01
 -2.1847720e-01
  1.3747188e-01
 -4.4071537e-02
 -2.7887916e-02
 -1.8254991e-01
 -8.7315030e-02
  2.3471090e-01
  1.7420503e+00
  2.1784145e-01
  1.2182382e-01
  1.4772592e+00
  1.3084978e-01
  7.3549390e-02
  1.5740527e+00
 -3.0299479e-01
  1.0526499e-01
 -5.3130455e-02
 -1.4700866e-01
 -6.4443552e-01
  3.7279892e-01
  2.9204178e-01
  7.2819151e-02
  1.9002962e-01
  9.3279839e-02
 -2.0519751e-01
 -2.7925211e-01
  1.0792170e-01
  9.2348002e-02
  1.1677646e-02
 -1.1458833e-01
  4.8162028e-02
 -1.2509924e-01
  2.2553599e-01
 -3.9272003e-02
  1.4175861e-01
 -1.2234541e-01
  4.0165129e+00
 -4.8631462e-01
 -1.5241374e+00
  9.5132567e-02
 -1.9301124e-02
 -1.2742919e-01
  8.9821339e-02
  1.2134071e-01
  6.3280070e-01
  4.9250826e-01
 -1.1396644e-01
  8.1915915e-02
  1.2720334e-02
  1.5906660e-01
  2.1637952e-01
  1.4924921e-02
 -1.8549107e-01
 -1.1927851e+00
  1.5294709e+00
  6.2660658e-01
 -1.0691502e-01
  4.2184644e+00
  2.2980702e+00
  2.9068332e+00
  2.8583872e+00
 -1.9496313e-01
  1.0871848e+00
 -1.6819999e-01
 -1.2523526e+00
  9.7370553e-01
  8.4248871e-02
  1.2405008e+00
  1.3142149e+00
  1.8989646e-01
  1.8530364e+00
 -2.3712122e+00
 -2.9417387e-01
 -4.0903920e-01
  2.1858151e-01
 -9.7815573e-01
  1.3552769e-01
  7.8254807e-01
 -1.3139014e+00
 -1.0060962e+00
 -4.8544616e-01
  3.3890146e-01
  2.7185307e+00
  3.9021009e-01
 -1.2273390e+00
  2.5769129e+00
  2.1619024e+00
 -4.1814899e-01
 -1.2640901e+00
  3.1212288e-01
 -6.8931335e-01
 -7.2714561e-01
 -1.1026098e+00
  9.8537374e-01
  5.2217370e-01
 -2.6739201e-01
 -4.9303854e-01
 -2.2730017e-02
  4.3953511e-01
 -3.8108844e-01
  1.0790796e-01
 -2.9129454e-01
 -1.1442361e-01
  1.2128378e-01
  4.0045425e-01
 -5.3704840e-01
  8.7889217e-02
  7.8797257e-03
  3.2494485e-01
  1.2885754e+00
  2.1048796e+00
 -3.1212010e+00
  2.2859025e-01
 -5.9223056e-01
 -1.7297766e+00
  1.4922304e+00
 -2.1365187e+00
 -8.7710999e-02
 -2.1687636e+00
  2.6075640e+00
  7.5793809e-01
  1.2746032e+00
  2.0413487e+00
  1.3097807e+00
  7.0775318e-01
  1.2286815e-01
 -3.6301253e+00
  1.9185095e+00
  2.1039414e+00
  7.2397864e-01
  9.4241256e-01
  8.4881389e-01
  4.8778129e-01
  2.4447699e-01
 -3.4682236e+00
 -5.3003085e-01
  3.2044441e-01
  2.2424304e+00
  1.0470805e+00
  1.8080171e+00
 -2.9177940e-03
 -1.5804089e+00
 -2.2353885e+00
  2.3321611e-01
 -1.1790124e+00
  3.4660926e-01
  2.6749749e+00
  4.2963963e+00
  6.9265163e-01
 -1.3604131e+00
 -1.5385959e+00
  6.1250146e-02
  1.2741007e+00
  1.4989346e+00
 -6.4842147e-01
  6.3909423e-01
 -4.0569060e-02
  4.9631238e-01
  4.4946093e-02
 -2.9995846e-02
 -5.9923118e-01
  1.6554326e-02
  1.7675108e-01
  1.2768315e-01
  2.1337165e-01
 -4.7299790e-01
 -1.4311644e+00
  2.8040218e+00
  1.1901803e+00
  2.1820142e+00
 -9.7931379e-01
  2.6172752e+00
 -8.2414317e-01
 -3.3714760e-02
  1.2378929e+00
  2.4077328e-01
 -1.0388639e-01
  2.9815564e-01
  1.3427520e-01
 -1.9885262e+00
  2.0829423e-01
  2.4585848e-01
  1.4174156e+00
  8.6246377e-01
  1.4846528e-01
 -2.1595144e-01
  3.5191935e-01
  1.8721572e-01
  7.0741934e-01
  1.8317991e-01
  2.5986276e+00
  1.5123826e+00
  1.4030730e+00
 -1.9741048e-01
 -8.8410789e-01
 -7.0060854e-04
  7.5875020e-01
  8.3444649e-01
 -7.5715750e-01
  2.6473492e-01
 -1.0194728e-01
  3.2674262e-01
  5.8535910e-01
 -1.1753466e-01
  5.9386492e-01
 -8.4846422e-02
 -3.0187246e-01
  3.4864044e-01
  3.1252435e-01
 -7.1300191e-01
 -5.3043658e-01
 -5.1885706e-01
 -2.4612878e-02
 -6.4984853e-03
  7.7778488e-02
 -3.6737511e-01
  2.5133079e-01
 -2.5589508e-01
  4.4617659e-01
  7.5787500e-02
 -3.2049057e-01
  7.1909732e-01
  1.3635070e+00
  4.0754947e-01
  1.9753964e+00
  7.0869336e+00
  2.6987212e+00
  6.9211125e-01
 -1.7843537e+00
  2.5006239e+00
  1.4048560e+00
 -1.2355021e+00
 -4.8016292e-01
 -8.3667111e-01
 -1.6200740e+00
  8.6116940e-01
 -5.0086665e-01
  1.6830131e-01
  1.2512411e+00
 -7.3490316e-01
  1.0439190e+00
 -1.4497396e-01
 -9.3837792e-01
 -3.5926433e+00
  1.5406965e+00
 -1.0167022e+00
  2.3207984e+00
 -1.0258418e+00
  1.3479296e+00
  2.2027636e-01
 -1.6545452e+00
  8.1661463e-01
  1.5378711e+00
 -6.5773302e-01
  1.6618521e+00
 -1.2581346e+00
  5.7816619e-01
 -9.8186278e-01
 -2.4014020e-02
  2.4725611e+00
 -6.3445044e-01
  7.1779233e-01
 -1.2366083e+00
 -1.7998737e-01
 -5.8137310e-01
  3.6157116e-01
 -8.1905007e-01
 -6.5897368e-02
 -4.5977890e-01
 -2.2461130e-01
  4.6302907e-02
  7.8304037e-02
 -1.3895038e+00
 -1.1270951e-01
  6.9265425e-02
  2.0691414e-01
 -4.5204043e-02
  3.9825174e-01
 -1.2544969e+00
 -1.6853700e+00
 -1.7216213e-01
 -2.3424888e-01
  6.7773139e-01
  1.3744041e+00
 -1.8290386e+00
  1.0686573e+00
 -7.0674396e-01
 -2.2186332e+00
 -2.2569971e+00
  5.3232044e-01
 -6.7532825e-01
 -6.0044503e-01
  7.6472092e-01
 -5.4467127e-02
 -2.3387070e+00
 -2.5740702e+00
 -2.6724861e+00
  4.6342036e-01
 -5.6208426e-01
  2.0773261e+00
  6.9730127e-01
 -5.2549982e-01
 -1.9820030e+00
 -2.2029393e+00
 -2.1897180e+00
 -7.8515631e-01
 -2.1139681e+00
 -4.6948144e-01
  6.3358605e-01
 -3.3517286e-01
 -1.2371750e+00
 -5.0391310e-01
 -2.5735519e+00
  1.0415655e+00
  6.2662154e-01
 -2.8213319e-01
  2.0833018e-01
  2.7859244e+00
 -1.5724417e+00
 -4.3640986e-01
 -1.2711756e+00
  3.9768317e-01
 -1.0142041e+00
 -1.6021129e-01
 -8.8569269e-02
 -6.9350910e-01
  1.6996384e-01
  1.6456248e-01
  1.0128405e+00
 -1.1542672e-01
  1.2456582e+00
  3.7464473e-01
  3.0855584e-01
 -4.4067249e-01
  7.6881075e-01
 -2.2433450e+00
 -3.9555845e-01
 -2.4859607e+00
 -8.7777293e-01
 -2.7514020e-01
 -1.0619172e+00
  2.4722953e+00
 -2.0079594e+00
 -2.9485583e-01
  1.1841255e+00
  3.1926255e+00
  2.1526206e+00
  9.7510511e-01
 -7.5114226e-01
 -5.9778464e-01
  2.0467083e+00
 -9.8729849e-01
  1.1342586e+00
 -1.8180007e-01
  3.9228072e+00
 -2.2415045e-01
  1.1172825e+00
 -2.7591259e+00
 -7.3399705e-01
  1.5728578e-01
  1.8234100e+00
  1.3067718e-01
  2.6718459e+00
  8.0741234e-02
 -1.1003217e+00
 -8.6862093e-01
  2.7757236e-01
  4.4500589e-01
  9.8863035e-01
 -5.0469190e-01
  2.1696703e+00
 -4.0679923e-01
  3.4850451e-01
 -6.4288932e-01
 -4.7167900e-01
 -1.8557897e-01
 -9.2957348e-01
 -9.1074121e-01
  5.2679157e-01
  4.9012277e-01
  4.3371770e-01
 -7.2151309e-01
  3.6693651e-02
 -2.0740083e-01
  1.1753760e-01
 -1.8170354e-01
  1.1003451e+00
 -1.4693047e-01
 -2.1803415e-01
 -4.9387574e-01
  9.5864050e-02
 -1.7162220e-01
  2.2292139e-01
 -2.3287098e+00
  5.0162178e-01
  2.2910516e-01
  5.9595060e-01
  1.5700140e+00
  6.3451439e-01
 -2.2085455e-01
 -3.4254935e-01
  1.5785974e-01
 -1.4328656e-01
  4.9148720e-02
  2.8481707e-02
 -1.8083580e+00
 -1.2709664e-01
 -1.6524969e-01
 -4.0749782e-01
  4.2708996e-01
  4.3709487e-01
  5.1554728e-02
 -1.5467411e-01
  3.7963767e+00
  1.1866938e+00
  2.9055595e-01
 -2.4817799e-01
  5.7181406e-01
 -2.5763968e-02
  7.4198151e-01
  6.8560682e-02
 -1.4869136e-01
  3.7828404e-02
  1.8186539e-01
 -1.7699693e-01
  6.3534933e-01
 -3.7813611e+00
 -5.4676563e-01
  2.2340523e-02
 -7.6631323e-02
 -4.2536382e-02
  1.8556972e-01
 -1.3870846e-01
  2.7405551e-01
 -1.9374165e-01
 -2.1728881e-01
  3.3169979e-01
 -4.4642514e-01
  1.5057665e-01
  1.5651813e-01
 -9.0650938e-02
 -1.0514829e-01
 -9.4607615e-01
 -4.3620031e-02
  1.7001796e-01
 -2.8904670e-01
  3.2185254e-01
 -6.2725097e-01
 -2.9110220e-01
 -1.5494409e+00
 -2.3973031e+00
 -2.7653509e-01
 -4.7333125e-02
  1.3179494e+00
 -3.3511442e-01
  2.3168726e-01
  4.2693753e-02
 -2.6698461e+00
 -2.0188390e-01
  1.2916360e+00
  1.8233450e-01
 -1.3016349e-01
 -1.1993746e-01
 -1.4867164e-01
 -1.2188654e-01
  1.7229640e-01
  1.3977914e-01
  4.3958355e-02
 -8.0932043e-02
  1.1677003e-01
  3.5978928e-01
 -9.0228111e-02
 -8.5294522e-02
  5.4539633e-03
  4.6520832e-01
 -1.2561611e+00
 -1.8733947e-01
  1.4480406e-01
 -2.4989009e-01
  1.0934399e-01
 -3.2646936e-01
 -5.3692248e-02
 -1.3818750e+00
 -2.1929171e+00
  1.8557036e-04
 -7.4002683e-02
 -1.0135315e-01
  3.5651416e-01
 -4.9369618e-02
  9.3342736e-02
  1.2817079e-01
  2.6511231e-03
 -7.2002702e+00
 -5.1600739e-02
 -1.3237651e-01
 -3.3164889e-01
  1.4440170e-01
  1.4291607e-01
  2.3868639e+00
  1.1393473e-01
 -5.7131720e-01
 -3.1742674e-01
  1.6405364e+00
  1.4374704e+00
  2.9252095e+00
 -5.9012904e+00
  1.8655254e+00
 -3.1368022e+00
 -1.6728170e+00
  4.6352614e-03
 -1.0738581e-01
 -3.1311956e-01
  3.8958132e-01
 -1.6116805e+00
  8.0597973e-01
  3.1161082e-01
  1.7098065e-01
  2.5703372e-02
  1.6721126e-01
  2.0114362e+00
 -6.4653301e-01
 -6.5863961e-01
 -1.9863509e+00
  5.8331239e-01
  2.2344017e-01
 -1.3737304e+00
  1.4933899e-01
 -8.0760014e-01
 -4.3907493e-01
  5.2573377e-01
 -1.3956391e+00
 -7.2804493e-01
  4.5364141e-01
  7.8590530e-01
 -2.0349099e-01
 -6.3546222e-01
 -5.5259550e-01
 -5.4519272e-01
 -1.3274684e+00
  1.8889774e-01
 -2.3205028e-01
  1.5839268e+00
  2.4949308e-01
  3.8560260e-02
  2.8830498e-01
 -4.2335933e-01
 -2.7563405e+00
  3.6050615e-01
 -1.3474498e-02
  5.2472811e-02
 -2.7443954e-01
  3.9880338e-01
 -2.1341180e-02
 -1.5701767e+00
 -2.3000240e-01
 -2.3142064e-01
  1.9165514e-01
  1.1239121e-01
 -2.7970045e+00
 -2.4368885e+00
  3.2317655e+00
  2.8684161e+00
  1.0747141e-01
 -2.3127690e-01
  2.3181882e+00
 -3.2990977e-01
  1.0812538e+00
  2.1425104e-01
 -7.9875743e-01
 -5.0948776e-02
 -3.7667519e-01
 -3.4197664e-01
  9.9079990e-01
  7.5334519e-01
  3.4567974e+00
 -8.6563444e-01
 -7.6623958e-01
  1.8665244e-01
  1.5268223e+00
  4.5250800e-01
  5.9293479e-01
  1.0469830e+00
  4.0856129e-01
 -9.8175448e-01
 -1.2399369e+00
 -4.8242301e-01
  3.7716053e+00
 -1.6004263e+00
 -9.7057588e-02
  1.6699164e+00
 -1.9192723e+00
 -3.1076187e-01
 -4.2654070e-01
  2.9988730e-01
  2.1049032e+00
  4.8382518e-01
  3.4333777e-01
  1.0389845e+00
  1.5954183e-01
  2.0322695e+00
 -1.2662478e-01
  4.5148313e-02
 -1.7316253e-01
 -7.5032358e-04
 -7.8396752e-02
  3.4633651e-01
 -1.0272279e-01
 -3.6517520e-02
 -1.5408526e-01
  2.2905038e-01
  1.0807448e-01
 -4.6950459e-01
  9.9367099e-03
  2.9093737e-02
 -9.4057120e-02
 -4.6056741e-01
  1.7330577e+00
 -7.9862201e-01
 -3.7723210e+00
 -2.2299500e+00
 -2.3085964e+00
 -4.4209203e-01
  5.2399713e-01
 -2.8841014e+00
 -5.0357419e-01
  1.3489965e-01
  3.8024652e-01
 -4.5209825e-01
 -2.8370154e+00
  3.9396264e-02
 -4.0923905e-01
  5.0307566e-01
  2.6933107e-01
 -2.3145267e-01
  3.8869813e-02
  3.0581823e-01
 -1.1280119e+00
  8.5923147e-01
  1.4520624e+00
 -9.7479761e-02
  1.3087387e-01
 -2.5647783e-01
 -1.1917278e+00
  8.3739287e-01
 -1.9010232e-01
  5.0998473e-01
  1.4075272e+00
 -3.1141067e-01
  1.1173320e+00
 -5.8917701e-01
  7.3379493e-01
  4.4337663e-01
 -1.3188003e+00
 -2.7347127e-01
 -5.6450319e-02
 -1.1413715e-02
 -4.1106835e-01
 -3.4723971e-02
  2.0138307e-01
  3.6521517e-02
  9.9826783e-01
 -1.5991950e-01
  4.2508572e-02
  1.0786157e-01
 -5.1965231e-01
  3.5028208e-02
 -9.7150855e-02
 -1.1490155e+00
 -4.6361899e+00
  2.1592392e-01
 -2.4933034e-01
 -2.4705738e-02
  2.6804140e-01
  1.6498706e-01
  6.0313475e-01
 -4.3989208e-02
  1.5575026e-01
  6.3521034e-01
  2.3303716e-01
  1.2018570e-01
  5.1620620e-01
  7.1034268e-03
 -1.6476639e-01
 -2.5193751e-01
 -6.5359566e-03
  1.2114272e-01
  2.0006673e+00
 -5.4093391e-02
  4.4337502e-01
 -2.2485365e-01
  2.7073307e-02
 -2.7051541e-01
 -3.5074502e-01
 -1.4505141e+00
 -1.4614601e-01
  4.1443639e-02
 -6.7889646e-02
 -4.5348802e-01
  1.8209311e-01
  3.5276443e-01
 -8.6942166e-02
 -1.1298390e-01
 -6.3406825e-01
  2.4441686e+00
  3.9953157e-02
  7.4010748e-01
 -3.5095274e-01
 -9.5976181e-02
 -3.5209221e-01
 -2.1097521e-01
  1.0138586e+00
 -1.1413155e-01
 -1.3896908e-01
  2.2855964e-01
  5.2965403e-02
 -1.5804935e+00
  1.1186579e-01
 -5.1496983e-02
  9.6630435e-03
 -1.9351810e-01
  4.7595125e-02
 -3.6430699e-01
 -8.8754438e-02
  4.1846079e-01
  4.4228408e-02
 -1.2637207e-02
 -2.0337372e+00
 -2.4872208e-01
 -6.7987382e-01
  4.2185168e+00
 -1.1872444e+00
  2.6503963e+00
 -2.1043322e+00
  4.9098792e+00
 -1.2526327e-01
 -4.9818763e-01
 -8.4992462e-01
 -8.4301889e-02
 -1.9030375e+00
 -5.0310022e-01
 -5.1900887e-01
  4.0293688e-01
  2.4050510e+00
 -1.0151503e+00
 -4.4282436e-01
  8.7010264e-01
 -2.0475566e+00
 -2.8941074e-01
 -4.1222385e-01
 -3.5821027e-01
 -1.2919217e+00
  9.6647459e-01
 -4.6139976e-01
 -7.9332471e-01
  6.8539470e-01
  3.4345403e+00
  1.8121278e-02
 -1.0780412e+00
 -1.0513310e+00
  3.7053099e-01
 -7.8074348e-01
  4.9813157e-01
 -5.6542820e-01
 -7.1409059e-01
  2.5995979e+00
 -2.8205788e-02
 -1.8689557e+00
  2.3576949e+00
  3.5573226e-01
  1.5833942e-02
 -6.6469306e-01
  8.1403755e-02
  2.7932518e+00
 -1.1934369e-01
  1.3179685e-01
 -3.8101816e-01
 -1.9553906e+00
  1.4370504e-01
 -2.4054397e-02
  1.5925882e-02
  7.9499707e-02
  2.5023088e-01
  2.0717900e+00
  9.2196536e-01
 -2.6041322e+00
 -2.5321484e+00
 -4.3737159e+00
 -3.2715771e+00
  6.4787704e-01
  1.5855013e+00
 -2.7296536e+00
  2.4849236e+00
  1.9894776e+00
  1.2289836e+00
  1.8865660e-01
  1.0544239e+00
 -1.1149613e-01
  1.3161008e-01
  4.1291535e-01
  6.4143044e-01
 -1.5496055e+00
  3.2535005e-01
  1.3558512e+00
  8.2037878e-01
 -1.5616288e+00
 -5.8811897e-01
 -2.2743216e+00
 -5.0745517e-01
  2.1752257e+00
 -3.0529304e+00
 -5.9088951e-01
  5.0246632e-01
  1.1204107e+00
  1.3771400e+00
  4.5599353e-01
 -2.0314193e+00
  2.0168054e+00
 -7.7411520e-01
  1.0142026e+00
  4.5468402e-01
  4.6748304e-01
 -2.4476187e+00
  7.1066082e-01
  2.3611355e+00
  1.8384305e-01
  1.5202523e+00
 -5.0526953e-01
 -2.0868623e-01
  6.1414201e-02
  1.9335511e-01
 -2.0659442e-01
 -1.0853768e-01
  1.4730616e-02
 -4.0004614e-01
 -2.5601465e-01
 -5.0565422e-02
 -2.0983464e-01
  7.9081701e-03
  1.1782901e+00
  1.2131983e+00
  1.7500780e+00
  6.6531849e-01
 -1.4427509e+00
 -2.9227061e-02
 -4.8110634e-01
  1.1528279e+00
  8.7743340e+00
  1.7880238e+00
 -2.4345698e+00
  1.0924963e+00
  1.0768369e-01
 -1.1255666e+00
  1.0991536e-01
  1.1233701e+00
  1.5415395e+00
 -4.0118161e-01
 -1.5676974e+00
  2.9926699e-01
  3.9224893e-01
 -1.8482615e-01
 -1.9130349e+00
  6.9347632e-01
  1.1128836e+00
 -1.3462247e+00
 -9.2373364e-02
  2.2945584e-01
 -1.1690650e+00
  1.5193580e-01
 -2.6379526e+00
  3.2363257e+00
  4.5733404e+00
  8.0798882e-01
 -1.9526832e+00
 -1.0202990e+00
  9.4807780e-01
 -2.5768718e-01
  3.1426292e-02
 -1.0052543e+00
 -3.9734454e+00
  4.5026399e-02
  2.7169235e+00
 -9.8596495e-01
  8.4897661e-01
  6.0866129e-02
  3.6145937e-01
  5.7265532e-01
  2.4212746e-01
 -2.0337722e-01
 -1.6373622e-01
  4.5625585e-01
  3.8227618e-02
  1.7473060e-01
  3.8643304e-02
  1.2341186e-01
  5.4367743e-02
 -6.1100620e-01
  1.4440031e+00
 -2.9077992e+00
  1.9588441e+00
 -1.4028990e-01
  7.4942660e-01
  1.4976834e+00
  7.8412607e-02
 -3.1601623e-01
  1.8037857e-01
 -2.1667661e-01
 -2.7807996e-01
 -3.3334124e-01
 -4.0968484e-01
 -1.4715645e-01
 -1.3937283e-01
 -1.3251761e+00
  1.9615506e-01
 -5.0585574e-01
  7.2935641e-02
 -1.6438040e+00
 -3.6256835e-01
  2.1893790e-01
  1.3847399e-01
 -4.7383335e-01
 -3.0310681e-01
  5.8678888e-02
  2.9032660e-01
  2.5038483e+00
  2.3929490e-02
 -1.1407030e-01
 -9.1350609e-03
 -1.8036249e-01
 -1.4728343e+00
 -3.8069588e-01
 -2.2892159e-01
 -4.8540193e-01
  1.5629609e-01
  6.5517038e-02
 -8.5611511e-03
  2.6976585e-03
 -1.5058163e-01
  6.2682801e-01
  3.6468410e-01
 -1.7528115e-01
  1.8610993e-01
 -5.1302791e-02
  1.7196593e-01
 -3.7631911e-01
 -3.3656931e-01
  2.4232504e-01
  9.7461350e-02
 -6.1235658e-04
  1.8638517e-01
 -4.0708581e-01
 -5.6092378e-02
  2.4190774e-02
  1.4298485e-01
 -3.1969252e-01
  3.3370852e+00
 -8.1817292e-02
 -9.4504166e-01
  8.6122327e-02
 -3.5420701e-01
 -2.4241827e-02
  2.1277605e-01
  2.0744428e-01
  3.1458998e-01
  1.7727509e+00
 -1.8209340e-01
 -3.7785301e-01
 -1.9629176e-01
 -7.9340175e-02
  9.6969366e-02
 -6.8150125e-02
  4.9733087e-02
  1.7479174e-02
  3.8538769e-01
  1.7233038e-01
 -7.1429156e-02
 -8.1840295e-01
 -1.1748764e-01
 -5.2462044e+00
 -1.4432931e-01
  2.1413386e-02
  5.6578625e-02
 -1.4340405e+00
  2.3704025e-01
  1.3355236e-01
 -6.9518410e-02
  2.4708459e+00
 -3.7544433e-03
  3.1605989e-01
 -8.9865945e-02
  3.2947913e-02
 -1.2872836e-01
  1.0095105e-01
 -1.8147700e-01
 -2.4544232e-01
  2.8978375e-01
  3.5530037e-01
 -3.0645326e-01
 -2.6156029e-01
  5.4569986e-02
 -2.4595878e-01
  2.9166955e-01
  2.4853738e-01
  1.3196638e+00
  9.0914279e-01
 -9.0710610e-02
  4.3308878e-01
  2.4322863e+00
 -2.6672368e+00
 -1.1603787e+00
  9.5768219e-01
 -3.9336190e+00
 -1.4444950e+00
  4.0438838e+00
 -5.3256159e+00
 -1.5161062e+00
  1.7644712e-01
  7.9139775e-01
 -1.7375209e+00
  2.1842536e-01
 -6.0330874e-01
 -1.3312732e+00
 -9.6361083e-01
 -3.7003684e+00
 -1.6215546e+00
  4.4337006e+00
 -7.4215686e-01
 -1.0487608e+00
 -2.3690987e+00
 -9.2876381e-01
 -1.8218091e+00
 -1.4701951e+00
  1.4974544e+00
  8.0028737e-01
 -1.6722743e-01
 -1.5285749e+00
 -1.1836610e+00
 -4.0376644e+00
 -5.3405374e-01
 -2.1915956e+00
  1.7707636e+00
  3.4951975e+00
  1.9490427e-01
 -2.5593493e+00
  3.7291655e-01
 -4.0497556e+00
 -3.7369224e-01
  6.4733571e-01
  6.7805898e-01
 -3.8306829e-01
 -3.1626549e-01
 -6.2084753e-02
  1.6078146e+00
  1.3935219e+00
 -3.5477448e-01
  1.1328903e+00
  4.7057290e-03
  2.0593287e-01
 -1.4929932e-01
  1.9281873e-02
 -1.9253327e-01
  5.5616245e-02
  2.3031807e-01
  1.6673225e-01
  3.2434568e+00
 -5.9570131e+00
  1.2431768e+00
 -2.2554848e+00
  1.9712764e-01
 -2.1948319e-02
 -4.1136168e-02
 -2.8675866e-01
  5.0479630e-03
 -6.3704622e-01
 -2.3037123e-02
 -5.2872986e-01
  1.4779632e-02
  2.0247124e-01
  3.4011388e-01
 -5.4222941e-01
  2.0204023e-01
 -1.1883364e+00
  8.1443883e-02
 -7.6592487e-01
  2.5792021e-01
 -6.0587901e-01
  8.0339253e-01
 -2.3274195e+00
  2.1559713e+00
 -1.5701903e+00
 -2.5196114e-01
 -2.5788882e+00
 -3.3758658e-01
 -7.2655594e-01
  5.5650657e-01
 -2.7317343e+00
 -6.0884154e-01
 -6.6849631e-01
 -2.7888891e-01
 -3.4260392e+00
  7.5009930e-01
 -6.9094759e-01
  3.3369029e-01
 -2.8987125e-01
 -4.3742120e-02
  3.4122756e-01
  1.6533205e-01
 -3.6323720e-01
  4.0872088e-01
 -7.8797512e-02
 -7.2174221e-03
 -2.7227849e-01
  1.7149040e-01
 -6.5883651e-02
 -1.4388795e-01
 -1.0315567e-01
  2.7941463e+00
 -1.6520394e-01
  1.2478546e-01
 -1.0597711e-01
 -9.0901577e-01
  8.4893286e-01
  3.1415251e-01
  1.0067061e+00
  3.8159820e-01
  3.5397682e-01
 -1.8041618e+00
 -2.4891728e-01
  1.5453975e-01
  1.8474406e-01
 -6.7462404e-03
  7.4056879e-02
 -2.3408067e-01
 -5.4898527e-02
 -2.1101336e+00
  1.1512927e+00
 -1.0351990e-01
  2.8526554e-01
  1.7086734e-01
  2.9185411e-02
  6.0850835e-01
  4.0041676e-01
  1.5753441e-01
  3.8524675e-01
 -3.3555710e-01
  3.5565451e-01
  8.2269967e-02
 -3.5463828e-01
 -2.1513637e-02
 -5.9389699e-02
 -1.9231517e-02
  7.8724432e-01
  3.6643967e-01
  3.3620101e-01
  1.7274673e-01
  7.5546391e-02
  3.3425039e-01
  1.2646958e-01
 -9.1181584e-02
 -5.0078996e-02
 -1.4586909e-01
 -2.5215458e-02
  2.1041660e-01
 -6.4283514e-01
  3.5470981e-02
 -3.7800741e-01
  2.5115639e-01
  3.4794807e-01
  8.4109224e-02
  6.2073030e-02
  7.7155434e-02
  5.4941511e-01
  3.7715772e-01
 -1.3231960e-01
 -1.0594419e-01
  3.1150568e-02
 -2.2071685e-01
 -2.0364639e-01
 -1.6896395e-01
 -1.2087371e+00
  8.5687202e-01
 -9.5550805e-02
  8.2447328e-02
  3.5926513e-02
 -1.5295004e+00
  1.7521219e+00
  1.4757483e-01
  4.2473726e-02
  3.2252184e-01
  8.9925036e-02
 -1.0490873e-01
  2.7039942e-01
  1.3545784e+00
 -1.3652237e-01
 -1.3759941e+00
 -9.0776742e-02
  8.4045239e-02
  3.4101125e-02
  1.2143809e-01
 -5.0174147e-01
 -5.5790138e-01
  1.6553433e-01
 -5.9845918e-01
 -2.9563919e-01
  4.8849664e+00
  1.8843177e-01
 -3.4616530e-02
  4.1003984e-01
  1.9459939e-01
  1.1816099e-01
  1.3654362e+00
  2.8523145e+00
 -3.6579496e-01
  2.1721840e-01
 -1.8530834e-01
  2.4346010e-01
  2.0303969e-01
 -2.2358052e-01
 -1.1124292e-01
  4.6000710e-01
  8.4532923e-01
 -8.3643496e-02
  1.2990867e-01
  3.2660669e-01
  3.9479420e-01
 -8.4115356e-02
  1.7593364e-01
  4.2829290e-02
  9.8627470e-02
  2.8761005e+00
 -4.0779460e-02
  5.1705446e-02
 -1.3973930e-01
 -1.9400018e-01
  2.5494435e-01
  1.2448685e-01
  2.3092596e-02
  1.8803553e-01
  1.4340113e-01
  7.3417711e-01
 -1.7126423e-01
 -3.9207064e-02
  1.1237811e-01
  3.2718223e-02
 -2.7923429e-01
  1.9044527e+00
 -1.3690635e-03
  2.4226028e-01
 -3.9720669e-01
  2.8840008e-01
  8.7927030e-03
  4.9843187e-03
 -7.2522432e-02
 -1.4244804e-01
  1.5321179e-01
  1.1118020e-01
 -7.9012007e-02
 -7.2586045e-02
  1.1229154e-01
 -1.6072160e-01
  8.0283925e-02
  2.6910689e-01
 -1.0386536e-01
  2.0459950e-01
  6.3476317e-02
 -1.1766449e-02
 -1.3652724e-01
 -1.8054202e-02
  1.8064587e-01
  3.8999580e-02
 -4.6024628e-02
 -1.8653633e-02
  4.5603928e-01
  7.7711207e-01
 -6.3806668e-02
  1.8896191e-01
  1.1480969e-01
 -1.7528521e-01
  2.3011541e-01
  2.3110910e-01
 -9.2628874e-02
  7.2468355e-02
  7.8720427e-01
 -1.5425448e-02
  4.2744093e-02
 -2.1017122e-01
 -4.2771090e-02
 -2.9043952e-01
 -3.7851995e-01
 -3.6215479e+00
  9.4199657e-02
 -1.9190845e-01
 -1.2580489e-01
 -2.0927317e+00
  4.4052723e-01
 -2.5043634e-01
 -6.3673928e-02
  1.3708726e+00
 -3.0535722e-01
  2.4333596e+00
 -1.0198916e-01
 -9.2922556e-01
 -7.6513797e-02
  6.3130781e-02
  5.5850040e-02
 -1.3586058e-01
 -2.5501958e-01
 -5.5367577e-01
 -1.5456771e-02
  3.9439741e-01
 -3.4513013e+00
 -2.7328831e-01
  9.2257828e-02
 -4.3292809e-02
 -3.8892176e-02
  2.0326700e+00
 -5.8876699e-01
 -2.8521240e-01
 -3.3299822e-01
 -3.1941205e-01
  9.3445286e-02
 -3.7411518e-02
  2.4286790e-01
 -5.1171191e-02
 -1.7120251e-02
  3.6083037e-01
  6.1272132e-01
 -2.3429020e-01
  4.8743978e-02
  1.3618134e-01
 -1.8313483e+00
  2.6849476e-01
 -1.3797201e-02
  3.5273068e-02
 -6.3424714e-02
  7.2589383e-02
 -5.2976453e-01
 -3.7206870e-01
  1.9267108e-01
  1.8353380e-02
 -1.8138427e+00
 -2.1078426e-02
  4.1645095e-01
  2.5114372e-01
  4.1478747e-01
  5.1098353e-01
  2.0529706e+00
  3.7583587e-01
 -3.9677596e-01
 -5.0384319e-01
  1.6957207e+00
 -1.5201455e+00
  1.7776275e-02
 -1.5241641e-01
 -1.9544356e-02
 -3.8276643e-02
 -2.6244673e-01
 -1.2181220e+00
 -2.7636343e-01
  4.8940752e-02
 -3.8502443e-01
  7.3430926e-02
  4.5834684e-01
  2.0593163e-01
 -5.6385636e-01
 -2.7914175e-01
 -7.8636967e-02
  1.0894330e-01
 -4.3712074e-01
  2.7535108e-01
  8.3610695e-03
 -2.4007452e-01
  1.2106480e-01
 -1.5656720e-01
  2.4423925e-02
  1.7912054e-01
 -3.3198398e-02
 -4.2777213e-01
  3.7949947e-01
 -1.5374080e+00
  1.4261905e+00
 -3.5442227e-01
 -1.1017987e+00
 -4.9396551e-01
  4.2915456e-02
  6.7661041e-01
  5.4535875e-03
  5.9057478e-02
  2.8458774e-02
 -1.5596418e-01
  7.5792018e-03
 -2.8493702e-02
  3.3297455e+00
  2.3457691e-01
  8.9471489e-02
 -3.5811418e-01
 -4.4931907e-02
 -8.6973555e-02
 -1.0669294e-01
  8.2301980e-01
  6.0107440e-01
  6.6115749e-01
  1.4874123e+00
  1.5108501e+00
 -8.5968119e-01
  1.3080955e+00
  2.0570066e+00
  4.5086196e-01
 -6.6819318e-02
 -3.6909640e-02
  5.8736485e-01
  1.9925853e-02
  3.7116362e-03
 -3.8783305e+00
  3.7570322e-01
  7.9555678e-01
 -4.8676610e-02
  6.5276384e-02
 -2.7505645e-01
 -4.4893870e-01
 -4.1436160e-01
 -6.8999045e-02
  4.4418961e-01
 -8.1875300e-01
  6.1066622e-01
 -6.4978428e-02
 -9.5440216e-02
  4.2261553e+00
 -1.1882482e-01
 -4.8023275e-01
  7.5779974e-01
  3.8544512e-01
 -5.3323444e-02
 -1.9758670e-01
  4.2050397e-01
 -1.5576234e-01
  3.9299953e-01
  4.5447081e-01
  3.1127194e-02
  9.6281834e-02
  1.9052927e-01
 -1.1821276e-01
  2.5402611e-01
 -6.8881124e-02
 -3.6070839e-01
  3.9719284e-01
 -8.2730144e-02
  4.4651648e-01
  1.2232643e-01
  3.4532166e-01
 -2.7315107e-03
 -7.8545040e-01
  3.5914588e+00
 -6.9245160e-02
  3.1876725e-01
  1.6005962e-01
 -3.1994153e-02
 -1.7419110e-01
  2.4693553e-01
  1.6620147e-01
  2.6655906e-01
 -1.3871683e-01
  4.9004751e-01
  9.7622141e-02
  1.1386659e+00
 -2.8454676e-01
 -1.1993310e-01
 -6.9665477e-02
  1.3012680e-01
  9.3446481e-01
  1.2830487e-01
  2.6842281e-01
  1.8172054e-02
 -3.1591494e-02
 -1.0359575e-01
 -3.5233513e-01
 -8.8060491e-02
 -9.2159271e-02
 -1.2362599e-01
  1.4436245e-01
  2.4629764e-01
  3.7167687e-02
 -4.7245193e-02
 -2.0523895e-01
  2.5806284e-01
 -8.2498059e-02
 -1.6138750e-01
 -8.4995434e-02
 -9.0265751e-02
 -1.1116334e-01
 -2.1289533e-01
 -2.5744393e-01
  5.4756805e-02
 -2.2945787e-01
 -5.3452320e-02
  9.2072720e-03
 -1.1614844e-02
  2.8831661e-02
 -1.0018335e-01
 -3.6279279e-01
 -3.5204923e-01
 -3.4263870e-01
 -6.1856455e-01
  5.3983226e+00
 -9.2763841e-01
 -1.0875884e+00
 -1.4098167e-02
  3.4360221e-01
  9.7948350e-02
  3.6276974e-02
 -4.2224113e-02
 -3.0909291e-01
  2.0904703e+00
  4.5572129e-01
 -2.3812741e-01
  3.4795296e+00
  1.4386456e+00
 -2.8508890e+00
  8.9392078e-01
 -2.6290962e-01
  4.3890706e-01
  5.5212516e-01
  2.3606448e+00
  5.6464541e-01
  6.1091143e-01
 -6.2229224e-02
  1.7282014e+00
  2.2778027e+00
 -9.0705536e-02
 -2.2329058e-01
  4.6564138e-01
 -8.1508970e-01
  1.0195978e+00
  2.9551983e-01
  1.0532057e+00
  8.2115424e-01
  8.2685679e-01
 -3.5493988e-01
  1.1006467e+00
  1.6672469e+00
  1.0863609e+00
  1.2768576e+00
  9.8340470e-01
  1.1869866e+00
 -1.6224127e+00
 -2.2383538e-01
 -4.3586555e-01
 -4.1058603e-01
  1.8364692e-01
  5.8664966e-01
  5.6225032e-01
 -1.8559630e-01
  2.2762649e-01
  1.9799440e-01
  8.4855951e-02
  4.5175594e-01
 -4.1740883e-02
 -1.8833998e-01
  3.5912621e-01
  3.6025918e-01
  7.1998037e-02
 -4.6528018e-01
  1.3966630e-01
  5.6137943e+00
 -2.0430255e-01
  1.6927886e-01
  5.9786044e-02
  4.5663136e-01
 -9.4134241e-02
 -1.3457599e+00
 -1.4725424e+00
 -2.1493804e+00
 -2.3324142e+00
 -2.0624664e+00
 -1.5083901e+00
  2.0345026e-01
  2.1368780e+00
  7.2550155e-02
  5.3852242e-01
 -2.9672596e+00
  3.1771472e-01
 -1.2966900e-01
 -4.8539825e-02
 -3.0899411e-02
  2.0411116e-01
  8.2966372e-02
 -2.5532537e+00
 -1.4575346e+00
 -3.5137832e-01
 -2.7704194e-01
 -1.7310904e-01
 -2.2365373e-01
 -2.0636255e-01
  2.0431907e-01
 -1.3183460e-01
 -4.5320767e-01
  1.3345373e+00
  5.6187068e-03
  2.4064070e-01
 -1.5154564e-01
 -8.8536136e-02
  3.3021080e-01
  5.4929256e-01
 -2.6465435e+00
 -1.9600579e-01
 -4.0438300e-01
 -4.6973616e-01
  1.7267039e-01
 -2.1580897e-01
 -4.7129769e-02
  1.5159580e-01
  4.3223057e-02
 -5.3876761e-02
 -4.5566096e+00
  9.7373396e-02
 -3.0360371e-01
  3.9102614e-01
 -1.4832631e-01
 -4.6300762e-03
 -2.6176906e-01
  1.0258704e-01
 -2.2120897e-01
  1.2779607e+00
  7.1509443e-02
 -1.7968120e-02
 -1.2715814e+00
 -7.9661387e-01
  4.8276089e-02
 -1.3639063e+00
 -1.6563854e+00
 -5.4489225e-01
 -1.3037273e-01
 -5.1171731e-02
  1.1845582e-01
  2.8194696e-01
  4.5427609e-02
  1.0433429e+00
 -1.1544565e-01
  9.5088370e-03
  1.8779312e-01
 -4.1404583e-02
 -1.3260762e-01
 -2.3576450e-01
 -1.5776363e-03
  1.4932021e-01
  4.2022638e-02
  4.9927499e-02
  2.3566073e-02
  2.4050407e-01
 -8.7678230e-01
  1.3738756e-01
  6.9741797e-01
  5.3177953e-02
  1.8354419e-01
 -4.3306404e-01
 -1.7378323e-01
 -2.8721780e-01
 -1.5096745e-01
 -1.2797154e-01
  1.4493001e-01
  1.8546096e+00
  1.4559124e-01
 -2.6729986e-01
  4.4926122e-02
 -7.1125716e-02
  8.4959470e-02
 -1.5613149e-01
 -6.5773648e-01
 -2.1675760e-02
 -2.9432592e-01
 -1.3128835e-02
 -1.5853894e-01
 -7.8612536e-02
  1.7619301e-01
  8.9228712e-02
 -9.0150267e-02
 -1.6138559e-02
  1.2177306e-01
 -1.2322896e-01
  3.2180306e-01
 -1.1275601e+00
  7.4037725e-01
  1.8930402e-01
  6.2633708e-02
  6.8667089e-03
 -5.6638724e-01
  7.2765636e-01
 -2.0026322e-01
 -1.8116778e-01
  8.9010380e-02
  4.9459524e-03
  1.6178796e-01
  1.5979807e+00
  2.1531756e-01
 -4.6562772e-02
 -1.7903180e-01
  1.0907993e-01
  2.8559726e-01
 -4.2233989e-01
 -8.3248414e-02
 -3.0575943e-01
  2.6717035e-02
  2.2624302e-01
  2.1447392e-01
  9.8093651e-02
 -3.0525723e-01
 -9.3348958e-03
  7.3455055e-03
  1.4466821e-01
 -7.2741292e-02
  1.3765070e+00
  2.4554311e-01
  6.5575461e-03
 -1.7545595e+00
  4.7053207e-02
  1.0080556e-01
  2.2558963e-01
 -6.4373016e-01
 -4.1194293e-01
 -1.1260442e-01
 -1.5126759e-01
  2.3064158e+00
 -2.7379209e-01
 -2.2542100e-01
 -2.5569843e-02
  1.1070380e-01
 -2.4023464e-01
 -4.6893436e-02
 -2.5468449e-05
  2.3492971e-02
 -6.9219267e-01
  7.0285201e-01
 -2.3415585e+00
  1.8471302e-01
 -7.9811379e-02
  1.8175578e+00
 -1.0429979e-01
 -2.3020601e+00
  3.0340636e-01
  1.1400558e+00
 -4.0912280e+00
  1.9798322e+00
 -1.7463686e+00
  9.3626422e-01
  2.9891533e-01
  3.9108083e-01
 -6.1957222e-01
 -6.8427116e-01
 -6.2389588e-01
 -1.4868104e+00
 -4.6506116e-01
  4.7494059e+00
 -1.1266924e+00
  8.5065991e-02
 -2.4177767e-01
 -2.3455179e+00
 -7.8903002e-01
  1.7958206e-01
 -6.3592255e-01
  9.2135391e+00
 -7.0351297e-01
 -6.1622578e-01
 -5.2900189e-01
 -1.5772328e+00
  1.6646229e-01
 -9.6123427e-01
 -4.8040560e-01
  2.4254873e+00
 -8.5213202e-01
  9.1230363e-01
 -4.2717379e-01
 -2.7657855e+00
  1.1612557e-01
 -3.3005181e-01
 -5.2401495e-01
 -1.4314866e+00
 -5.4569058e-02
 -2.1894054e-02
 -6.2873572e-01
 -2.3164468e+00
 -8.4752822e-01
 -1.7631535e-01
  1.4710474e-01
  9.6827574e-02
 -8.8982537e-02
  1.2640394e-01
 -3.3124602e-01
 -2.1141671e-02
  2.0107792e-01
 -6.9368787e-02
  4.8218828e-01
 -2.5023844e+00
  4.1173105e+00
 -1.5954928e+00
 -2.5290704e+00
 -2.1533744e+00
 -2.5123646e+00
 -5.9216774e-01
 -8.6004275e-01
  5.3133875e-01
  8.1411231e-01
  4.4867599e-01
 -1.3085147e+00
 -2.5681791e-01
  4.1936049e-01
 -5.9461659e-01
  2.5672486e-01
  5.6280202e-01
  1.6133034e+00
 -9.9841452e-01
 -8.0728894e-03
  3.0691187e+00
  2.2099419e+00
  4.4020274e-01
  1.8623714e+00
  2.1232779e+00
  1.9104867e+00
 -7.5042897e-01
 -1.0040737e+00
  2.2601635e+00
  2.5178564e+00
 -1.6222571e-01
 -3.0304283e-01
  3.3606580e-01
  2.9183131e-01
  6.4837113e-02
  3.4533849e-01
 -3.4239212e-01
 -8.5266238e-01
  2.2851496e+00
  1.1180480e+00
  2.5858006e-01
  4.2189023e-01
  6.9183224e-01
 -2.3984452e-01
 -1.4769733e-01
  2.0423169e-01
  1.3718063e-01
  4.2010066e-01
  7.9408169e-02
 -3.4196384e+00
 -7.5119831e-02
 -1.0900456e-01
  6.0798094e-02
  5.6326562e-01
  1.0917642e-01
  2.4934348e-01
  2.1954399e-01
 -1.6286807e+00
  2.1752694e+00
 -4.0245833e+00
  2.0472772e-01
 -2.7428508e+00
 -5.6945813e-01
  2.4180176e+00
  1.2285092e-01
 -8.1092882e-01
 -1.6976555e-01
  1.8758363e+00
  5.5929895e-02
 -4.7169578e-01
 -1.6286102e-01
 -2.8062258e-03
  4.9346802e-01
  6.1419196e-02
 -2.8023466e-01
 -7.6711488e-01
  6.8006009e-01
 -1.8187171e-01
  3.3748586e-02
 -3.7811574e-02
 -9.2598885e-01
  1.6134927e+00
  1.7194425e-01
 -7.3945600e-01
 -4.5689267e-01
 -3.6335111e-01
  2.0257169e-01
 -3.5790585e-02
  9.4448847e-01
  1.8714697e+00
 -2.6146454e-01
 -1.9569660e+00
 -3.4339795e+00
 -6.2660408e-01
  3.4685040e-01
  5.9856898e-01
 -4.0014867e-02
  7.8162909e-02
 -4.8930785e-01
  1.4643118e-01
 -1.9846343e-01
  1.1012829e-01
 -1.7855752e-01
 -2.0665480e-01
  1.4674404e+00
 -1.8911332e-01
 -3.5386202e+00
  1.0589238e-01
  3.8102511e-01
  6.7778423e-02
  2.3162927e-01
 -8.1251517e-02
 -2.1979573e+00
 -1.7859359e+00
  2.7792013e+00
  1.1008402e+00
 -2.6915748e+00
  7.9344493e-01
  1.1582311e+00
  3.3297669e-02
  4.8456187e+00
 -5.1372766e+00
 -1.0955051e+00
 -1.3349633e+00
 -2.5735195e+00
 -2.2877769e+00
 -8.4097451e-01
 -3.0491281e-01
  7.1594328e-01
 -2.5162387e+00
  1.2907614e-01
 -1.7972306e+00
 -1.7396855e+00
  4.6978536e-01
  1.4638559e+00
 -1.7029440e+00
  1.0312822e+00
 -3.1103785e+00
  2.3831294e+00
 -1.9132227e+00
 -1.3893044e+00
 -9.7117323e-01
 -2.3146467e+00
  7.1145594e-01
  1.5377405e+00
 -2.2893043e+00
 -2.4185610e+00
 -3.2848363e+00
 -2.0768933e+00
  9.2261243e-01
 -1.7014424e+00
  1.4598860e+00
  3.7999630e-01
  8.5865510e-01
  1.3253729e-01
  4.9294373e-01
 -1.3547708e+00
 -8.5426342e-01
 -8.7729943e-01
 -5.2736020e-01
 -2.0169456e-02
  1.6090360e-01
 -3.3201000e-01
 -1.1314973e-01
  3.2262273e-02
 -3.4927389e-01
 -1.1690622e-02
 -3.7783096e+00
  2.0675637e-01
  3.9939725e-01
 -2.2820303e+00
 -1.2240990e+00
 -8.7357484e-02
 -2.5421646e+00
  7.8828856e-02
 -4.2896777e-02
 -3.3685282e-01
 -1.0626301e-01
  1.2562387e+00
 -2.1074255e-01
  3.0009362e-01
  3.3408043e-01
  1.5614935e-02
 -5.2994031e-02
  8.7145758e-01
 -3.8028237e-01
 -9.8631603e-01
  4.6352980e-01
  4.7480908e-01
  3.1450802e-01
  5.4307103e-01
  1.5767650e-01
  3.8609147e-01
 -1.0748235e+00
  8.8772798e-01
  7.8986786e-02
  2.3096319e-01
  2.1882294e-02
  5.6596619e-01
 -2.2050636e+00
 -3.7972432e-01
 -9.4992690e-02
  2.4748364e-01
  2.1645011e-01
  1.0856227e-01
 -6.5873587e-01
  4.8912710e-01
  1.5879333e-01
  2.8634679e-01
  3.2347903e-01
  1.8509662e-01
  3.9508694e-01
 -3.1223774e+00
  2.4871440e-01
  1.3576257e-01
 -5.9469771e-02
  1.1669446e-01
 -5.4278325e-02
  2.7996001e-01
  2.6744902e-01
 -1.6284096e-01
 -2.3341542e-02
 -3.8029340e-01
 -5.7471460e-01
 -7.7727741e-01
 -8.9028597e-02
 -1.5610023e-01
 -2.5047475e-01
  2.1200228e-02
 -3.4791932e-01
 -6.0346442e-01
 -5.7636250e-02
  5.2014429e-02
  1.5851024e-01
 -1.7653877e-01
 -5.2223716e-02
  3.4803385e-01
  1.5499136e-01
 -8.5249823e-01
 -1.4734381e-02
 -8.8104092e-02
  2.0448340e-01
  3.4315515e-02
  1.1732871e-01
  4.2283401e-02
 -9.0578192e-01
  1.6672100e-01
  2.9840828e-03
 -7.5655229e-02
 -3.4253919e-01
 -3.1516284e-01
 -3.3346176e-01
  3.9971501e-01
  1.0436214e-01
 -4.5867529e-02
 -1.1520392e+00
  4.7952048e-02
 -3.8590762e-01
  4.1274270e-03
 -3.3559266e-01
  1.2402786e+00
  1.8058573e-01
 -4.3858019e-01
 -2.0466460e-01
 -2.1132505e-01
  1.7251468e-01
  4.4631103e-01
 -3.4458853e-02
  8.6689848e-01
  1.6690154e-01
 -8.1768960e-02
 -1.5954217e-01
  6.0362890e-02
 -3.4844932e-01
  1.7725624e-01
  1.7553821e-01
  6.5259464e-02
 -7.6661520e-02
 -2.0733923e-01
 -1.0661525e-02
 -5.2030109e-02
  1.8899800e-01
 -1.0566068e-01
 -4.6925988e-02
  8.7421745e-01
 -1.1801925e-01
  1.4461035e+00
  2.5567341e-01
 -7.7014811e-02
  4.1564634e-01
  1.5450993e-01
 -3.2009897e-01
 -3.0584426e-03
  1.1071092e-02
 -1.5096121e-01
  1.4169872e-01
  1.1631489e-02
  2.5252679e-01
 -2.2027565e-02
  2.2620212e-01
  1.6355012e-01
  2.1355852e-01
 -3.9062470e-02
  6.3269258e-02
 -1.7979848e-01
 -1.3482298e-01
 -1.0945220e-02
 -8.7557606e-02
  1.0951843e+00
 -2.0094159e-01
  2.7067041e-01
  3.3590198e-02
  1.8526533e+00
  1.5721336e-01
  4.7443232e-01
  1.0828402e-01
  6.3038665e-01
 -1.7039737e-01
  3.0776244e-01
  2.7751225e-01
 -4.9300537e-02
  2.5974574e+00
 -1.9706696e-01
  9.6779317e-02
  2.4025040e-02
 -2.2559291e-01
 -3.1517725e-02
  4.8194870e-02
  1.2109027e-01
 -2.1581052e-01
 -1.5456357e-02
 -3.9757416e-01
  2.2588399e-01
  1.4901160e-02
 -8.7075150e-01
 -2.0710911e-01
  1.6941401e+00
 -1.2716647e+00
  4.7877536e+00
  8.6968881e-01
  3.7380843e+00
  1.7595344e+00
 -4.2776861e+00
  3.6272418e-01
  1.1677691e+00
 -3.6302727e-01
 -4.8419622e-01
 -1.7039841e-01
 -1.0913585e+00
 -4.4851619e-01
  5.3322703e-01
  3.2755408e-01
 -5.5912083e-01
 -2.4680473e-01
 -4.2084903e-01
 -9.5361620e-01
 -1.4137652e+00
  3.3529922e-01
 -9.7536117e-01
  3.5819390e-01
  2.8453717e+00
 -9.1739291e-01
  5.5754215e-01
  1.0981637e-01
 -1.4510612e+00
 -9.9991775e-01
 -1.4846280e+00
 -1.5204834e+00
 -2.8276816e-01
  7.4411780e-01
 -1.9387552e-01
  2.4510763e+00
 -2.9967394e+00
  4.0933940e-01
 -2.6653564e-01
  1.6824890e+00
 -4.2413336e-01
 -3.5904087e-02
 -4.2086086e-01
  1.2174640e-01
  5.0669694e-01
 -4.2591473e-01
 -2.8375769e-01
  7.2615452e-02
 -5.1842626e-02
 -2.8669070e-02
  1.1121421e-01
 -1.9106369e-01
 -1.7565578e-01
  3.0512330e-01
 -2.5582271e-02
 -1.6675280e+00
 -1.5108112e-01
 -2.2638524e-01
  6.0357310e-02
  2.1695033e-01
  6.6244113e-01
 -2.6955622e-01
 -5.1534492e-01
 -2.9170506e+00
 -3.2749295e-01
 -5.3823624e+00
  1.1828313e-01
 -2.7879030e-01
  3.6543050e-01
  3.2136536e-01
 -2.7588212e-01
 -7.8124040e-01
 -6.9728297e-01
  6.1428875e-01
  1.3594304e-01
 -6.1547112e-01
 -2.7611777e-01
  1.2461869e-01
  8.7850027e-02
  2.0106401e-01
 -5.0594437e-01
 -3.6397514e-01
 -2.2552817e-01
  1.4617573e-01
 -5.5447992e-02
 -1.1538776e+00
 -7.1867585e-02
  6.3949890e-02
  1.5888144e-01
 -3.5729959e+00
 -4.6304023e-01
 -3.1354883e-01
 -4.2492114e-03
 -6.9406815e-02
  3.0595922e-01
  1.4050335e-01
  3.5356182e-01
 -2.6026251e+00
  2.9470809e+00
  2.1572547e-01
 -4.4093980e-03
 -3.2270512e-01
  6.2085062e-02
  1.5660957e-01
 -2.9030958e-02
 -2.6928067e-01
 -5.0243888e-02
  7.5892769e-02
 -4.4999849e-02
 -2.2752355e-01
 -1.7211486e-01
  3.4310570e-01
 -5.1203108e-01
  1.7355528e+00
  1.1117215e+00
  1.3260917e-01
  6.0442984e-01
 -3.6167135e+00
 -4.9450130e+00
  6.5891737e-01
 -3.1613854e-01
  3.6528060e-01
  1.1487775e+00
 -5.4380029e-01
 -4.8800263e-01
  9.5119156e-02
 -5.6939699e-02
 -3.5971341e-01
  3.1967393e-01
  3.6413470e-01
  3.9311072e-01
  1.5583764e-01
  8.1167853e-01
  1.3157074e+00
  2.1940924e-02
  4.1971865e-01
  6.7193794e-01
 -1.0300059e+00
  2.1100826e+00
 -3.8600899e-02
  1.1430843e+00
 -2.6125336e+00
  2.9646415e-02
  2.3457670e+00
 -8.0858655e-02
  1.6246600e+00
  1.1513774e+00
  5.4716754e-01
 -9.7569145e-02
 -6.2035161e-01
  9.4607538e-01
 -5.5778790e-02
  1.9241907e-01
  8.9367533e-01
  3.1845787e-01
 -2.2405097e-01
  2.2869430e-02
  2.5650743e-01
 -3.5416746e-01
  3.5396427e-02
  1.0853701e-02
  1.1408701e-01
 -8.9302838e-01
 -2.9065591e-01
  4.3347668e-02
 -1.4991917e-01
  1.8215271e-02
  6.5789036e-02
  1.1721532e+00
  1.0478407e+00
  1.0403192e+00
  1.3895978e+00
  1.6646837e+00
  9.9809796e-01
  1.7486035e+00
 -1.5280207e-01
  4.3890464e-01
 -2.2384410e+00
 -2.5212410e-01
 -1.5030955e-01
 -1.1333877e-01
  5.9456581e-01
  2.9420647e-01
  1.8906847e-01
 -1.0056332e-01
 -5.5345261e-01
 -5.6800228e-01
 -2.6084843e-01
 -2.9042392e+00
 -1.1221552e-01
  2.6393530e-01
  4.1940284e-01
  2.1974114e-01
 -8.5532987e-01
 -1.0287323e+00
 -8.6244839e-01
  5.7007247e-01
 -3.1443720e+00
 -2.5425296e+00
  3.6524385e-01
 -1.1930121e+00
 -4.3667069e-01
 -1.4964206e+00
  2.5753468e-01
 -1.0655233e+00
 -2.7058885e-01
 -3.9411220e-01
 -2.6420429e-01
  3.2450147e-02
  5.7017839e-01
  3.5992343e-02
  4.4738710e-01
 -6.0310113e-01
  1.3423717e+00
  1.1195165e-02
  3.6967692e-01
  1.2198228e+00
 -2.6826537e-01
 -5.9076086e-02
 -1.9108300e-01
 -6.0286343e-01
  3.0940907e+00
 -1.6153258e-01
 -3.8293058e-01
  5.3089528e+00
 -3.3824291e-02
  7.4071898e-03
 -1.2801087e+00
  5.3859162e-01
  1.6632491e+00
 -1.3203360e+00
  1.3798224e-02
  8.5733753e-01
  2.8212609e+00
 -7.4165475e-01
 -2.0816226e-01
  3.6450297e-01
 -1.8472733e+00
  2.9129711e-01
  4.9461272e-01
  1.7934279e+00
 -1.9766382e+00
  2.5848290e-01
 -6.0578966e-01
  3.0259058e+00
 -6.9111514e-01
  9.8100585e-01
  2.2494902e-01
 -3.7207038e+00
  1.9833580e-01
 -2.7604458e+00
  2.9502493e-01
 -1.5483326e+00
  2.9279901e-02
  1.0623971e+00
  1.7170069e+00
  6.1178923e+00
  1.0313689e+00
 -1.9602939e+00
  1.7758917e+00
  3.4364858e-01
 -1.8279250e-01
 -4.3147135e-01
  5.5459219e-01
  2.7033448e+00
  2.0468925e-01
  8.5521632e-01
  6.8284267e-01
 -8.8503832e-01
  3.5755089e-01
  1.1045167e-01
 -1.5110703e-01
 -7.8247286e-02
 -1.5907867e-01
  3.5685459e-01
 -2.7709323e-01
  6.9370314e-02
  2.1556737e-01
  6.6798538e-01
  4.3703068e-02
 -2.7873093e-01
  6.7535323e-01
 -9.8675621e-01
 -1.9141353e+00
 -7.6638061e-01
 -4.1988018e-01
  2.0398169e+00
  1.0829655e+00
  1.1781225e+00
  3.3835718e-01
 -1.2598957e+00
  8.1253922e-01
 -5.7429409e+00
 -1.9967258e+00
  1.9835200e+00
  5.9142423e-01
  1.4813309e+00
 -8.3163631e-01
  1.0890919e-01
 -1.3945569e-01
  1.6122757e-01
  2.5587866e-01
 -4.1587120e-01
  1.8541808e+00
  1.6429870e+00
  5.5907732e-01
 -9.7913873e-01
  1.0308419e+00
 -8.4324172e-03
  1.1178885e+00
  5.9374583e-01
 -6.9506902e-01
  1.1287060e+00
  7.9687071e-01
 -5.8168715e-01
  1.6398650e-01
 -1.1600005e-02
 -2.0502253e+00
 -2.5486012e+00
  3.9770681e-01
  5.4846174e-01
 -1.5763450e-02
  3.2963863e-01
  6.6572416e-01
 -1.0554123e+00
 -1.1623588e-02
 -5.4535335e-01
  5.4264569e-01
  1.5299831e-01
 -1.7057757e-01
 -1.1298311e-01
 -8.9533955e-02
  3.4536812e-01
 -1.6100043e-01
 -1.3761546e-01
 -1.1558309e-01
 -7.1091384e-01
  8.0924350e-01
 -8.2858586e-01
 -8.8483113e-01
  1.7917854e+00
 -2.6561379e-02
  9.5109856e-01
 -1.3617761e-01
  2.0628846e+00
 -1.3477716e+00
 -9.2888767e-01
 -1.2288555e+00
 -1.9441854e+00
  1.4014379e+00
  9.7459680e-01
  6.3070178e-01
  1.4927794e+00
 -2.4596272e+00
 -2.4823322e+00
  1.1232661e+00
  1.9305730e+00
  1.3792408e+00
  1.1198978e+00
 -2.5292580e+00
  7.5352144e-01
 -1.6514075e+00
  4.7597530e-01
  2.7434352e-01
  1.4008856e+00
  1.3770769e+00
  3.1184173e-01
  1.6046481e+00
 -1.0052167e+00
  4.1308384e+00
  1.9121087e+00
 -9.8662734e-01
 -2.1500127e+00
  4.4536480e-01
  1.3437963e+00
  2.1046724e+00
 -7.8237528e-01
  1.3613719e+00
  9.5191842e-01
 -6.0082299e-01
 -1.8620251e+00
 -4.4541338e-01
  3.8384700e-01
 -3.2539433e-01
  1.8045028e+00
  6.8664365e-02
 -5.0150728e-01
  9.8328710e-01
  1.3070990e-01
 -8.7321870e-02
  2.0490570e-01
  3.1735176e-01
  6.0877633e-01
 -2.0886805e+00
  1.9782923e+00
 -7.6204680e-02
  1.7583148e+00
  1.1507244e+00
  1.9282743e+00
  1.7731540e-02
  3.0752485e+00
 -1.9740021e-02
  1.5465167e+00
  7.0810285e-03
  2.9451898e-01
 -4.5163341e+00
 -8.4350699e-01
 -9.8257966e-02
 -2.6681216e+00
  9.0011150e-01
 -1.0354137e+00
 -2.0635161e+00
 -1.0846616e+00
 -2.8316214e+00
  5.1077217e-01
  9.0207672e-01
  1.4565238e+00
  1.2463306e+00
 -2.1518817e+00
  2.8943023e-01
  7.8325766e-01
 -5.1061547e-01
 -2.8795713e-01
 -1.7501574e+00
 -9.1188020e-01
 -4.9362034e-01
  1.2675588e+00
  7.8275514e-01
  4.5865458e-01
  1.0742450e+00
  3.0131984e-01
  3.6196887e-01
 -6.7422473e-01
  1.1515540e+00
 -9.3511283e-01
  9.6124911e-01
 -3.1019735e-01
 -3.4377220e+00
 -2.6234427e-01
 -1.8260955e+00
 -7.2414678e-01
 -1.0177941e+00
 -2.6331654e-01
 -1.5151472e+00
 -7.7390783e-02
 -1.7672994e+00
 -8.3475894e-01
 -4.8969457e-01
 -7.8751296e-01
 -1.3702206e-01
 -7.3060638e-01
 -2.9616187e+00
  2.2196357e+00
 -1.2424383e+00
  2.0960932e+00
 -8.0193788e-01
 -1.6186780e+00
 -3.0478189e+00
  3.5153441e+00
 -1.7832583e-01
  6.2350404e-01
  1.0162629e+00
 -9.2438900e-01
 -7.2107905e-01
 -1.4879044e+00
 -1.6707209e+00
  1.9656714e+00
 -4.3690906e+00
  7.0641422e-01
  4.1813757e-02
  1.3289634e+00
 -7.4082017e-01
  3.2037354e-01
  1.0108830e+00
 -4.4220093e-01
  5.3235602e-01
 -1.5147952e+00
 -2.7261744e+00
 -8.4060180e-01
  6.9849259e-01
  8.2032394e-01
  2.7123147e-01
 -7.5615287e-01
  6.2806785e-01
  8.9471656e-01
 -2.4704194e+00
 -2.3608437e+00
  3.2688868e-01
  2.3882189e+00
 -5.2539412e-02
 -1.0522474e+00
  3.8617682e+00
  3.5541081e+00
 -1.0204000e+00
 -1.1709661e+00
 -4.3233232e+00
 -7.8883541e-01
  1.7099730e+00
  8.7404478e-01
  6.0527492e-01
 -1.4182416e+00
 -1.1846003e-01
  1.1433338e+00
 -1.0736380e+00
 -2.2551665e-01
 -2.3211165e-01
 -2.6257348e-01
  2.7470347e-01
 -4.5454498e-02
 -5.3013563e-02
  4.3212774e-01
  4.3377352e-01
 -3.6042479e-01
 -2.1431686e-01
  1.6338589e+00
  6.9867891e-01
  2.8524625e-01
 -1.1278849e-01
 -2.2858834e+00
  1.6541965e-01
 -2.5981763e-01
 -3.9477783e-01
  1.3250673e+00
 -1.6845227e+00
  2.2477080e-01
 -2.6950839e-01
 -6.2706655e-01
  8.9564502e-01
  5.5323040e-01
  4.9263597e-01
 -5.6475925e-01
  6.2164545e-02
  2.1836270e-02
 -5.2328527e-01
 -3.3540350e-01
  9.5992297e-01
 -1.0034443e-01
 -7.8129321e-01
  2.7332538e-01
 -1.4081345e-01
 -9.8326601e-02
 -1.3784943e+00
 -8.4681280e-02
  1.5429705e-01
  2.2461407e-01
 -4.0761870e-01
  7.3884852e-02
 -1.7523095e-01
 -2.7520366e-02
 -1.0821003e-02
 -2.7743809e-02
  4.3222946e-01
  7.7663618e-03
 -8.1385121e-02
  3.3842283e-01
 -2.2297712e-02
  1.9332750e-01
  1.1099968e+00
  8.7694064e-02
  2.6976645e-03
  7.7182986e-02
 -3.8647134e-02
  2.9743302e-01
  5.0065033e-02
  1.1702327e-01
  8.4472433e-02
 -6.3190289e-02
  3.0708931e-02
  3.7323385e-02
  3.2289715e-03
  1.0964099e+00
  2.9051197e-01
 -2.0736787e-01
  2.8886655e-01
  1.2151505e-01
 -5.8374518e-01
 -1.0072589e+00
 -1.6682050e-01
  1.4141150e-01
 -1.0075066e-01
 -2.2886739e+00
 -1.6805601e-01
  3.2881755e-01
 -6.9982007e-02
  7.7038348e-02
  1.2361957e+00
  1.2932962e-01
 -5.7339706e-02
  2.3949639e-01
  6.6938287e-01
  1.3784330e-02
  1.2470601e+00
 -2.1614781e-01
 -8.4961787e-02
 -2.0743735e-02
 -1.3127072e-01
 -5.8003899e-02
 -7.3706605e-02
  1.0135708e-01
  2.8062988e-02
 -6.9342822e-02
  1.0771799e-02
  9.8878935e-02
  3.3825523e-01
  2.4201771e-02
  1.6344601e-01
  1.5724533e+00
 -1.8954305e-01
  2.5073495e+00
 -1.0781004e+00
 -5.6087464e-01
 -2.5490732e+00
 -3.3320194e-01
 -9.1314465e-01
  2.8199744e+00
  1.3960645e+00
  2.9797769e-01
  9.7472118e-03
  3.3029774e-01
 -7.7144200e-01
 -3.5466781e+00
 -1.9474629e+00
 -7.8668159e-01
 -6.2382185e-01
 -4.6401104e-01
  1.4492528e+00
 -7.9198194e-01
 -1.8113624e+00
 -7.3582587e+00
 -1.9981039e+00
  6.9663173e-01
 -7.8400570e-01
 -1.8626311e+00
  9.0448177e-01
 -4.6398667e-01
  9.8834997e-01
 -1.0374587e+01
 -1.4528859e+00
  1.3620624e-01
  4.1188739e-02
 -4.0082619e-01
  1.2873766e+00
 -1.4853315e+00
 -2.0006547e+00
 -7.9865961e+00
 -2.2435663e+00
  7.8304726e-01
  7.4890918e-01
 -2.4225578e-01
 -6.5420884e-01
  6.1088198e-01
  8.2842809e-01
  1.1209713e+00
 -7.7000737e-01
 -3.8005239e-01
  4.5777716e-02
 -1.7032862e-01
  3.6621177e-01
 -1.0551766e-01
 -5.9976238e-01
 -1.3360266e-01
  9.9895053e-02
 -1.4575870e+00
  1.1264095e-01
 -2.3526731e+00
 -1.0052587e+00
  1.8163869e+00
 -1.2981080e-01
 -3.2682109e+00
 -2.5049796e+00
  7.8217918e-01
  2.7641544e+00
  1.9154578e-01
 -3.2008767e-01
 -2.0075721e-01
  4.7162655e-01
  7.1177006e-01
  9.8065503e-02
  1.0042889e+00
  7.2337145e-01
 -5.2713710e-01
  7.6145813e-02
 -1.7149043e-01
 -5.3898263e-01
 -2.3576124e+00
 -1.2914084e-02
  9.2090327e-01
  9.2540354e-01
  5.3835851e-01
  2.5953281e-01
 -1.2379825e+00
 -5.2169412e-01
  4.2105823e+00
 -1.7447539e-01
  1.8196874e+00
 -1.1645252e+00
  4.9443211e-02
  2.3109560e+00
  2.0192809e+00
 -7.7806807e-01
 -1.8101145e+00
 -2.0164948e+00
  1.4005895e+00
 -2.5737073e+00
  2.8303251e-01
 -1.2260173e-01
 -1.8667904e-01
 -7.7411450e-02
 -1.7511996e+00
  2.0125838e-01
 -6.4137942e-01
 -6.5530031e-03
  1.4330995e-01
  4.5055494e-02
 -1.7175937e-01
 -2.4985862e+00
 -3.6573097e-01
 -1.6886760e-01
  1.1169871e-01
 -5.0320584e-01
  1.0005336e-01
  2.2058579e-01
 -1.0120550e+00
 -6.6015117e-02
 -3.0913619e-02
  1.9022255e-01
 -1.3850517e+00
 -1.4908840e-01
  2.7471812e-02
 -5.4089028e-01
 -2.5103918e-01
 -1.0381663e-01
 -5.0925398e-01
  1.7154272e-01
  2.6239875e-01
 -9.7618617e-02
 -1.7465700e-01
  8.8955775e-02
  1.1345081e-02
 -4.9441538e+00
  7.1903415e-02
 -2.3500308e-02
 -6.6449910e-02
 -6.0201280e-02
  1.2222785e+00
 -1.4404207e-01
 -3.1724569e-01
  8.8148400e-02
 -3.3803850e-01
  2.3812462e-01
  3.1869021e-01
  7.2281577e-02
  5.0499020e-03
  1.6738339e-01
 -6.7858532e-02
  1.0730963e-02
 -3.9315041e-02
 -3.4462508e-02
 -9.3810785e-01
 -3.6234927e-01
  2.8740492e-01
 -7.4929423e-03
 -1.4079371e-01
 -1.0026519e-01
 -3.1613134e-02
 -5.3362139e-02
 -2.3668584e-01
 -4.6737712e-02
 -3.5282139e-02
 -1.0841382e-01
  4.1805387e-01
 -1.3397366e+00
 -2.1235514e-01
 -3.8552260e-01
  3.8735945e-02
 -9.4689417e-01
 -7.8717494e-01
 -4.4797087e+00
  1.6811620e+00
 -2.9339960e+00
  1.9943020e+00
  9.6998549e-01
  1.2036227e-01
 -1.2673621e+00
 -6.2165928e-01
  3.4831882e-02
 -7.8752214e-01
  5.6726445e-02
 -3.6406059e+00
 -1.0489801e+00
 -5.6239992e-01
  2.5592092e-01
  4.9860173e-01
 -6.5994525e-01
  5.4244494e-01
 -3.3167449e-01
 -2.8250270e+00
 -6.3689876e-01
  2.2844087e-01
 -7.6734364e-02
 -1.6162972e+00
 -5.2303159e-01
  5.8596981e-01
  2.1554878e+00
 -3.4285285e+00
  4.6460301e-01
  1.4960465e-01
  7.4181646e-02
  4.6620339e-01
 -4.1761741e-01
  1.3041893e-01
 -1.3127166e+00
 -2.9074159e+00
  1.0431312e-01
  2.6455581e-01
 -2.9249233e-01
 -5.8949888e-01
 -4.4820148e-01
 -7.1560711e-01
  4.3736923e-01
 -1.6074075e+00
  2.0893909e-01
 -2.3480894e-01
 -3.4307232e-01
 -1.5512640e+00
  1.2158287e-01
  1.5724814e+00
 -8.7661497e-02
 -3.7396136e-01
  1.7266302e-01
 -7.0960420e-01
  6.8561792e-01
  8.2091266e-01
 -6.1274871e-02
 -5.7954901e-01
  1.8504953e-01
 -7.5594497e-01
 -2.5144100e-01
  2.1733935e-01
 -1.0633282e-01
  3.9424613e-02
  1.0618468e-01
  5.5076617e-01
 -9.5609777e-02
 -1.1420358e-01
  2.1832153e-01
  3.7280032e-01
  2.3673801e-01
  3.8589671e+00
 -2.8803820e-02
 -2.2458193e-01
  1.5339614e-01
  1.4444095e-01
 -1.7469615e-01
 -4.1869542e-01
  8.9470163e-02
 -1.6319181e-01
  1.7861405e-01
  3.3131670e-03
 -2.6118571e-01
  8.0703713e-02
 -6.8965055e-02
  8.2950249e-02
 -1.7326318e-01
 -1.4455758e-01
  1.8155330e-01
  9.3033224e-02
  2.2415315e-01
 -7.5215727e-02
  3.8120028e-02
  3.2765329e-01
 -7.5190917e-02
  9.2840068e-02
 -1.8867571e+00
  3.3804383e-02
 -6.8695676e-01
  2.4009059e-01
 -3.9382386e-01
 -6.1334819e-02
  5.8451343e-02
  5.9125885e-02
 -7.1268998e-02
  2.4665412e-01
  4.4765285e-01
 -4.5188546e-02
  6.1663460e-02
  1.1360567e-01
  3.4593305e-01
  2.0112330e-01
 -1.2930865e+00
  3.8104075e-01
  6.0016888e-01
 -2.5028074e+00
 -2.4946295e-01
  1.5925968e-01
  1.2070687e-01
 -1.4837520e-01
 -1.7693794e-01
 -5.8827531e-02
 -2.0267287e-01
  4.5174018e-01
 -1.2532611e-01
  5.3952049e-02
 -6.9047622e-02
  7.3888898e-02
 -5.7609152e-02
  1.2899912e-02
  2.7203226e-01
  1.8172300e-01
 -2.8155711e-01
 -1.0309591e-01
 -1.6307324e-02
 -1.9141609e-02
  4.6437672e-01
  2.3529856e-01
 -8.5709766e-02
  1.9265950e-02
  5.1855713e-01
 -1.6677590e-01
 -3.2557881e-01
 -7.0579231e-01
  9.9577248e-02
  2.5041574e-01
 -1.2377053e-01
 -1.1087151e-01
 -8.3758645e-02
 -2.4923784e-01
  4.0162155e-01
  5.6291926e-01
 -2.0540586e-02
 -2.4011853e-01
 -3.1394711e-01
 -1.0068192e-01
 -5.1514253e-02
 -1.7169218e-01
 -5.3093088e-01
  2.7389133e-01
 -8.5307494e-02
  5.0644942e-02
 -2.7017605e-01
 -1.9240666e-02
 -8.1179410e-02
 -4.4316560e-02
  1.1897855e-01
  2.1769027e-01
  1.7811823e-01
 -1.2120890e-01
 -1.5548065e-01
  8.1999376e-02
 -7.2191721e-03
  2.2864385e-01
  7.8151321e-01
 -5.2724902e-02
  1.3199989e-01
 -1.1690938e+00
 -9.5930211e-02
 -3.1159583e-02
  5.6099701e-01
 -1.9992590e-01
  7.0491925e-02
  2.5308278e-01
  3.0813348e-01
  7.0186548e-02
 -5.8154028e-02
  2.2119556e-01
  1.6493744e-01
  1.5192088e-01
  8.8579166e-01
  3.3364086e+00
 -1.2935634e-01
 -1.8113233e-01
  1.2131912e-01
  1.3972683e-03
  6.4705946e-02
 -9.7286373e-02
  1.0784232e-01
 -8.0936670e-02
 -1.3177381e-02
 -1.9599751e-01
  7.8090891e-02
 -5.0389963e-01
 -1.4678846e-01
  1.2790991e-01
 -7.1791358e-02
  1.8241853e-01
 -1.1097738e-01
  8.9799903e-02
 -4.9033158e-02
 -7.2150540e-01
 -5.8531851e-02
 -2.9720160e-01
  2.0218208e-01
 -4.3027252e-02
  1.7013306e-02
  6.9744021e-01
  3.7175605e+00
  7.0518382e-02
 -7.1214192e-02
  6.4922698e-02
 -5.0300777e-02
  4.3461080e+00
  1.9677880e+00
 -3.6865950e+00
 -7.0670176e-01
 -1.3705055e+00
  1.8516283e+00
 -3.3867850e+00
 -3.0955474e+00
 -4.8149064e-01
  1.2753139e+00
  3.4109023e+00
 -2.3824896e-01
  3.4490669e-01
 -6.4425454e-02
 -5.7724088e-01
  5.3062711e-02
 -1.2906766e+00
 -6.8006766e-01
  1.0519730e+00
  1.3901947e+00
  1.5308975e+00
 -1.6284131e+00
 -3.3345165e+00
 -8.6437976e-01
  3.9286888e-01
  5.2459931e-01
 -1.3797406e+00
 -1.9379587e-01
 -1.6274443e+00
 -3.3004412e-01
 -1.3437949e+00
  1.0619037e+00
 -6.1915743e-01
  1.8661411e-02
 -1.0294113e+00
 -1.6935872e+00
  6.3244656e-02
 -1.0297834e-02
  2.3063681e+00
 -1.6871814e+00
 -3.0583993e-01
  3.3768424e-01
  7.2729713e-01
 -3.6889616e-02
  4.9754441e-01
 -4.9793649e-01
  3.6519283e-01
  1.3847047e-01
 -7.5391971e-02
  9.5972753e-01
 -3.2515664e-02
  3.0789655e-01
  1.8363290e-02
  1.8767276e-01
  1.2201573e-01
  1.1629434e-01
  9.3003273e-01
 -1.2762338e+00
 -5.8723044e-01
 -2.5866768e-01
 -5.1263565e-01
 -3.1987448e+00
  5.9102792e-01
  4.2637835e+00
 -3.1242481e-01
 -2.0285943e-01
  5.5624578e-02
  5.5080682e-02
 -3.8645473e-01
 -1.2260275e-01
  1.2373764e-01
  1.2815027e-01
 -3.5677791e-01
 -2.3444408e-01
 -5.8946812e-01
  3.3011866e+00
 -4.4794530e-02
  2.5169778e-01
 -1.5369549e-01
 -3.1019270e-01
  7.9420280e-01
 -5.5299647e-02
 -6.8195000e-02
  7.9349703e-01
  8.4351116e-01
  5.6519330e-01
  7.2826993e-01
  2.0305994e-01
  2.9851569e-02
 -4.0442300e-01
 -1.6098086e+00
  1.6790794e+00
  6.3877815e-01
  1.2604926e+00
  6.7914730e-01
 -5.0834560e-01
 -1.9435537e-01
  2.8691056e-01
 -1.7350757e-01
  3.8081953e-01
 -1.5429367e-01
 -1.5999931e-01
 -3.0437467e-01
  2.3195648e-01
  4.5541294e-02
 -1.2090870e-01
  1.4995280e-01
 -3.2429340e-01
  3.8124170e-02
 -1.4456147e-01
 -5.7722069e-02
 -1.0479392e+00
  1.8897847e+00
 -5.1595639e-02
 -3.5127490e+00
  6.5017557e-01
  3.1937969e-01
  4.3361178e-01
 -1.1680522e+00
 -3.6871710e+00
 -1.2532137e-02
 -1.6028303e-01
 -1.4201787e-01
 -2.5391299e-01
  1.1784600e-01
 -3.5486007e-01
  6.1534387e-01
 -3.7039697e-02
 -3.7374914e-01
  4.6382107e-02
  7.1478553e-02
 -1.0050449e+00
 -3.1464532e-01
 -1.1531249e-01
  3.2700941e-01
 -1.9542615e-01
 -1.4115082e-01
 -5.2808940e-02
  2.1339768e-01
 -1.4015198e-01
 -4.9936664e-01
 -1.1296920e+00
 -1.0876928e-01
 -6.0810363e-01
  9.5485330e-02
  4.1052765e-01
 -8.5909045e-01
 -1.0271589e+00
 -1.9953777e-01
 -2.3550893e-01
  3.3194280e-01
  2.8083384e-01
 -1.2307774e-01
  4.3778414e-01
  9.1739096e-02
  1.6519554e-01
  4.5777999e-02
 -9.5530875e-02
  9.8397380e-01
  5.5222780e-01
 -3.6894191e-02
 -4.5098016e-01
 -7.0349596e-02
 -7.4469841e-01
  5.2086819e-02
 -2.2959489e-01
 -3.4235671e-02
  2.4740325e-01
 -4.1872862e-01
 -2.9473956e+00
  3.1150234e+00
 -4.2957491e-01
  2.0632476e-01
 -5.2693033e-01
 -1.4416509e+00
 -7.0564932e-01
 -1.5885477e+00
  4.8930627e-01
  2.1110050e-02
  1.7444164e-01
 -6.2713188e-01
 -4.6107763e-01
  7.5442207e-01
  3.8005185e-01
  2.1693811e-01
 -3.1122215e+00
 -1.2275451e+00
 -1.5418965e+00
 -6.3693486e-02
  6.2387699e-01
  6.5889078e-01
  1.4564702e-01
 -5.4146558e-01
 -2.2929366e-01
 -7.0417827e-01
 -9.8627657e-02
 -3.1996781e-01
  2.9991901e-01
  4.8036285e-02
 -2.5765123e-02
  2.0309417e-01
 -4.9403149e-01
  6.4701045e-01
 -6.0839564e-01
 -1.4862208e-01
 -3.2941782e+00
 -5.1131174e-02
  2.7289334e-01
 -5.6150667e-02
 -2.9790488e-01
 -4.7289631e-01
  1.5197159e-02
 -2.0813824e-01
 -8.9967661e-02
  8.7659970e-02
  6.1137182e-01
  5.9229568e-02
 -2.0319898e-02
  6.3315439e-01
 -1.5398666e-01
 -3.2463014e-01
  1.9922473e+00
  2.2995856e-02
 -2.0009421e-02
 -1.5689753e-01
 -5.6621157e-02
 -2.4379952e-02
  1.9192502e-01
 -2.5310254e-01
 -7.8833401e-01
  3.5840574e-01
 -1.9934739e-01
  4.4663874e-03
 -1.1408695e-01
 -1.6498388e+00
  1.2285608e-01
 -1.3602628e+00
  2.7757554e+00
  1.5669848e-01
 -3.4014560e-02
 -2.4189083e-01
 -8.6970083e-02
 -2.2875458e-01
 -1.2274780e-01
 -4.4062871e-02
 -3.7191463e-01
 -4.9221537e-01
  6.2085271e-01
  4.0074265e-01
 -9.6483991e-02
  1.0727311e-01
  5.4416314e-02
  1.6225944e-01
 -4.8097530e-01
 -1.9529890e-01
 -1.1552878e-01
 -1.3731827e-02
 -1.7019671e-01
 -2.4304438e-01
 -1.9223765e-01
  7.3497258e-03
 -4.2790160e+00
 -1.3641153e-01
 -4.6401334e-01
 -1.9479395e-01
  2.1133393e-01
 -1.9990256e-01
 -8.3655757e-01
 -5.2163732e-01
 -7.3960328e-01
 -9.6227832e-02
  1.9387208e-01
  2.8913417e-01
  5.2295826e-02
  4.8773227e+00
  4.9646970e-02
  1.5262544e-01
  3.9758721e-01
 -5.8350104e-01
 -2.0136504e-01
  3.4769315e-01
 -1.5517933e+00
 -2.7225361e+00
 -2.6045752e+00
 -2.3194504e+00
  2.2401349e-01
  2.4661303e+00
 -6.0508245e-01
 -3.3847588e-01
 -9.7617435e-01
  3.2529789e-01
 -5.5984157e-01
 -5.4182380e-01
 -7.4385118e-01
 -1.2201563e+00
 -4.8374802e-01
 -9.3986905e-01
 -2.3663893e-01
  3.7263875e+00
  6.9445539e-01
 -1.1560763e+00
 -4.0893421e-01
  7.4684083e-02
 -1.6203864e-01
 -4.9158525e-01
 -1.4517319e+00
  5.1834172e-01
  6.4106566e-01
 -1.4004428e+00
 -4.2011213e-01
  2.8354883e-01
 -8.7298828e-01
 -1.8579292e+00
 -8.6367589e-01
 -1.8118080e+00
  7.5175607e-01
 -1.0795326e+00
 -4.3577236e-01
  8.3783793e-01
  1.8766484e-01
  4.4331065e-01
 -1.7501836e-01
 -1.0388380e+00
 -9.5781803e-02
 -1.3798073e-01
  1.2366100e-01
 -3.4305796e-01
 -2.0541194e-01
  2.3198271e+00
  2.3593431e+00
  6.4347364e-02
 -1.7515793e-01
 -2.0608366e+00
 -3.5279024e-01
 -3.1420222e-01
 -9.7340137e-02
 -1.8650200e+00
 -2.4178886e+00
  1.5984010e+00
  1.0931211e+00
 -3.0475855e+00
 -1.0950307e-01
  1.3049238e+00
 -1.2950346e+00
 -9.4118470e-01
 -2.4249336e-01
  2.8284657e-01
  1.3541214e-01
 -8.4134853e-01
 -1.2728547e-01
  6.4332920e-01
  1.9804253e-01
 -1.9791496e-01
 -5.9541845e-01
  6.1905009e-01
  5.0422192e-02
 -2.1086767e-01
 -1.2730285e-02
 -6.0142058e-01
  7.5797832e-01
 -1.1793725e+00
 -1.5449179e+00
  7.1367472e-01
 -3.5405803e+00
  2.5291994e+00
  1.8937367e+00
  3.2068470e-01
 -8.3832973e-01
  4.9997884e-01
  3.0602226e+00
 -5.3639817e-01
 -7.2598261e-01
  1.7197095e+00
 -1.8003695e-01
  7.7371788e-01
 -3.3252800e+00
  1.2541205e-01
 -1.0951693e-01
 -4.6824738e-02
 -1.8774116e-02
 -4.9716821e-01
  1.3512257e-01
 -5.3810332e-02
 -7.9107188e-02
  1.1204031e-01
 -5.4496005e-02
 -1.7455304e-02
  7.4217767e-02
  2.7628794e+00
  1.1002897e-01
 -8.3030634e-02
 -3.3803442e-01
 -2.2794704e+00
  3.0817637e+00
  3.6816117e-01
  1.5039154e+00
  1.7182406e+00
 -2.5427561e+00
 -1.0013312e+00
 -2.2761595e+00
 -1.0645815e-01
  2.8922871e-01
 -8.7943971e-02
 -5.3475368e-01
  9.8888129e-01
  1.0429221e+00
  1.0208877e+00
  3.9674249e-01
  6.0967956e-02
  1.3459091e+00
  2.3465889e+00
 -2.2215620e-01
  1.7751328e+00
 -9.1846490e-01
 -3.3694127e-01
  1.7827072e+00
  5.7717443e-01
  4.1513965e-01
  1.3126969e+00
 -5.2840132e-01
  8.7155098e-01
  2.1301672e-01
  1.3330008e+00
 -4.5286769e-01
  4.8142713e-01
 -7.6695395e-01
 -3.4979239e+00
 -1.1710625e-01
  3.3443246e+00
 -7.6864943e-02
  1.8668165e+00
 -1.5794303e-01
 -3.1583282e-01
 -9.9797016e-01
 -7.9875298e-02
  1.1266091e-01
 -6.7714557e-02
 -4.0111563e-01
 -2.7113962e-01
 -1.7132032e-01
  1.6539881e-01
  4.1932270e-01
 -4.2957049e-02
 -1.7986006e-01
  1.0762007e-01
  1.4379938e-01
 -1.3521446e-01
  1.6937576e-01
 -1.7515569e+00
 -1.0966735e+00
 -5.2676922e-01
 -1.6053349e+00
  1.0427655e+00
  4.0969446e-01
 -8.6825693e-01
 -1.3478351e+00
  2.7840763e-01
 -5.1537341e-01
 -5.6738757e-02
 -8.3849156e-01
 -1.2488334e+00
 -1.2860818e+00
 -1.7501360e-01
 -9.8765574e-02
 -3.7793979e-01
 -6.4912581e-01
 -3.9555848e-01
  6.9992310e-01
 -1.5439161e+00
 -2.8872669e-01
  5.7944000e-01
  1.8575217e-01
 -8.6886692e-01
 -2.3034073e-01
  1.2865405e-01
 -3.3617648e-01
 -1.9234118e+00
  1.3591762e-01
 -1.4423879e+00
 -4.3682021e-01
 -2.4728754e+00
  9.9381870e-01
 -1.9909390e+00
  1.6161959e-01
 -1.6151819e+00
  2.5024790e-01
  7.9301316e-01
 -5.3814036e-01
  4.1907203e-01
  4.3498951e-01
  9.4273609e-01
 -6.0135912e-02
 -8.6875200e-01
 -1.8697908e-02
  4.0282626e-02
 -1.1674321e+00
 -2.8526443e-01
 -1.2121989e+00
  2.1225862e-01
 -1.2581722e-01
 -2.3583077e-01
  8.1532486e-02
 -1.6427940e-01
  1.1248561e-01
  1.9771665e-01
  1.6814183e-02
  1.7640890e-01
 -1.0519022e-01
 -1.6497803e-01
 -1.7352600e-03
  9.1852352e-02
 -4.0894198e-01
  2.8442621e-01
  8.5068896e-02
 -1.4914347e-01
  2.3895033e-01
 -3.2822156e-01
 -2.3626207e-01
 -7.8731410e-02
 -2.3971286e-02
 -1.6221812e-01
  2.9932973e+00
  2.6242054e-01
 -2.0718060e-01
  6.9254267e-01
 -1.4077812e-02
 -4.5053941e-01
  8.5356288e-02
  4.3594578e-01
 -1.0781144e-01
  3.2408610e-01
 -1.2006512e-01
 -1.1494688e-01
 -1.7854974e-02
 -1.5861408e-01
 -6.2492121e-02
 -3.8888566e-02
 -7.5182080e-02
 -5.1624382e-01
 -1.9855264e-01
 -9.7104400e-02
 -6.5971211e-02
  3.1657979e-02
 -7.5354867e-02
 -2.4117249e-01
 -2.9122472e+00
  1.2092727e-01
 -1.8023847e-01
 -7.7376854e-01
 -2.4920402e-02
  1.7618176e-01
 -1.0172929e+00
 -9.5473371e-02
  6.1571442e-02
 -1.7349403e-01
  1.1489202e+00
 -2.5723535e-01
 -9.2624414e-01
  7.2260439e-02
 -1.4961420e-02
  9.7156060e-01
 -2.4988718e+00
 -1.3499709e+00
  1.4241526e+00
  2.5479579e+00
 -7.5075299e-01
  1.4782071e-01
  5.8770239e-01
 -3.7287977e-01
  1.9944710e-01
  3.2424819e-01
 -1.7804929e+00
  2.1600883e-01
  4.1456214e-01
 -1.3662700e-01
  2.0679444e-01
  4.3134484e-01
 -1.1073962e+00
  4.9748629e-01
  2.2320609e+00
 -1.6914789e-01
 -6.6731566e-01
  4.8077437e-01
 -5.0846344e-01
  6.3096142e-01
  2.1193612e-01
 -8.9166686e-02
  2.3394683e-01
  5.6747401e-01
 -7.1551636e-02
  3.3546701e-01
  1.6800614e-01
 -4.1186777e-01
 -5.6914240e-01
 -8.4455186e-01
  5.0100398e-01
  4.8467678e-01
 -5.5898350e-01
  5.6917685e-01
  1.9211415e+00
 -1.5718690e-01
  4.3597943e-01
  5.2806396e-02
 -2.6955202e-02
  8.3392374e-02
 -1.6501679e-01
  3.3481809e-01
  5.4988742e-01
 -5.2495848e-02
 -2.1341851e+00
  1.2569362e-01
  2.1619623e+00
  2.1169563e-01
 -4.8687297e-01
 -2.3511212e-01
 -2.2048569e-01
  1.4842235e-02
 -1.5212929e-01
 -8.0798060e-01
  9.3036883e-02
  7.4231774e-02
  2.0709962e-01
  1.9248859e+00
  2.3546267e-01
  6.7825091e-01
 -3.4550145e-02
  4.6883137e-03
 -4.9094271e-02
 -1.9731748e-01
 -1.9622615e-01
 -8.9402720e-02
 -1.8809888e-01
  2.0432724e-02
 -4.9431439e-02
 -2.5130585e-01
  1.2261291e-02
  1.4352264e-01
  4.4409925e-01
  4.2629197e-02
 -8.1658721e-01
  1.9805543e-01
 -2.2500540e-01
 -9.8637380e-02
 -1.9681472e-02
 -8.7249249e-02
  1.7192493e-01
  1.6532086e-01
  1.0569727e-01
  8.3738580e-02
 -3.8637033e-01
  2.3722517e-01
  2.3774905e-02
  3.2065555e-01
 -4.4264317e-01
 -7.6166309e-02
 -3.1123924e-01
  4.1619933e-01
 -3.6770169e-02
  6.6707186e-02
 -2.6092777e-01
 -5.3062066e-02
  1.0106339e-01
  3.9942124e-01
  6.8790650e-01
 -1.0140504e-01
  8.7125469e-03
 -5.3058013e-02
  7.2692864e-02
  6.5711685e-02
 -6.0742506e-04
 -1.3479422e-01
  1.3921729e-01
 -1.0464220e-01
 -1.6100565e+00
  2.9798379e+00
 -1.8259770e+00
 -7.4741668e-01
 -1.1199111e+00
 -1.2310812e+00
 -4.3489836e-02
 -9.7708106e-02
 -2.7839582e-02
 -3.7907794e-01
 -1.6406286e-01
  1.6779695e-01
  3.1872874e-01
  3.0090976e-01
  1.5921713e-01
  2.0497890e-01
  2.5327376e-01
  1.9602324e-01
  3.0283206e+00
 -3.7348881e-02
  1.0520122e-01
 -1.9727710e-03
 -1.9692625e-01
 -6.3790828e-01
 -3.3609203e-01
  3.3318576e-01
 -4.8801672e-01
 -4.2949030e-01
  7.4083692e-01
 -5.2029252e-01
 -1.2320972e-02
  4.9783236e-01
 -3.9964169e-01
  7.0445460e-01
 -3.2921374e+00
  5.3870954e-02
 -2.6463878e-01
  3.0634600e-01
  1.5287867e-01
 -1.4440633e-01
  2.5781751e-01
 -8.9165486e-02
  2.2044060e+00
 -1.0360964e-01
 -2.9716134e-02
  1.6704287e-01
  4.7851600e-02
 -1.8209729e-02
  1.9744912e-01
 -1.6724123e-01
  9.0197131e-02
  1.1471683e-01
  1.1632043e-02
  2.6487073e-01
 -3.8542199e-01
 -3.7865204e-01
 -8.3752796e-02
 -7.1397585e-01
 -1.6966491e+00
  9.6781737e-01
  2.1518216e+00
  1.7873172e+00
  3.6694247e-02
 -2.8405127e-01
  7.6446855e-01
  1.3512995e+00
  1.4730044e-01
  6.6163957e-01
  2.8145736e-01
  7.0543867e-01
  2.1791446e-01
  1.2970053e-01
  2.5931197e-01
 -1.5026803e+00
  8.5843645e-02
 -1.2347231e+00
 -3.2621881e-01
  2.1128447e-01
  1.4868423e-01
 -1.1787764e+00
  5.7169956e-01
 -2.2861221e-01
 -4.3939874e-01
  1.6147802e+00
  2.2838487e-01
 -1.7194211e+00
 -6.3474911e-01
 -8.6064005e-01
 -4.1642672e-01
 -7.2943169e-01
  2.6411706e-01
 -1.3732935e+00
 -7.9591632e-01
 -1.6392529e+00
  8.5152543e-01
  5.7493882e+00
  6.8961084e-01
  4.8105556e-01
 -1.4603578e-01
 -1.5359864e-01
 -6.1542027e-02
  1.1221838e-01
  6.9441251e-02
  9.4546318e-01
  1.7713617e-01
  7.8634965e-01
  1.4465852e+00
 -3.5144597e-01
  5.9204859e-01
 -3.7577298e-01
 -1.8159170e-01
  1.2648530e-01
 -4.9554029e-01
 -2.8315546e-02
 -1.1902191e-01
 -3.9284036e-01
  1.5821548e-01
  3.9967093e-01
  4.4266579e-01
  2.8193319e-01
  1.7657515e-01
  2.5104433e-01
 -3.0763793e-01
  1.3795459e-01
  1.6646606e-01
  5.8228828e-02
 -2.5497347e-01
 -4.2736888e-02
 -7.9905592e-02
  1.9598116e-01
  2.1321213e-01
 -1.3062198e-01
 -3.0407965e-01
 -1.1346202e-01
 -2.3947136e-02
 -3.0420097e-02
  1.1716139e-01
 -1.4325017e-01
 -3.1747343e-03
  1.4944652e-02
  6.1347742e-02
 -1.8538915e+00
  1.0647137e-02
  1.7629033e-01
 -2.4179687e-01
  1.0956579e-02
 -8.1925854e-02
  4.1978281e-02
  3.0103481e-01
  5.9925865e-02
 -2.5367916e-01
  5.2315021e-01
 -5.9533875e-02
 -2.7911788e-01
 -2.1696846e-01
 -3.9745110e-01
  1.6001722e-01
  1.0792449e-01
  1.8253756e-01
 -1.0357614e-01
  3.5575368e-02
 -1.6753303e-02
 -4.6863660e-02
  8.5276946e-02
  1.7391773e-01
 -1.5057156e-02
 -1.0556173e+00
  1.2116733e-01
 -1.7432937e-01
  2.5602463e-01
 -2.3272943e-01
 -8.7097876e-02
  7.2038352e-02
  1.5246704e-01
  2.2935793e-01
 -6.3307412e-02
  7.2451845e-02
 -1.1297245e-01
  1.3083984e-01
  2.5946632e-01
  6.1968822e-02
  6.0092423e-02
  3.1895485e+00
  2.1261703e-02
  3.1539080e-01
 -1.4299731e-01
 -2.2659092e+00
  1.1407509e-01
  8.7272152e-02
  6.0528938e-02
 -2.7109569e-01
 -9.4266802e-02
 -2.1052018e-02
  1.1667313e-01
 -7.1807784e-01
  1.3877335e-02
  3.9346106e+00
  1.6474378e+00
  1.5983637e-02
 -4.1845746e-02
  4.6992030e-02
 -2.3585719e-01
  5.7890777e-02
  1.7560999e+00
 -1.6765955e-01
 -1.9929215e-01
  1.2124848e-01
 -1.9853862e-01
 -1.6166343e-01
 -3.9157602e-01
 -2.1980700e-01
  2.4681373e-01
 -6.7400843e-02
 -9.2327856e-02
 -1.2754089e-01
  5.6743611e-02
 -1.0117788e-01
 -3.3710778e-02
  3.4496356e-02
 -1.2590009e+00
 -2.1151833e-02
  2.1353911e-01
  2.7114412e-01
 -2.9991782e-01
 -2.5117793e+00
 -1.4249589e-01
  3.0546698e-01
 -2.3792598e+00
 -3.1871691e+00
 -2.7018430e+00
  2.3944418e+00
  1.3762350e-01
 -3.5567451e-01
  2.8936341e-01
  1.8733938e-01
 -4.9258578e-01
  8.1042063e-01
  1.2641952e+00
  1.6722141e-01
 -1.7119843e-01
  1.7410801e-01
  3.1861651e-01
  2.3888186e-02
  5.4105663e+00
 -5.1443613e-01
 -1.8792274e+00
 -1.3818493e+00
 -1.5984818e+00
 -7.7678001e-01
 -7.6161957e-01
 -3.8819909e-01
 -3.3278885e+00
 -1.6040055e-01
 -1.4613167e+00
 -2.5957978e+00
  1.2140285e+00
 -2.6170201e+00
  1.2481436e+00
  1.7686523e+00
 -2.7089438e+00
 -1.1242462e-02
  1.1015352e+00
 -1.7481264e+00
  7.8735793e-01
  5.1280248e-01
 -5.3102106e-01
  4.9624720e-01
 -5.9472442e-01
  9.1863406e-01
 -7.0188183e-01
 -1.8652707e-02
 -1.0420864e-02
  7.6506764e-01
  1.3646731e-01
 -1.7318662e-02
 -2.7266842e-01
 -8.6485729e-02
  2.9593384e-01
 -8.7133579e-02
 -8.6367667e-02
  1.6978468e+00
 -1.5111458e-01
  1.7431045e+00
  4.9889365e-01
 -1.5972249e-01
 -2.9553382e+00
 -2.4407971e-01
 -4.7934049e-01
  2.6323164e-01
  9.1777280e-02
 -1.5120766e-01
  3.0399872e-02
  1.4210978e-01
 -1.5274400e-01
 -1.4121577e-03
 -3.5766189e+00
  1.8373574e-01
  1.5826999e-01
 -2.7316362e-01
  1.1031648e-01
 -1.3257618e-01
 -6.3174266e-01
  1.3908589e+00
  1.1080555e-01
 -5.9265524e-01
  2.1545732e-02
 -5.3375750e-03
  2.2803633e-01
 -1.0018489e-01
 -2.5190383e-01
 -8.9944184e-02
  5.6912047e-01
 -2.9366624e-01
  1.0354241e-01
  1.4363191e-01
  5.6274064e-02
  2.6254714e-02
  1.1146734e-01
 -9.1765691e-03
 -1.4548838e-01
 -7.1760410e-01
  4.5949365e-03
  8.2271248e-01
  1.3968894e+00
 -3.6463258e-01
 -1.6672510e-01
  1.4924190e-02
 -3.7024179e-01
 -1.4936957e-01
  2.1553172e-01
 -7.1388767e-03
  3.5747610e-02
  2.6355880e-01
 -2.1672857e-01
  1.1279776e+00
  3.1800810e-01
  3.2166538e+00
  8.7324363e-01
  2.5610459e+00
 -7.5829720e-01
  1.7344064e+00
  1.1939274e+00
 -8.0930300e-02
 -8.3813250e-01
 -2.8264222e-01
 -1.1570146e+00
  3.4743226e-01
 -4.1432276e+00
 -2.0450827e-01
  1.9757529e+00
  1.1350422e+00
 -2.3850849e+00
 -1.1274705e+00
  3.0891618e-01
  1.8570464e+00
 -4.1406304e-01
 -2.5555724e-01
 -2.5317943e+00
  1.3044049e-01
 -9.9632478e-01
  1.3254876e-01
  1.6771019e+00
 -6.7873746e-01
  1.3462751e+00
 -3.0712921e-03
  1.5641938e+00
  3.0437776e-01
 -1.4611021e-01
  1.4718896e+00
 -3.2995152e-01
 -1.3005222e+00
  5.4556209e-01
 -1.3275019e+00
  1.6593066e+00
  1.6169838e+00
  1.3086680e-01
  3.9757702e-01
 -8.0879129e-02
 -1.6446099e-01
 -2.0473762e-01
  1.6663417e-01
  3.9868864e-01
  1.4908779e-01
 -1.4316502e-01
  9.1918074e-02
 -5.5678513e-02
 -7.2473216e-01
 -1.2506065e-01
  2.0037822e-01
 -7.5280637e-02
  2.0320223e-01
  9.3756491e-01
 -2.7893052e+00
 -2.4690373e+00
  2.4610004e+00
  1.1778024e+00
 -1.4822810e+00
 -7.3224008e-02
  4.5742555e+00
  1.7878889e-01
  4.8573875e-01
  1.8620669e+00
 -3.7074891e-01
  2.0405240e+00
  1.0791345e+00
 -2.4975264e-01
 -1.7109859e+00
 -1.2433465e-01
  2.4204130e+00
  1.4532783e+00
  6.2950439e+00
 -3.6603527e+00
  1.6148822e-01
 -1.4717945e+00
 -9.5116898e-02
 -1.1260490e+00
 -1.1155232e+00
  1.6885284e+00
  2.8630713e-01
 -5.3995043e-01
 -6.9822080e-02
 -1.2788700e-01
  6.1886203e-01
  3.2400686e-01
 -7.0089835e-01
 -4.7997099e-01
  8.3073670e-01
