nep4_zbl 2 Cu Zr 
zbl 1 2
cutoff 6 5 176 112
n_max 7 7
basis_size 9 9
l_max 4 2 1
ANN 80 0
  1.4253512e-01
 -3.7909067e-01
  2.4901538e-01
 -1.4223542e+00
 -6.4509588e-01
 -2.1652371e-01
  5.1580489e-02
  7.0441455e-01
 -3.6158636e-01
  6.9185376e-02
 -7.8880265e-02
  6.8286687e-02
 -5.2053064e-02
  8.5422017e-02
 -1.2609648e+00
  2.9784572e-01
  8.7838769e-02
  1.3767985e-01
  7.1052358e-02
  1.3195465e+00
  1.9953020e+00
  1.0818974e-01
 -2.9950064e-01
  2.1352600e-01
  4.6456096e-01
  1.7828021e-02
 -6.8717534e-03
  7.8793037e-01
 -1.8319032e-01
  9.0491593e-02
 -4.8801608e-02
  1.7309400e-01
  5.5131339e-02
  3.8319883e-01
 -7.4692726e-02
  3.5330974e-02
 -1.9193803e-01
  6.4781651e-02
  2.5923726e-01
  4.2632174e-01
  2.6350820e-02
  8.7854683e-02
  4.8161142e-02
 -2.5967890e-02
 -5.5406190e-02
 -7.4256703e-02
  1.4348239e-01
 -1.0948433e-01
 -2.7201848e-02
 -1.4898556e-02
 -9.8533794e-02
 -1.2121348e-01
  9.8284706e-03
  1.1357050e-01
 -4.8923559e-02
  5.0559554e-02
  7.9510704e-02
  1.3737035e-01
 -7.9149745e-02
  3.3448547e-01
  8.4646404e-02
  1.0365498e-01
  4.0589787e-02
  1.6035074e-02
 -1.1219022e-01
 -1.5823537e-01
  2.4098487e-01
  4.3542444e-04
  4.9448214e-02
  3.1349201e-02
 -6.9218434e-02
  1.1234417e+00
 -1.1960174e-01
  1.7914211e-02
  1.9188786e-02
 -9.9957384e-02
 -1.6854012e-01
 -2.6934635e-02
 -2.9533530e-02
  3.6038633e-03
  1.1309443e-01
  8.5709594e-02
 -5.2277499e-04
  2.2769829e-05
  9.2700329e-03
 -2.8172939e-03
 -5.6243930e-02
 -4.4376940e-02
 -1.2137689e-02
  4.4609468e-02
 -4.7891777e-02
  4.4141885e-02
 -4.2591818e-02
 -2.0739064e-03
  4.7202685e-01
 -5.0418232e-02
 -3.0992320e-02
  3.4702722e-02
  2.3202185e-01
  4.0754925e-02
 -5.3720657e-02
  5.6124870e-02
 -1.2974429e-01
  1.5907244e-01
 -6.0121577e-02
 -9.1367312e-02
 -9.5844232e-02
  8.5700668e-02
 -2.8176626e-02
  2.9004250e-02
  6.6304564e-02
  1.5775238e-01
  3.4081775e-01
 -1.0414018e-01
  1.4451388e-01
  3.4638610e-02
 -4.2053983e-01
 -1.1855220e-01
 -1.4862105e-01
  8.0555543e-02
  1.4883325e-01
  1.5794002e-01
 -7.2996683e-02
 -9.8872721e-02
 -7.2749890e-02
  2.0723441e-01
 -8.5861498e-04
 -3.2901266e-01
 -1.1323454e-01
  8.7401852e-02
 -1.7048201e-02
  7.7628702e-02
 -9.2303574e-02
  1.9631027e-03
 -1.2073574e-01
 -4.7385085e-02
  1.0462812e-01
 -2.1143554e-02
  2.2025451e-01
 -9.6028751e-01
 -1.0223528e-01
 -8.1476405e-02
 -1.4982282e-01
  1.6216685e-01
 -2.0703055e-02
  3.2401972e-02
 -2.7738902e-01
  8.4314153e-02
  1.5649660e-01
 -1.8147746e-02
 -2.1758512e-02
  1.0053767e-01
 -2.8462054e-02
  2.5387224e-02
  1.2865297e-01
  5.8062203e-02
  4.6379793e-02
 -5.6730259e-02
 -1.3612728e-01
 -2.6792255e-01
  7.2965153e-02
 -1.5743598e-01
  9.7555391e-02
  1.1605430e-01
  2.0800827e-02
  9.8287426e-03
 -1.1465281e-01
 -1.6401008e-02
  2.3158100e+00
 -1.5923609e+00
  2.0672274e+00
  5.9516180e-01
 -3.9541197e+00
 -1.0076741e+00
  1.7536573e+00
  6.3416922e-01
 -8.8873309e-01
  6.0783029e-01
  2.1079780e-01
 -3.0548611e-01
 -1.5817016e-01
  4.1444036e-01
  3.0977738e-01
  9.0305977e-02
 -9.0247238e-01
  1.2866805e-01
  5.5830176e-03
 -1.3743511e-01
 -4.9773395e-01
 -1.2556419e-01
 -8.8825500e-01
 -4.2794326e-01
 -5.0049311e-01
  7.8903306e-01
 -1.4917400e+00
 -9.0373747e-02
  1.7518951e+00
  6.5467471e-01
  4.6998568e-02
  7.3963732e-01
  5.0103718e-01
 -9.3328036e-02
  1.5258420e-01
 -2.4887085e-01
  2.3936406e-01
  3.1014146e-02
 -2.7441123e-01
  4.4685852e-02
 -7.1698293e-02
 -1.1453011e-01
  1.2141747e-01
 -3.1082585e-02
 -8.1879772e-02
 -1.5429571e-01
 -6.6287657e-03
  2.8816897e-01
 -2.0919634e-01
  1.1637996e-01
 -9.7501040e-02
  2.4218190e-02
  5.0543994e-01
  1.7638852e-01
 -5.2958298e-01
 -5.8097050e-02
  2.7746153e-01
 -1.0571711e+00
 -3.2029137e-01
  1.6948666e-01
 -2.9299812e-02
 -3.9309584e-02
  1.7084657e-01
  3.7766030e-01
  6.6625588e-02
 -9.0412602e-02
  1.2555934e-01
 -5.1229671e-02
 -7.1024723e-02
 -6.7881159e-02
  7.7524744e-02
  9.0701327e-02
 -1.1163223e-01
  1.2498797e-01
 -2.5985435e-01
 -3.4839121e-01
  6.3255243e-02
 -2.1093835e-03
  9.3588777e-02
 -3.1295592e-01
  1.9554817e-03
  9.0559445e-02
 -5.9668779e-02
 -8.4924042e-02
 -5.5636186e-02
 -1.1659864e-01
 -6.7980796e-02
 -2.0640729e-02
  4.4980112e-01
  2.0520924e-01
 -1.1873302e-01
  1.0074084e-01
 -2.0191970e-01
  7.1581148e-02
 -3.5443287e-02
 -1.4328182e-01
  1.7436607e-01
 -6.9258928e-02
  1.1997929e-01
  7.0113398e-02
  4.0648349e-02
 -1.0781757e-01
 -7.1419813e-02
 -5.7466671e-02
 -5.0180510e-02
  1.7557698e-01
  9.1856696e-02
 -9.9292703e-02
 -7.1647905e-02
  4.2254519e-02
 -5.4385476e-02
  8.0942310e-02
  5.2822393e-01
 -4.5918101e-01
  3.8628939e-01
  4.5991546e-01
 -3.4031886e-01
 -2.4117707e-01
 -8.0507994e-02
  1.2241526e+00
  1.6781613e-01
  1.5304855e-01
  1.4523715e-01
 -1.0845389e-01
 -1.5352017e-01
  3.8293192e-01
  1.9572982e-01
  2.9668778e-01
 -2.5961113e-01
  2.0063551e-01
  1.1404565e-01
 -2.0961486e-01
 -2.1462050e-01
 -6.7822598e-02
 -2.6710260e-01
  6.9558485e-03
 -4.2409744e-02
  2.9213282e-01
  7.1057635e-05
 -3.2210377e-01
  4.3660799e-01
 -1.2076521e+00
 -9.5569775e-02
  2.5063097e-01
 -1.2772735e-02
  1.7803700e-01
  1.2635374e-01
  1.6027023e-01
 -9.5579463e-01
 -1.0075273e-01
 -6.0850702e-02
  8.2605772e-02
 -1.1128739e+00
 -1.4370969e-01
  1.3463669e-01
  2.1267684e-01
 -2.1959674e-01
  1.9282784e-02
  8.8312821e-03
 -1.5779108e-01
 -5.1922943e-02
  9.5212214e-02
  2.9075444e-01
  5.8451835e-02
 -9.7163610e-02
  7.9165637e-02
 -3.3366871e-01
 -2.4546003e-02
 -1.2358540e-01
  3.8064588e-02
 -4.0610898e-02
 -6.4808019e-03
 -1.9020651e-01
 -9.6869379e-02
 -1.2891383e-01
 -8.6196937e-02
  1.0636541e-01
  6.5918113e-03
  7.2110780e-02
  1.0355500e-01
  8.2567632e-02
 -6.3265391e-02
  3.3074638e-01
  2.4354443e-02
 -5.5073839e-02
  7.7084370e-02
 -5.4029021e-02
 -1.0767104e-02
 -2.8443869e-02
  1.7078422e-02
 -1.2833688e-01
 -4.0172115e-02
 -2.6929766e-01
  9.9005744e-02
  2.6800614e-02
  8.0092154e-02
  9.3030691e-02
  5.6930620e-02
  8.7775318e-03
  4.2308626e-01
  1.2589353e-02
 -1.1088935e-01
  2.7972747e-02
  1.5759857e-01
 -8.8174865e-02
 -6.0837120e-03
 -7.3988279e-03
 -7.1160203e-01
  6.2738322e-02
  4.5868151e-02
  6.9023564e-02
  3.8237203e-02
  1.2462090e-02
 -5.5482760e-02
 -9.6519813e-03
  8.4571401e-03
  2.3427105e-02
 -3.8404759e-02
 -9.6996278e-02
  5.8227110e-01
 -4.0498696e-02
 -3.1608801e-02
  2.8635126e-02
  8.1479497e-02
  8.4620237e-01
  8.5072458e-01
 -7.2862469e-02
 -1.0453081e+00
  2.0866685e+00
 -8.0986720e-01
 -1.5860328e-01
  1.1338475e+00
 -1.4459334e-01
 -1.9348685e-01
 -4.0962240e-01
 -2.1338856e-01
 -3.3322436e-01
 -1.1640819e+00
 -3.2097518e-01
 -3.8877144e-02
 -1.3246775e+00
 -1.4312627e-02
 -3.2842320e-01
  4.8113212e-01
 -5.0287861e-01
 -1.1685728e+00
 -6.0878873e-01
 -2.0513060e+00
 -3.6342639e-01
  1.9366151e-01
  3.8750280e-02
 -3.5424647e-01
 -4.1727689e-01
 -1.0610057e+00
 -6.1100519e-01
 -1.9678017e+00
 -6.4952224e-02
  3.2574412e-01
 -2.2320504e-01
  4.5329273e-02
  4.3977553e-01
 -8.5260296e-01
  3.2055777e-02
 -6.7353708e-01
 -5.2167320e-01
 -9.9299140e-02
 -1.2660937e-01
  1.0685332e-01
 -1.1077302e-02
  7.2727874e-02
  1.4746633e-01
 -3.0249983e-01
  3.2543650e-01
 -9.7050890e-02
 -6.2222574e-02
  1.6483176e-02
 -1.6168876e-01
 -4.7820598e-01
 -8.9298166e-02
 -1.0410952e-01
 -2.9020660e-02
 -7.5078957e-02
  1.5400933e-01
  9.6410468e-02
 -1.6376859e-01
  2.7011116e-03
 -1.2510903e-01
 -7.4716429e-03
  1.3471663e-01
  1.0388626e-01
 -1.3674207e-01
  9.3952224e-02
 -9.6131653e-02
  7.3018156e-02
 -2.8829454e-02
  1.1924583e-01
  2.9170299e-02
  1.6267537e-01
 -9.7777203e-02
 -1.5259385e-01
 -1.2910455e-01
  5.1608782e-02
  9.6433870e-02
  1.3239338e-01
  5.1557183e-02
 -5.0834943e-02
 -7.6910034e-03
 -1.3252394e-02
  3.6665563e-02
 -1.0475790e-01
 -7.9974616e-01
  1.6021630e-01
  2.6994303e-03
  1.0713472e-01
  8.7459952e-02
  2.6835056e-02
 -4.9585387e-02
  2.4159973e-02
  8.0599636e-02
  5.4169897e-02
 -1.6444135e-02
 -1.9266447e-02
 -9.0677310e-03
  1.2251515e+00
 -1.1082575e-01
  4.3965619e-02
 -2.9627308e-01
 -9.4197102e-02
 -5.4873314e-02
 -1.8303823e-01
  1.0202820e-01
 -4.5872878e-02
  1.6216313e-02
 -9.9379420e-02
 -7.8691907e-02
  4.7918212e-02
  1.0537312e+00
 -6.2567163e-01
  1.2236642e-01
 -5.0242431e-02
 -3.2986316e-01
 -7.8581220e-01
  5.0611210e-01
  4.1826889e-01
  1.7795427e-01
  2.0562971e-01
  1.2081686e-01
 -7.2807461e-02
  8.4435292e-02
  2.1218666e-01
  6.4445353e-01
 -6.0487604e-01
 -6.9905293e-01
 -9.3446888e-02
 -1.0513920e-01
  7.1255542e-02
 -1.9020045e-01
 -1.7182072e-01
 -2.8927401e-01
  2.0816200e+00
 -2.4581705e-01
  1.4398052e-01
  9.8251477e-02
  2.1992085e+00
 -5.9566726e-03
 -6.0422473e-02
  3.3540449e-01
  6.7632534e-02
  4.2901662e-01
  1.5819888e-01
  3.9667107e-02
  4.7942442e-01
  4.7526672e-02
  2.0634048e-01
  4.0945274e-01
 -5.0796276e-01
  4.1631100e-01
 -2.1194790e-01
  1.0462708e-02
  4.1656375e-02
 -1.4322250e-01
 -5.4205831e-02
  6.6992298e-02
  6.2678570e-01
 -1.2056336e-01
 -1.0992905e-01
  8.6549791e-03
  2.5494307e-01
 -1.7803083e-01
 -5.1031485e-02
 -8.7212366e-01
 -6.1194260e-02
 -5.9075242e-01
  9.9470186e-01
  1.1230612e-01
 -2.5450072e-01
 -4.3876332e-01
 -7.3541785e-03
 -9.9491842e-02
 -4.2755368e-01
 -9.5369890e-02
  1.0629783e-01
  2.6506225e-02
  6.7042626e-02
  2.8049311e-01
  1.8339448e-01
 -1.1536390e-01
  1.1021750e-01
  4.6365738e-02
 -6.5901577e-02
  3.5668947e-02
  4.0993893e-01
 -2.0474359e-01
  2.4594229e-02
  6.0562920e-03
 -7.3837385e-02
 -4.2845145e-02
  4.8690174e-02
  6.0067333e-02
  8.2185455e-02
 -5.4057870e-02
 -2.7254676e-02
  8.7831147e-02
  1.4973551e-01
 -5.6592579e-04
  1.0952074e-01
  4.4165526e-02
 -1.6860905e-01
  6.3328624e-02
 -1.6729021e-01
 -5.8427936e-01
  3.9617395e-01
 -8.1244893e-02
  1.2572576e-01
 -3.7454795e-03
 -5.5251950e-01
 -7.2244219e-02
  7.3152058e-02
 -3.3194982e-02
 -3.5970461e-01
 -1.1512212e-02
 -3.0060299e-02
 -5.5096686e-02
  1.2419473e-01
 -4.0430684e-02
  2.4899444e-01
 -3.0562621e-01
 -1.4219263e-01
  1.2826853e-01
 -1.6017410e-01
 -2.4664164e+00
  2.9049408e-01
 -1.7800680e-01
 -2.2694477e-01
  9.0354256e-02
  4.3723583e-01
  2.8467423e-01
  5.7010632e-02
 -2.5189024e-01
  1.7614047e-01
 -7.9196133e-02
 -2.5594035e-01
 -5.5393500e+00
  5.2179690e-02
  9.0894774e-02
  4.7833402e-02
 -1.5036313e-01
 -4.1218005e-02
 -1.8348242e-01
 -3.0124637e-01
 -1.0290653e-01
  8.8396911e-03
  3.4362987e-01
 -1.2943842e-01
  2.9081684e-02
  1.5019712e-01
  5.0357472e-02
 -5.2869469e-02
 -8.8216728e-03
 -3.9658999e-01
  1.4330414e-01
  4.8354592e-02
 -1.4071636e-01
  1.8895595e-01
 -2.4277559e-02
  6.9283745e-03
  1.3449937e-01
  2.0360191e+00
 -8.8514917e-02
  1.5540223e-01
  5.4437626e-02
  1.0742626e-01
 -8.4968850e-02
  3.3666197e-02
 -4.4041980e-02
  7.1037143e-02
 -1.3139923e-01
 -9.1279022e-02
  3.8624123e-02
  1.3846789e-01
  1.3012500e-01
 -1.2158974e-01
  1.1418957e-01
 -2.3640383e-02
  8.5830919e-02
  1.2258323e-01
  9.5101148e-01
 -1.6025527e-01
 -1.9656260e-01
  5.9359491e-01
  2.5489900e-01
  5.2483741e-02
 -8.8915724e-01
  6.9704968e-03
  1.3031298e-01
  7.0589912e-01
 -1.9211555e-01
 -3.6683747e-01
 -2.8042294e-02
  2.5915936e-01
 -9.2915469e-01
  7.2197133e-01
  1.8599553e-01
  3.7763378e-01
 -1.7114604e-01
  6.3859969e-03
 -1.6445024e-01
  1.3452336e+00
  1.1470582e-01
  6.0067183e-01
  6.5768844e-01
  8.4244204e-01
 -3.6249185e-01
  5.1040280e-01
 -1.2773086e-01
  1.4335780e+00
 -4.9053785e-01
 -1.2130619e-01
  8.4147349e-02
  6.3400334e-01
  3.0490965e-01
 -1.2661411e+00
 -5.5251546e-02
  6.8263078e-01
 -3.0250025e-01
  9.6729286e-02
 -2.9324526e-02
 -3.2270676e-01
  9.0902612e-02
 -9.3054615e-02
  4.3058726e-01
 -1.7566113e+00
  1.6162886e-01
 -2.4239555e-01
 -7.7762090e-02
 -4.3278616e-02
  1.4665712e-01
  1.2986396e-01
 -9.1513805e-03
 -2.7041368e-02
  1.5643546e-01
  4.4343045e-01
  1.8999127e-01
  4.0682475e-03
 -7.3543534e-02
 -1.3337953e-01
  5.4764315e-02
  8.0020136e-01
 -8.5683957e-02
  9.6685424e-02
  1.0505909e+00
 -7.9973824e-03
  6.2891580e-02
  2.9934034e-01
 -1.3892148e-01
  2.6937619e-01
  3.2040378e-01
  2.0856792e-01
  8.5478559e-02
  3.5313897e-02
 -1.0361481e-01
 -2.6736951e-01
  9.7517185e-02
  4.3830058e-01
 -1.7143339e-02
  8.6204804e-02
  3.8327895e-02
 -1.0023078e-01
 -4.2435884e-02
  3.6837766e-01
  2.2167931e-01
  5.6277048e-03
 -7.8779072e-02
  1.9829281e-02
 -9.8254770e-02
 -2.2552998e-01
  2.1548986e-02
 -1.2645443e-01
  8.6265020e-02
  2.2716902e-01
 -8.0533095e-02
  3.7375230e-02
  2.9207010e-02
 -7.4968465e-02
 -3.1018376e-02
  3.4839780e+00
 -7.9143882e-02
 -2.6959261e-01
  2.0587981e-02
 -5.2411903e-02
  2.1136573e-02
 -5.2631278e-02
  1.0320940e-01
 -3.5791028e-02
 -3.7917387e-02
 -6.5223150e-02
  7.4112222e-02
 -7.7605122e-01
  6.2676735e-02
  3.1972018e-01
  3.8144675e-01
 -5.5263060e-01
 -7.4625343e-01
  9.6472800e-01
 -2.2667564e-01
 -9.7853161e-02
 -9.1253757e-02
 -1.0563091e-03
  7.6153599e-02
 -8.3261557e-02
  2.7334818e-01
 -2.5048295e-02
 -4.2378226e-01
 -5.0928757e-02
  4.3144461e-02
 -9.4748706e-02
  2.9194483e-01
 -1.1923750e-01
  2.6676652e-01
  1.4286529e-01
  3.0913594e-01
 -1.0940620e-01
 -9.8373904e-04
 -3.1051191e-02
 -9.7276151e-02
  8.8477910e-02
  3.4570930e+00
  4.5762110e-01
  4.1832390e-01
  1.8926385e-01
 -1.3440175e-01
  4.6978644e-01
  1.3665409e-01
  1.5515117e-01
  9.4995918e-03
 -3.5216370e-01
  8.4846057e-02
 -2.5031185e-01
 -5.7778668e-02
 -2.6709533e-01
 -8.9231998e-02
 -6.4954273e-02
 -4.1484348e-02
  2.5812411e-01
 -5.3981472e-02
  7.0190169e-02
  9.0270206e-02
 -2.7861547e-02
 -9.1651097e-02
 -2.2593072e-02
 -2.8914046e-02
  1.0583345e-01
 -2.5278518e-01
  7.7717954e-01
 -8.3544099e-01
  1.4410543e+00
  6.5537006e-01
 -3.9777830e-01
  3.0530253e-01
  1.2353305e+00
 -1.0514569e+00
 -3.1214294e-01
  2.4407232e-01
  5.2071249e-01
  1.7263600e-01
  2.0388022e-01
 -2.4345110e-01
  1.7159797e-01
  5.7938415e-01
 -6.7947857e-02
  5.1570166e-02
  1.9669797e-01
  2.1399869e-01
  2.0391378e-01
  3.7478054e-01
 -2.3282456e+00
  4.3877268e-01
 -3.1192559e-01
 -1.2823141e-01
  1.8494630e-01
 -1.2743606e-01
 -1.3433238e-03
 -7.4750364e-02
  3.5219476e-01
 -4.2817656e-02
 -1.5680565e-01
 -2.3615989e-01
  4.8925024e-01
  7.0153385e-01
  1.9509368e-01
  3.1481069e-01
 -5.7521570e-01
 -9.8530132e-01
  6.9434710e-02
  3.3784602e-02
  5.4045130e-02
  7.0657745e-02
  1.7187318e-01
 -1.2353391e-01
 -4.6040267e-02
  7.1316056e-02
 -4.1738306e-03
  1.4577752e-01
 -3.4914836e-02
  2.1307074e-02
 -1.5109763e-01
  7.5457856e-02
  3.0524377e-02
  9.3904555e-02
 -2.7847238e-02
  1.7850201e-01
 -2.5976324e-01
  8.3741188e-02
  6.1259318e-02
  5.0254864e-01
 -2.9846808e-01
  3.3762146e-02
 -2.0786913e-02
 -2.2169466e-01
  9.8777883e-02
  2.1033771e-02
  9.5599160e-02
 -4.4014700e-02
  1.2981792e-01
 -1.6324539e-01
  8.8342335e-03
  1.7772458e-02
 -9.1600366e-02
 -9.5294558e-02
 -2.7523916e-02
  3.0393070e-02
 -1.7097321e-01
  1.0847201e-02
  1.5402350e-01
  1.1877191e-01
  6.3906603e-02
  6.5030493e-02
 -2.9413593e-01
 -2.9500155e-02
  6.5997422e-02
 -1.2042243e-01
  2.4319032e-02
  4.3788005e-02
  2.3439774e-01
  4.8670202e-02
  1.5151741e-01
 -1.6022356e-02
 -7.4208371e-02
  7.5557314e-02
  2.6916631e-02
 -1.8610828e-01
  3.8026463e-02
  6.0482509e-02
 -1.9029221e-01
 -4.4740196e-02
 -4.1119192e-02
 -1.1622065e-01
  1.1580777e-01
  1.2071414e-01
 -6.2262663e-04
 -2.8795850e-02
  2.9753041e-03
  1.8799936e-02
  2.8091071e-02
  3.0505565e-01
 -5.4690737e-01
 -6.8884867e-01
  6.9577701e-02
 -1.1557946e-01
 -2.7255172e-01
  1.1595190e-01
  3.3100247e-01
  7.5857747e-01
  2.1645950e-01
  2.8273469e-01
 -5.0118971e-01
 -2.2471400e-02
  1.3601186e+00
 -1.3775556e-01
  1.4970949e-01
  5.0572902e-01
  1.4386044e-01
 -4.3031819e-02
 -6.6362399e-01
  3.4333721e-01
  2.4632800e-01
 -2.2474511e-02
  2.7089114e+00
  2.8172281e-01
  4.2665234e-01
  4.5834562e-01
  3.4302581e-02
  4.4290155e-01
  2.4254090e-01
  5.7925932e-02
  1.0199956e+00
  4.2561623e-01
  3.5788524e-01
  1.3185963e-01
 -2.6947209e-01
  1.9427501e-01
  5.8947438e-01
 -1.8931106e-01
  5.8980411e-01
  3.6386123e-01
 -8.8885672e-02
 -4.4462297e-02
 -1.7041223e-02
 -6.6991568e-02
  9.7754329e-02
  5.6980561e-02
  2.7598783e-01
  2.0604993e-01
 -9.7960919e-02
 -1.7800692e-02
  3.9281256e-02
  4.2020217e-02
  1.2210672e-01
 -1.8108331e-01
  5.3531581e-01
  1.0675981e-01
  2.3367850e-01
 -9.0821169e-02
 -1.9134362e-01
  1.4202168e-02
  5.5658802e-02
  9.7708382e-02
 -1.4481951e-01
  1.1393926e-01
 -1.0246839e-01
 -4.6770502e-02
  3.1607259e-02
  6.5347180e-02
 -4.0758871e-03
 -1.0069022e-01
  3.7585549e-02
 -2.6084293e-02
  3.0746607e-03
 -4.0020235e-02
 -4.9122494e-02
  9.7750761e-02
  2.5819631e-02
  3.9310012e-02
 -3.2135975e-02
  2.5658561e-02
  5.7262763e-02
  2.6017237e-02
 -4.4364221e-02
 -3.3921945e-01
 -1.2177510e-02
  1.3249449e-01
  4.4827288e-01
 -5.2649692e-02
  6.0617037e-02
  3.5349593e-02
 -1.0236120e+00
 -1.0205653e-01
  5.4354388e-02
 -1.1218709e-01
 -8.4702656e-02
 -8.3194755e-02
 -1.9667156e-02
 -1.5747116e+00
  1.0980409e-01
 -5.9938505e-03
 -7.0513725e-02
  1.8034095e-01
  1.8329050e-01
 -3.0865019e-02
 -7.5872359e-03
 -3.7561920e-03
  3.2334495e-01
 -3.8103495e-02
 -1.7198139e-01
 -9.2634968e-03
  1.4434618e-01
 -2.4983871e-01
  5.6102525e-02
 -4.8921117e-01
 -2.4316947e-01
 -1.2431078e-01
 -1.0859048e-01
  2.9168962e-02
 -1.1769469e-01
  4.8212018e-02
 -2.9291400e-01
 -3.8580518e+00
 -3.0031767e-01
 -5.7501003e-02
 -7.7925339e-02
 -2.9255885e-01
 -4.4550070e-01
  8.1503846e-02
  1.1004183e-01
 -1.3507819e-01
 -2.7879691e-01
 -1.5916575e-01
 -9.9307977e-02
  5.6452546e-03
 -4.6065608e-01
  2.9667834e-02
  3.7859681e-01
  5.6285575e-02
  2.5339448e-01
 -1.4313427e-02
 -3.0307427e-01
 -1.3646440e-01
 -3.8092485e-01
  8.0316490e-01
  9.6936628e-02
 -1.6483141e-01
  1.8629529e-01
  6.6792384e-02
 -2.9135469e-01
  3.6814358e-02
 -4.9668756e-01
 -2.4446642e-02
  8.9373864e-02
 -4.2397879e-02
  2.6314959e-01
  5.1566556e-02
  5.9290621e-02
  2.4792952e-02
  5.6656224e-01
 -4.4063535e-02
  7.2497860e-02
  1.5260905e-03
  9.7748972e-02
 -7.4743573e-03
 -1.4683279e+00
  6.5947078e-02
  8.4548280e-02
  2.2633488e-01
  1.4433485e+00
  3.4317560e+00
  9.7796279e-01
  5.4004484e-01
  1.0281330e+00
  1.6661374e-01
 -2.0749197e+00
 -1.8062943e+00
 -2.0702158e-01
  4.0909192e-01
 -2.8928974e-01
  5.2939111e-01
 -2.5007126e-01
  8.8357902e-01
 -1.5746068e+00
 -1.7762507e+00
  7.6494843e-02
 -3.8461360e-01
  3.4199446e-01
 -3.7841566e-02
 -1.8017573e+00
  1.5215828e-01
  7.7866304e-01
 -1.8618929e+00
  5.7946470e-02
 -9.3373448e-02
  8.2521784e-01
 -2.4544181e-01
 -1.4748509e+00
  4.3549401e-01
  1.6762961e+00
 -1.4472662e+00
  2.3943210e+00
 -4.4648731e-01
 -3.9040527e-01
 -1.7774990e-01
 -2.3599437e-01
  8.6497778e-01
 -2.4192204e-01
  6.2398653e-02
  9.8918229e-02
  2.4201621e-01
 -5.0016642e-01
 -3.1940943e-01
 -6.4898890e-01
 -2.9955974e-01
  1.4388806e+00
 -2.7144501e-01
  5.9455216e-02
 -6.9587380e-02
  1.0184954e-01
  1.9842704e-01
  5.2722204e-01
  2.0586990e-01
 -1.1312959e+00
  1.1390799e-01
 -8.3122480e-01
  1.3718932e-03
 -2.9635116e-01
 -2.8684058e+00
 -6.3154675e-02
  1.1895125e-01
  1.2506626e+00
 -3.7034094e-02
 -9.9634007e-02
 -1.3966020e-02
  1.7528720e-01
 -8.4806561e-02
 -1.6503517e-01
 -1.3215393e-01
  1.8531334e-01
 -3.4841564e-01
  2.2469158e-01
 -1.1985764e-01
  6.5808244e-02
  6.9308206e-02
 -6.7604798e-01
 -6.2383924e-02
 -1.7410931e-01
  2.0095685e-01
 -4.7903222e-01
 -3.5807562e-01
  3.8950029e-01
 -1.7559390e-01
  7.9651140e-02
  1.5325618e-01
 -2.2752576e-01
 -1.8844138e-01
  4.2920125e-01
  8.2166635e-02
  1.0790542e-01
  1.4488816e-01
 -6.4803604e-03
 -8.3416305e-02
  1.5087043e-01
 -1.8328929e-01
  5.2816562e-02
  3.3699602e-02
  8.4991172e-02
 -4.1421071e-01
  3.4965903e-02
  2.3865114e-01
 -1.6703174e-01
  9.0819085e-01
 -1.3783351e-01
  1.4969476e-01
  5.7240061e-02
  9.1093462e-03
 -1.0955006e-01
 -3.6785302e-03
 -2.0937821e-01
 -1.9656224e+00
  2.1496768e+00
 -3.4539459e+00
 -3.3936796e-01
 -7.5666493e-01
 -5.3001814e+00
  1.5638883e+00
  2.0133510e+00
 -8.3579624e-01
 -6.3264489e-01
 -1.0094897e-01
  1.4762552e+00
  5.3060806e-01
  2.6914114e-01
  5.6730908e-01
  3.5408456e+00
 -5.3516817e-01
 -6.7486250e-01
 -4.4472301e-01
  4.0309596e+00
  5.5935067e-01
 -1.1173227e+00
 -2.2943701e-01
 -8.6362833e-01
 -1.6389639e+00
 -1.3068173e+00
  1.3784059e+00
 -5.7754512e-03
 -3.2790157e-01
  1.0268117e+00
  2.7301841e+00
  8.7033379e-01
  2.9994833e-01
 -8.6497441e-02
 -6.9772446e-01
  5.8699208e-01
 -1.7688375e-02
  2.3897214e-01
  1.4758766e+00
 -3.0835099e+00
  4.0738145e-01
 -2.3681478e-01
 -2.5122678e-01
  7.6654658e-02
 -2.3089366e-01
 -1.3364255e-01
 -9.7265393e-03
  1.9767809e+00
  1.0189029e+00
  1.6549926e-01
  6.7158115e-01
 -1.7664282e-01
 -1.8341410e-01
 -1.0079535e+00
  1.2912299e-01
  1.7591916e-01
 -5.5690694e-01
 -4.6122381e-01
 -1.4888831e+00
  1.5390718e+00
  1.9130086e+00
 -6.5486091e-01
  9.5769131e-01
 -1.2994359e+00
 -3.4493815e-02
 -1.0743693e+00
 -1.2391890e-01
 -3.7191081e-01
  3.3236516e-01
 -5.6518120e-01
 -1.8463150e-01
 -2.1679938e+00
  1.4830046e+00
  5.5599213e-01
  3.2538351e-01
 -1.1453838e+00
 -1.8389088e-01
 -5.4776639e-01
 -6.1537760e-01
  6.4176194e-02
 -5.4836911e-01
 -1.3384376e+00
 -4.3886009e-01
 -7.7824813e-01
  3.7876152e-02
 -3.0581218e-01
 -1.3163882e+00
 -3.4448248e-01
  6.1687082e-01
 -2.2607954e-01
  9.6478961e-02
  2.0779507e-01
 -4.9777827e-01
  5.7167572e-01
 -7.4603021e-02
 -6.8921924e-01
  5.6105959e-01
 -8.3650142e-02
 -2.6772201e-01
 -1.5809853e-01
 -1.6092627e-01
 -9.1649234e-02
  1.5618868e-01
  5.1996160e-01
  1.2253164e-01
  4.8809975e-02
 -4.4436488e-02
 -5.4905028e-03
 -6.0978293e-02
 -1.3156841e-03
  2.5142232e-01
  6.8478771e-02
  5.5293001e-02
 -1.3286589e+00
  3.4140420e-01
  1.7599803e-01
 -1.0532226e-01
  6.6370696e-02
 -1.1001915e-01
  5.0344294e-01
  3.4074872e-03
 -1.3683378e-02
 -1.8902730e-02
  8.2280487e-02
 -1.1050676e-02
 -4.0288877e-02
  2.9201984e-02
 -1.1598692e-02
  1.3079257e-01
 -6.9285475e-02
  7.1764313e-02
  2.6122624e-01
 -1.5364772e-01
  3.2014009e-02
 -1.4813660e-01
  1.3272780e-01
 -1.2018397e-01
 -1.1201944e-01
  1.0387135e-01
  3.8068981e-03
  7.2585464e-02
  1.4720863e-01
  9.7793251e-02
 -4.3283641e-02
 -2.3388930e-02
 -6.6914648e-02
  6.9099106e-02
 -2.9774943e-02
  3.4071237e-02
  4.4002824e-02
  5.9836842e-02
  1.7103428e-02
  5.4667052e-02
 -3.8300972e-03
 -1.0846548e-01
  1.5867634e-02
 -1.5794506e+00
  1.0561244e-01
  7.1664667e-03
 -1.0318053e-01
 -3.8252942e-02
  3.8271420e-02
 -7.3174633e-02
 -3.5418950e-02
  8.2308270e-02
  6.5468855e-02
  2.9997450e-01
 -5.4931669e-03
 -2.3643451e+00
  5.8821166e-01
  1.5912832e+00
 -6.8334514e-01
 -4.7240365e-01
 -6.0308033e-01
  1.3449460e+00
 -7.7221715e-01
 -8.2288617e-01
  4.0427851e-03
  3.8987431e-01
 -4.3867782e-01
 -7.8263420e-01
 -1.0300338e-01
 -2.2606868e-01
  8.0047935e-01
 -1.3511468e+00
  3.5511425e-01
 -1.3345210e-01
  4.6396080e-01
 -6.3199854e-01
  5.5814672e-01
 -3.5638124e-01
  7.8494537e-01
 -7.6993304e-01
  2.5634441e-01
  2.0252672e-01
 -1.1702771e-01
 -2.0842900e+00
 -1.9745202e-01
  9.0845299e-01
 -1.8884452e-01
 -4.6300617e-01
  2.4046639e-01
  1.4401132e-01
  5.5662018e-01
 -1.1076809e-01
 -1.1325590e-01
 -4.3470490e-01
  1.7854004e-01
  9.2622469e-04
 -2.4404349e-02
 -2.9532006e+00
  4.4973004e-01
 -5.2593505e-01
 -3.6645442e-02
  1.8062611e-01
 -1.0691874e+00
  9.2116550e-02
 -5.1808432e-02
 -1.0241888e-01
  3.2608753e-01
  8.3417006e-02
 -1.3960535e-02
  8.7453485e-02
  1.9950673e-02
  1.6237936e+00
 -1.4760271e+00
  8.4789890e-01
  9.0098935e-01
 -5.0403750e-01
 -7.2571027e-01
  4.2825478e-01
 -4.3263836e+00
 -1.2812991e+00
 -7.6088801e-02
  2.3017362e-01
  1.0279878e-01
 -5.1060319e-02
  4.9223062e-01
  4.7705851e-02
  2.3246315e+00
 -8.3963716e-01
  2.0102677e-01
 -1.3843687e-01
  5.2289790e-01
  4.7810376e-01
 -1.5848527e+00
  7.9246002e-01
  9.5670983e-02
 -1.1438153e+00
  3.5038373e-01
 -4.9395073e-02
 -4.4818452e-01
  1.3575736e+00
 -1.4993687e-01
 -8.4098673e-01
  3.6658418e+00
 -9.2595172e-01
  3.3444488e-01
  1.6857368e-01
  7.0017630e-01
 -6.2467802e-01
 -4.4872409e-01
  1.3445432e-01
 -6.8963581e-01
  3.5562462e-01
  6.7385733e-02
 -2.3694703e-01
  5.5022240e-01
  2.5454900e-01
  3.1803703e-01
 -1.9736743e-02
 -4.0119520e-01
  6.4665431e-01
 -1.2223089e-01
 -1.6515126e-02
 -4.9702558e-03
  8.7947957e-02
  4.6764508e-02
  4.7885995e-02
  1.8117967e-01
 -5.5734831e-01
 -3.8278663e-01
  1.0439321e+00
  8.6349899e-01
  7.8179979e-01
  5.8849078e-01
  2.0258732e-01
 -1.3342628e+00
  1.9678600e-01
  4.3812355e-01
 -5.1802963e-01
  1.3503197e+00
  2.7256164e-01
 -3.1319582e-01
  1.2908533e-01
  2.8230047e+00
  1.3486897e+00
 -2.3204397e-02
 -3.4337664e-01
  1.4923890e-01
  7.0992246e-02
 -1.1512338e+00
 -1.8181285e-01
  1.5865189e-01
  7.1244299e-01
  4.3196869e-01
  3.4501410e-01
  4.4902885e-01
  4.1963360e-01
 -1.1163094e+00
 -1.3948025e+00
  7.7456504e-01
  1.5431421e+00
 -4.3814227e-01
 -4.0359843e-01
  1.8701857e-01
 -5.9212428e-03
 -7.0092201e-01
 -4.4196978e-01
  1.3372238e+00
 -5.5675018e-01
  7.6905578e-02
 -9.4215967e-02
 -1.1318462e-01
  1.8991355e-02
  5.3189349e-01
 -1.1012840e-01
  3.7741392e+00
 -5.8859152e-01
 -4.2318415e-02
 -6.6046312e-02
 -9.8049819e-02
  9.5116675e-02
 -7.4542597e-02
 -4.3752596e-02
 -7.4021190e-01
  9.1378331e-02
 -5.7987833e-01
 -1.2776853e-01
  3.7034798e-01
 -1.0525982e+00
  2.4824059e+00
  1.9403128e-01
 -3.4889901e+00
 -7.7256203e-02
 -5.1582640e-01
  2.2299719e-01
  1.5719004e-01
 -4.5551759e-01
  6.0681784e-01
 -5.7318389e-01
  4.8855385e-01
 -2.1453288e-01
 -6.6662008e-01
  1.8568093e-01
  7.1364629e-01
 -1.5884893e-01
 -2.9429910e-01
 -1.3784630e+00
 -2.9459015e-01
  6.4724994e-01
  1.6039456e-01
  9.6004581e-01
 -3.6970866e-01
 -4.4995922e-01
  4.2668197e-01
  1.3401183e-02
 -2.4892269e-01
  1.1995676e+00
 -5.6381720e-01
 -3.0584607e-01
 -6.8880928e-01
  4.7696471e-01
 -9.2886794e-01
  1.1014260e+00
  7.6447403e-01
  1.8878731e-01
  1.9863522e-02
 -2.3607542e-01
  3.3778924e-01
 -5.2059691e-02
  1.6803889e-02
 -5.9823678e-03
 -5.6554377e-01
  1.1695671e-01
 -1.0903654e-01
 -2.0882376e-02
  5.6361962e-02
 -4.7770448e-02
 -5.8437739e-03
 -1.5281458e-01
 -5.0650690e-02
  6.2756509e-01
 -2.1661773e+00
  2.5616853e+00
 -3.7233263e-01
 -2.3235586e+00
 -7.0973790e-01
  8.8781154e-01
  3.8480268e+00
 -1.5316783e-01
  3.1927159e-01
  3.4377304e-01
 -3.8200956e-02
  2.1076915e-01
  2.6144588e-01
  2.2762360e-01
  1.0232285e+00
  2.5889114e-01
  1.7905810e-01
  1.8737788e-01
  2.0000657e-01
  1.1293823e-01
  2.0023736e-01
  3.6756909e-01
  5.5635355e-02
  5.2241206e-01
  7.1005189e-01
  9.3530405e-01
  2.3249294e-01
  1.0784892e+00
  6.1259282e-01
  3.3932403e-01
  1.8561344e-01
  3.0155322e-01
  1.5846029e-01
 -1.5363513e-02
  2.6706651e-01
  3.0933547e-01
 -1.5343213e-01
  1.8307906e-01
 -5.9475292e-02
 -2.0771421e-02
  1.2828487e+00
  7.7935182e-02
  8.2416266e-02
  1.5017436e-01
 -8.8337317e-02
 -6.8399660e-02
  1.3688134e-01
  4.1445412e-02
  3.2783933e-02
 -7.9363652e-02
  1.0728282e-01
 -5.6040239e-02
  6.7722894e-02
 -6.2880002e-02
 -3.7143689e-02
  4.6515957e-02
 -2.6072623e-02
  5.8650516e-02
 -2.5826967e-01
  3.1090555e-01
  2.5782365e-01
  2.1872075e-01
  1.0326257e-01
  3.3523691e-01
 -1.8113782e-01
  1.3554528e+00
 -3.1948823e-01
  4.4662016e-03
 -1.6504674e-01
 -1.5353435e-01
 -4.3541741e-02
  5.9521306e-01
 -1.1656050e-01
 -1.8477488e-01
 -1.0013473e-01
  1.8137689e-01
  1.4422983e-01
 -2.6713808e-03
  1.7672724e-01
  2.9242679e-01
 -1.3422684e-02
 -1.7343006e+00
 -6.3821875e-02
 -8.6636245e-01
 -5.3001527e-02
 -1.6795048e-01
 -2.5258522e+00
 -1.5816557e-01
 -4.2390734e-02
  2.9988447e-03
 -2.1440594e+00
 -1.2926370e-01
  2.7557597e-02
 -3.4011292e-01
 -1.7903188e-01
  3.5687768e-01
 -1.6141163e-02
 -1.9007163e-01
  3.6214329e-02
 -2.3843658e+00
  4.6198163e-02
 -5.7314735e-02
  6.4513169e-02
  8.4065579e-02
  2.5886094e-02
  1.5317224e-01
 -4.7772605e-02
  4.7942597e-02
  2.2335282e-02
  1.0681631e-01
  1.0807102e-01
  1.4148585e+00
 -2.2867377e+00
  2.9383194e+00
 -2.3101172e-01
 -3.9202642e-01
  5.9197944e-01
  1.0998271e+00
 -2.3350024e+00
 -1.9159311e-01
 -3.6278939e-01
  1.9904347e-01
 -2.1718428e-01
  1.7816445e-01
 -3.0649692e-01
  1.0372229e-01
 -1.9285168e-01
  8.6591162e-02
  1.8169245e-01
 -3.1794196e-01
  2.5764516e-01
  4.0974331e-01
 -6.8176728e-01
  2.5271198e-01
 -1.6260837e-01
 -7.0980483e-01
 -1.8866287e-01
 -1.8134153e-01
  3.7683395e-01
  5.4759675e-01
 -4.9975541e-01
 -1.2196555e-01
 -1.3127883e-01
  3.0394828e-01
 -1.3456030e-01
 -1.3306300e-01
  6.2466669e-01
  7.6830536e-02
  5.0058872e-01
  2.0367356e-01
 -6.9853681e-01
  3.4582117e-01
 -2.3070997e-02
  1.6969950e-01
 -2.0567703e-01
 -2.8062331e-02
 -1.0316891e-01
 -1.6535638e-01
  4.8313600e-01
 -5.4312509e-02
  5.5540394e-02
 -3.0477121e-03
  3.8447533e-02
 -1.9951822e-01
 -5.9484240e-02
  5.9326295e-02
 -1.1168476e-01
  2.0854259e-02
  4.1861460e-02
 -6.5147839e-02
 -7.7121586e-02
  2.4702087e-02
 -6.6261098e-02
  2.7120363e-02
  8.8210203e-02
 -3.9994366e-02
  2.7979860e-02
  2.2474861e-01
  9.5953427e-02
 -8.6107023e-02
  4.6118021e-02
 -1.9594248e-02
  4.2646419e-02
  7.7148445e-02
 -9.3398862e-02
 -1.1901468e-01
  2.5238458e-02
 -1.7612210e-02
  6.9687605e-02
 -7.5220548e-02
  1.2050561e-01
  1.4630689e-01
 -1.7740069e-03
 -1.2654741e-01
 -5.2060679e-02
  1.3311020e-02
  6.8790182e-02
 -8.1250185e-01
 -3.4968026e-02
 -9.4677368e-03
 -1.5942416e-01
  2.6992154e-01
  1.2683816e-01
 -3.8267905e-03
  1.1837483e-01
 -6.1927840e-02
  8.1870239e-03
  9.7739004e-02
  6.7867555e-02
  1.6221873e-01
 -6.2954137e-03
  7.3202677e-02
 -2.2430707e-02
 -2.2106351e-01
 -7.3424622e-02
  4.9084094e-03
  1.1871993e-01
  1.9463769e-01
  6.6859595e-02
  8.3707884e-02
  8.9204773e-02
  2.3121290e-02
  6.7165578e-03
 -2.4823168e-01
  1.6955976e-01
 -1.5261147e+00
 -9.7776073e-01
  3.8721688e+00
  1.7367617e+00
  8.7947631e-01
  1.2323201e+00
 -5.3197914e-01
 -4.4699603e-01
  4.8382938e-01
  3.5258508e-01
  1.1684246e+00
  9.0094507e-02
  1.1350440e-01
 -1.3727152e+00
 -2.3310416e+00
 -7.9772210e-01
 -7.8613453e-02
 -1.0087993e+00
  1.1469619e+00
  3.1197202e-01
  5.0800455e-01
  1.2166138e-01
  5.4165286e-01
 -2.1230066e-01
  4.1862345e-01
 -5.9682321e-02
  9.5826370e-01
  4.0262979e-01
  2.0029609e-01
 -1.3559836e-01
  7.8201264e-01
 -6.3096499e-01
  3.0528939e-01
 -3.2069030e-01
 -8.4582579e-01
  2.0486994e-01
 -1.7826869e-01
 -3.7443027e-01
  4.4499871e-01
 -1.6511241e-01
 -7.0709795e-02
 -3.3719280e-01
  2.5149142e-02
 -1.2844256e-01
 -5.0683346e-02
  9.4111836e-01
  5.1668578e-01
  1.1237311e-01
  6.8911776e-02
  7.1305744e-02
 -3.4728311e-02
 -1.0818926e-01
 -7.7832839e-03
  2.6308984e-01
 -4.8459865e-02
 -1.8542270e-01
  1.0952470e-01
 -1.2755565e-01
 -9.6876025e-03
 -4.4086829e-02
  2.9516825e-02
 -3.9202191e-02
 -1.6790668e-02
  9.4071135e-02
 -1.4105371e-01
  5.7287656e-02
 -3.7623680e-01
  1.8974733e-02
 -8.1490815e-01
 -9.6903816e-02
 -1.2006042e-01
  5.6658991e-02
 -9.3541201e-04
  1.4029025e-01
 -2.6271099e-02
 -2.4040449e-02
  7.5682573e-02
 -1.6738313e-01
 -1.0397829e-02
  5.7676423e-02
 -1.1014764e-02
  1.1000467e-02
  4.6974146e-03
 -7.9596296e-02
 -7.8571454e-02
 -9.5541269e-01
  5.3150337e-02
 -4.2356507e-05
  4.5420923e-03
  1.1691829e-01
 -5.7741676e-02
  9.1805728e-03
  2.9859774e-02
  3.8181219e-02
 -5.4223746e-02
  1.5770320e-02
  6.9042644e-03
  1.5500300e-01
 -3.5928382e-04
 -1.2374033e-02
  9.9036746e-02
  4.6526995e-02
 -9.9076405e-02
 -5.5361673e-02
 -2.3810387e-02
 -1.8275926e-01
  3.0352782e-02
  1.5527997e-02
  2.2486726e-02
  1.7759553e+00
  1.8755971e-02
  9.4252720e-02
 -1.7695706e-02
  3.2016698e-02
  9.6886471e-02
 -9.9392481e-02
  6.4389467e-02
 -2.8879173e-02
 -6.0017142e-02
  4.0840098e-01
 -1.2578052e-01
 -2.7826100e-03
  7.0072040e-02
 -1.3796385e-01
  1.6479872e+00
 -9.5207142e-03
 -1.1771468e-01
  2.7648333e-02
  2.0503058e-01
 -3.6090393e-02
  1.0809717e-01
  1.8276282e-02
  4.5162093e-02
  2.6531866e-02
  2.1280579e-02
 -6.1999746e-02
 -2.0334531e-01
 -1.5731450e-02
  1.3606796e-01
 -4.8452038e-02
 -1.1655777e-03
  3.8947817e-02
 -4.7438726e-02
  1.3368481e-02
  9.6489228e-02
  1.1641371e-01
  6.5435469e-02
  7.8835987e-02
 -7.0685059e-02
 -1.0515448e-01
  5.1869057e-02
 -1.5040659e-03
  9.6287578e-02
 -9.7329684e-02
 -2.3598409e-01
 -1.9564476e-02
  2.9261528e-02
  7.0281172e-01
  2.3969620e-02
 -1.0147289e-01
 -8.6571418e-02
 -6.4476497e-02
  6.4714514e-03
 -2.0242058e-02
  3.8592532e-02
 -1.1770628e-01
 -5.4139864e-01
  7.7594459e-01
 -2.8137603e-01
  1.2494525e+00
 -2.6706979e+00
  1.0791588e+00
 -4.4272281e-02
 -6.1179247e+00
 -5.1525079e-02
 -4.3426019e-01
 -6.4290410e-01
  1.7048427e-01
 -2.0967531e-01
 -4.3089318e-01
 -9.6666133e-01
  3.9202443e-01
  8.0655849e-01
 -4.8427355e-01
 -5.3891405e-03
 -1.2244521e-01
  3.0886659e-01
  4.0918294e-02
 -5.1428262e-02
 -1.1126317e-01
 -6.4556509e-01
 -5.6967467e-01
  5.3581262e-01
  2.4234800e-01
  9.1289783e-01
 -2.3249727e-01
  6.6619951e-01
  3.0449268e-01
  6.1483043e-01
 -4.1971505e-01
 -1.8101400e-01
  9.2313677e-02
  7.5163054e-01
  1.8149059e-01
  6.6909534e-01
  5.6319135e-01
 -8.2747869e-02
  5.0100431e-02
 -5.4972315e-01
 -2.5942352e-01
 -3.3531554e-02
 -4.5827605e-02
  9.2459813e-02
 -3.4846079e-01
  1.9559525e-01
 -4.8917316e-02
 -4.4998378e-02
  1.7256875e-01
  6.0418945e-02
 -1.1903202e-01
 -1.0670409e-01
  1.2447862e-01
 -6.0509300e-01
 -7.3019075e-01
 -1.4296396e-01
 -2.5502577e-01
 -2.6098469e-01
  2.4279340e-01
 -2.7259365e-01
 -2.4577546e+00
 -1.0545508e-02
 -5.8271490e-02
 -1.2150197e-01
  1.8163981e-01
  1.6462892e-01
 -1.0300028e-01
  7.8623265e-02
 -2.4268812e-01
 -4.4288373e-01
 -8.5713984e-03
 -4.0098779e-02
  1.4739725e-01
 -1.3627811e-01
 -1.8372816e-01
 -2.9625750e-01
  2.8972186e-02
 -2.9696605e-01
  1.1319567e-01
  1.2323962e-01
 -8.4048015e-01
 -3.9479695e-02
  6.7038544e-02
 -1.4139968e+00
 -2.5285019e-02
 -1.0677678e-01
 -3.6188304e-02
  5.6844462e-02
 -2.4327405e-01
  9.9849999e-02
 -4.7045037e-02
  2.7685389e-02
  2.4859610e-01
 -3.9535113e-02
  1.7786911e-01
 -8.9610524e-02
  3.0209625e-01
 -2.6179042e-03
  6.3459985e-02
  8.3466113e-02
 -6.5343946e-02
 -1.0145990e-01
  1.2557118e-02
 -4.6235248e-02
  1.7593076e-02
 -8.0250934e-02
  9.9437393e-02
 -5.7574827e-03
 -4.3733366e-02
  7.6692581e-02
  1.8606789e-02
  7.7688493e-02
 -1.4981625e-03
 -5.4760918e-02
  7.1642406e-02
  1.2040206e-01
 -7.4210837e-02
  2.1818910e-02
  5.2615039e-02
  5.4439396e-01
 -1.5813908e-02
 -1.8301237e-02
  4.9824989e-03
 -3.9448187e-02
  9.2766583e-02
  1.1348259e-01
  7.6910414e-02
  2.0717978e-01
  8.7521985e-02
 -7.8015365e-02
  3.2148536e-02
  3.7418991e-02
  6.4719595e-02
  5.6621015e-02
  3.6686353e-02
  5.1915157e-03
  1.0176133e-01
 -8.6305179e-02
  1.3828509e-01
 -5.5725321e-02
 -1.7519894e-01
 -9.1818431e-03
 -1.8881347e-02
 -1.2966952e-01
 -8.9555643e-02
 -6.5345041e-02
 -8.8666305e-03
 -6.8093985e-02
  1.0616565e-01
  5.2312002e-02
  1.3270235e-01
  8.1214622e-02
 -5.8871847e-02
  8.2943626e-02
 -7.6973550e-02
 -1.5797693e-02
  8.8544086e-02
  1.6098405e-01
 -9.7175330e-02
 -4.4415894e-01
  1.1842072e-01
  1.7311750e-02
  3.0652289e-03
  2.1178177e-02
  3.7728757e-02
  3.6549199e+00
  3.7757492e-01
  7.9106885e-01
 -2.9153752e-01
 -9.3235928e-01
  8.4091604e-02
 -1.1952357e-01
 -8.5819584e-01
 -6.8825968e-03
 -2.8136706e-01
 -4.0689507e-01
 -1.6955674e-02
 -6.9729965e-03
  4.4253852e-02
 -1.4579928e-01
  6.4349538e-01
  1.0336803e+00
  5.9282802e-02
 -2.3449901e-01
  1.5692230e-01
  2.1845445e-01
 -4.0098929e-01
  7.2938278e-02
  5.8044982e-01
  1.4135315e+00
  1.5814345e-01
 -6.0339850e-01
 -9.4314337e-02
  3.8145751e-02
  3.8840622e-01
 -6.0417105e-02
  8.4444213e-01
 -8.5724890e-02
  3.8256228e-01
 -3.4017527e-01
  3.2002991e-01
 -1.9353713e-01
 -1.6847330e-01
 -1.2204176e-02
  6.8138856e-01
  2.3058672e-01
  9.8403066e-02
  4.0170792e-02
 -2.2641696e-01
  6.5569595e-02
  7.0323646e-02
 -1.8699091e-02
  6.8604624e-01
 -4.3870082e-01
 -5.2145950e-02
  1.5678592e-02
  5.6968872e-02
 -1.2210583e-02
  1.0674910e-01
 -7.7204555e-02
 -3.5188502e-01
  1.3978414e-01
  7.1023428e-01
  4.5116714e-01
 -8.6781245e-01
  8.7978417e-01
 -4.3334851e-01
 -5.7457078e-02
 -2.0381989e+00
  7.5892943e-01
 -2.3269184e-01
 -2.3862475e-01
  1.2183581e-01
 -4.4331118e-01
  5.8763129e-01
 -8.0364579e-01
  1.0883428e+00
  3.7359151e-01
  8.0787733e-02
  2.7987602e-01
 -4.2215094e-01
 -1.6883947e-01
  4.8434812e-01
 -2.2831967e-01
  2.7715197e-02
  5.2781045e-01
  6.1447918e-01
  4.6400520e-01
 -1.3477334e-01
 -7.0016696e-03
 -6.5770662e-01
  2.0724697e+00
  1.3059455e+00
  1.0716918e+00
 -7.8829646e-01
 -1.4607236e-01
  2.8934368e-01
 -2.8573000e-03
  2.8705508e-02
 -5.2455053e-02
  7.2173864e-01
  1.0767285e-01
 -1.6418587e-01
  3.7723395e-01
 -3.4740496e-01
  1.7209619e-02
 -3.2888103e-02
 -1.7083079e-01
  1.7987933e+00
 -5.4320526e-01
 -6.4588822e-02
 -1.1970293e-01
 -3.1355002e-03
  7.3241636e-02
  1.5870398e-01
  6.3393898e-02
 -9.2758453e-01
  4.2718339e-01
 -1.5604327e+00
  4.7994814e+00
 -1.8041109e+00
 -1.1478729e-01
  1.1791135e+00
 -4.8399605e-02
 -2.3796573e+00
 -2.1237449e-01
 -4.8854512e-01
 -7.4194336e-01
 -1.4033284e+00
  2.2402205e-01
 -5.4049301e-01
  3.0025771e-01
  1.0175699e+00
 -4.0493622e-01
  1.8615381e-01
 -8.7776110e-02
 -1.8629720e+00
  7.9318857e-01
 -8.1094468e-01
  1.0994500e+00
  1.1879147e-01
  1.8549410e-01
 -1.0681520e+00
 -8.5672414e-01
 -1.2510282e+00
 -3.9321551e-01
 -1.1040751e+00
  2.0170932e+00
  5.0319403e-01
 -6.0284638e-01
  1.3025160e+00
 -3.7549600e-01
 -6.4881951e-01
 -7.7757582e-02
 -4.4001067e-01
  3.4869283e-01
  1.5717258e-01
 -2.5619355e-01
 -1.9238766e-02
  2.4043046e-01
 -8.7281466e-01
 -7.4498444e-03
 -3.6250049e-01
  5.6218516e-02
 -4.3553066e-01
  6.6224704e-03
 -2.2366660e-02
 -3.4901798e-02
  1.4921634e-01
  5.4764871e-02
  2.7344278e-01
 -2.0317910e-02
  2.0588408e-01
  6.8542428e-02
  2.1109846e+00
  3.4024596e+00
 -2.4407690e+00
  1.7340577e+00
 -1.6369208e+00
 -2.6561348e+00
 -3.6530719e+00
 -4.7045353e-01
  3.4645331e-01
 -1.1027406e+00
  9.0835220e-01
 -3.0914605e+00
 -9.2833006e-01
  2.8852248e-01
  9.7822452e-01
 -2.9464978e-01
  3.0206633e-01
  1.8715008e-01
  2.0886953e-01
 -7.4746829e-01
 -1.3874582e+00
  3.7294728e-01
  2.0826285e+00
 -4.8713408e-02
  3.6341912e-01
 -8.1616676e-01
  1.0744888e-02
 -1.2600009e+00
 -1.8578036e+00
  5.0071156e-01
 -1.8697112e+00
  1.1132828e+00
  5.4910177e-01
  9.1569650e-01
  7.7764265e-02
 -1.1000573e-01
  1.1485868e-02
  4.2557120e-01
  4.6426097e-01
  1.8766512e-01
 -1.9374283e-02
  2.7527404e-01
 -1.4623444e-01
 -3.3121806e-02
  2.4136043e-01
  1.5554923e-01
 -1.1757758e-01
 -6.6851228e-01
  6.3729241e-02
  1.1609544e-01
 -1.9399644e-01
 -3.5411584e+00
 -1.0481756e-01
 -2.1649592e+00
 -2.4195082e-01
 -3.2917425e-01
  4.3741670e-01
 -8.8553697e-01
  2.8111155e+00
 -1.9819019e+00
  1.5950540e+00
 -6.6084242e-01
 -3.7359169e+00
  3.7051463e-01
 -2.7795175e-01
  5.0541844e-02
 -7.4292518e-02
 -3.4912002e-01
 -2.6181281e-01
 -7.3766440e-01
  1.5699540e-01
  1.1679661e-01
 -5.6346428e-01
  7.0086443e-03
  5.1468688e-01
  3.2766748e-02
 -1.6480508e-01
 -3.8590828e-01
  4.1727912e-01
 -2.0593053e-01
  2.3168297e-01
  6.7131799e-01
 -5.2918798e-01
  1.7816564e-01
  5.2129431e-03
 -6.0712982e-02
  1.7086935e-01
  7.2768784e-01
 -3.5461497e-01
 -9.1026509e-03
 -5.5053586e-01
  3.8096604e-01
 -2.2067162e-01
 -1.2029748e-01
  5.3397912e-01
 -1.0025854e-03
  5.0902590e-02
 -1.6237260e-01
  1.9230777e-02
  8.2356237e-02
 -1.0636599e-01
  3.3335399e-02
 -3.7428442e-01
  1.2437703e-01
  4.3847639e-02
  6.8037421e-02
  4.8870001e-02
  5.9051756e-02
 -1.6581787e-01
  6.0809815e-01
  4.2339969e-02
  1.2228217e+00
  1.7833260e-01
  6.4248478e-01
  2.1686162e-01
 -3.1729823e-01
 -1.0031250e+00
  9.0116996e-01
  6.1398464e-01
  2.5354743e-01
  2.8945258e-01
  1.2012082e-01
  1.0605883e-02
 -1.1583034e-01
  1.1523577e-01
  4.9247670e-01
  2.5883463e-01
 -3.6451364e-01
  1.0078330e-01
 -5.1454015e-02
 -9.6719533e-02
 -2.5871444e-01
  7.2341144e-02
 -4.9274477e-01
  3.4669155e-01
 -4.7823712e-02
  3.2091299e-01
  1.9541125e-01
  8.6359590e-02
  1.2509196e-01
  2.7343091e-01
  1.0153995e-01
  3.0725312e-01
  1.3527097e-01
 -6.4453021e-02
  5.9355553e-02
 -2.7814018e-02
  3.5769993e-01
  1.0024167e-01
  2.7338669e-02
  1.3404226e-01
 -6.0545217e-04
  7.0557974e-02
  6.5274656e-02
  1.3205320e-01
 -8.4318323e-03
 -8.5778989e-02
  1.7556429e-02
  1.0092271e-03
  1.7836536e-01
  4.5974627e-02
 -2.7959845e-03
 -1.2878259e-01
 -5.9431414e-03
  7.2795801e-02
 -9.2422426e-02
 -1.1797889e-01
 -1.8372166e-01
  7.4590605e-01
  2.5671749e+00
 -9.3837731e-02
 -1.1180454e-01
 -1.4860831e-02
 -6.1569995e-01
 -7.3988396e-01
  4.0258446e-01
 -2.5666991e-01
  3.3956539e-02
  7.6451308e-01
  2.8325695e-01
 -3.1037232e-01
 -4.1338410e-02
 -1.6972654e-01
  7.0105028e-01
 -2.9448968e-01
 -6.3963801e-02
  4.6493629e-01
 -1.4898330e-01
 -1.3271791e+00
  3.8318779e-02
 -1.1794107e+00
  3.9621744e-01
 -6.7547083e-01
 -6.9803762e-01
  3.4290797e-01
 -2.9437760e-01
 -9.8837024e-01
 -3.2252967e-02
 -5.5485654e-01
 -4.5318219e-01
 -4.7687283e-01
  5.8730382e-01
  4.9076518e-01
 -1.3242440e-01
 -5.0791204e-01
 -4.1621238e-01
 -2.4862993e-01
  1.2905642e-01
  5.5885315e-02
  3.8996946e-02
 -1.6584734e-02
  1.3312155e-01
  3.1452585e-02
  5.9109796e-02
 -4.4137332e-01
  1.7830768e-01
  1.2072375e-01
 -1.2066924e-01
  6.0580377e-02
 -5.3011854e-03
 -1.1605978e-01
 -4.1248193e-03
 -3.5677418e-01
 -1.1999294e+00
 -5.5100727e-01
  3.2803550e-01
  3.8565651e-01
 -8.9700162e-02
 -7.7326685e-02
  1.5803509e+00
  9.0120316e-01
 -1.8552939e+00
  2.2313011e-01
  4.3799892e-01
  4.4824454e-01
 -7.1652311e-01
 -7.0163459e-01
 -9.2408293e-01
  3.2028873e+00
 -1.8436550e+00
 -4.8836282e-01
  3.9472562e-01
 -2.8184232e-01
 -1.0058861e-01
 -4.6785045e-01
 -3.9958242e-01
  1.9991430e+00
  1.8706255e-02
 -5.1007789e-01
  3.6716652e-01
 -6.4938188e-02
 -8.0278361e-01
 -3.2849225e-01
 -8.7218511e-01
  1.3965553e+00
 -1.2506709e+00
  8.1742316e-02
  5.7373738e-01
  4.7496399e-01
  3.2498446e-01
 -6.5904009e-01
 -5.9404463e-01
  1.4809936e+00
  5.3286374e-01
  1.2777416e-01
 -1.5647286e-01
  8.9366116e-02
  2.4710207e-01
  4.1078505e-01
  1.6502337e-01
 -3.1280663e-02
  1.5698007e-01
 -5.2997204e-03
 -1.4299463e-01
  5.2570280e-02
 -1.0842304e-02
 -4.3403399e-01
  4.0346900e-01
 -7.8726120e-02
 -2.8404531e+00
 -2.5700694e-01
 -2.3078146e+00
  1.9876899e-03
  1.7315987e+00
 -7.7267796e-01
  6.3481623e-01
  1.4811059e+00
  9.3763429e-01
  4.2307639e-01
  4.4313207e-01
  2.2448526e-01
  4.5803934e-01
  2.3757386e+00
  4.7763485e-01
 -1.6975455e+00
  7.6298797e-01
 -1.0204239e-01
 -5.4585725e-01
 -5.5422562e-01
 -6.2985367e-01
  6.0415989e-01
 -6.5375137e-01
 -1.1518545e+00
  8.8659263e-01
  3.7776408e-01
 -1.7641968e-01
  8.2944058e-02
  2.9547450e-01
  1.9060484e-01
 -9.4010532e-01
  3.4271276e+00
  3.0008158e-01
  1.1105022e+00
 -3.3594660e-02
  2.1234363e-01
  6.3969719e-01
  2.8335631e-01
 -5.7493067e-01
 -2.1125883e-01
 -2.5400805e-01
 -9.2596635e-02
 -3.5993358e-01
  8.1511354e-01
 -5.1048234e-02
  6.2033206e-01
  3.3814666e-01
 -5.3097356e-02
 -6.6241257e-02
  1.2629481e-01
  1.7781961e-01
 -4.6789583e-02
 -2.0043592e-01
 -6.6524826e-02
  8.7867696e-03
 -4.3358740e-01
 -8.3385840e-02
 -3.6863843e-01
  1.7224680e-01
  8.1482881e-01
 -3.3994421e-01
 -1.2666169e-01
  2.5291690e-01
 -3.8114247e-01
  3.9234531e-01
  7.6875605e-02
 -9.6978739e-02
  1.5957019e-01
  1.2163905e-01
  3.3959839e-01
  1.0902659e-01
  8.3451346e-02
  1.8411410e-01
 -1.5790182e-01
  2.9242011e-02
  3.5722581e-01
 -1.2286014e-01
  2.1139421e-01
 -9.7077489e-02
 -4.8882416e-01
 -1.7135029e-01
 -1.0700576e-02
 -1.3630533e-02
 -6.9253042e-02
  2.0879234e-01
  1.5616144e-01
  2.6601562e-01
  7.1786618e-04
 -1.0032202e+00
  5.5683469e-03
  1.5875317e-01
 -1.5173851e-01
  1.0476401e-01
  7.1802765e-02
  2.9500926e-01
  1.1894311e-01
 -4.3643914e-02
  5.4975294e-02
 -4.8652748e-03
  1.5736321e-02
  8.9705601e-02
 -1.4441828e-01
  5.5880383e-02
  8.5045531e-02
 -4.4786830e-02
 -1.2299468e-02
  1.6274257e-02
  1.5798286e-01
  4.4353683e-02
  1.4399172e-01
 -1.1926240e-01
  1.8421896e-02
  4.2983744e-01
 -2.3616300e+00
 -3.0098522e-01
 -1.0802569e+00
 -2.8887370e+00
  7.8438163e-01
 -1.5415974e+00
 -1.0456774e+00
  1.5827389e-01
 -9.0867501e-01
 -5.7744633e-02
  9.1494274e-01
 -1.0141926e-01
 -1.0589678e+00
  6.7259413e-01
  2.3077018e+00
 -5.5837184e-01
 -3.7794214e-01
  4.2335698e-01
  9.4064397e-01
  1.0906746e-01
 -8.0185097e-01
  9.0624464e-01
  1.1328285e+00
 -5.9585869e-01
 -2.2850001e-01
  2.1270639e-01
  1.1089581e+00
 -5.6122434e-01
 -1.4662703e+00
 -1.5002075e-01
  1.4397135e+00
  1.4048408e-02
 -8.8706702e-02
  1.2404257e+00
  7.7655768e-01
  6.1534208e-01
 -8.4139872e-01
 -2.5233870e+00
  2.8997588e+00
 -2.6258034e-01
  1.8770798e-01
 -1.0131516e-01
 -4.8673479e-03
  3.2446584e-01
  4.9964562e-02
  4.3560178e-03
  1.0202420e+00
  4.0972140e-01
 -2.3294022e-02
 -1.2718178e-01
  5.3347969e-01
  1.9874865e-01
  2.1893673e-01
  1.2079553e-01
 -7.1507770e-01
  1.0232112e-01
 -1.2970354e-01
  7.8813508e-02
 -2.7439868e-01
  1.1527957e-01
  5.5610243e-02
 -6.3325517e-02
  3.1566963e-01
  6.7056470e-02
  5.3440668e-02
 -8.6110793e-02
  1.3852328e-01
 -2.0041944e-02
 -5.6947403e-02
 -7.4235559e-02
 -1.9208579e-03
  1.0616095e-01
 -1.5113848e-02
 -1.0670621e-01
  7.8811988e-02
 -3.1877422e-01
 -4.4784490e-02
 -5.4490663e-02
 -3.3584535e-02
  7.8145260e-01
  6.5225311e-02
 -1.3721381e-02
  2.8774165e-02
  8.9210808e-02
 -4.6705924e-02
  1.2083429e-01
 -1.3652392e-01
  3.7512368e-01
 -9.0972900e-02
 -4.8455272e-02
 -9.0416260e-02
 -2.9508010e-02
  7.8068212e-02
 -8.3174385e-02
  8.6690016e-02
  7.5432670e-01
 -1.1067154e-01
  1.0013015e-01
 -3.3856671e-02
 -8.4869981e-02
 -1.1042276e-02
 -6.4923731e-03
 -1.2804656e-01
  5.2695986e-02
  2.7557703e-02
  2.3620954e-02
  4.4417754e-02
 -2.6061034e-03
 -3.5351999e-02
 -2.6213309e-01
 -9.3418986e-02
  1.4862132e+00
 -3.3697646e+00
 -1.1875193e+00
 -1.3130809e+00
  2.5877094e+00
  2.8298633e+00
  6.3698894e-01
  7.9429999e-02
  1.4372325e+00
  1.5098087e-01
  2.5252905e-01
  5.6721455e-01
  5.3097928e-01
 -7.0461994e-01
  8.4091055e-01
  1.6404343e+00
  1.3032256e+00
  2.1313207e+00
  7.4774188e-01
  8.9489296e-03
  1.7742111e-01
  1.0191555e+00
  1.8684442e+00
 -1.1842549e+00
  1.2025588e+00
  6.0980541e-01
  2.7958620e-01
 -1.6869776e+00
 -8.0763632e-01
  3.2813764e-01
  8.5542500e-01
 -5.3252745e-01
  6.9813997e-01
  2.8902021e-01
 -3.3681065e-02
 -8.9657056e-01
  1.6219410e-01
  2.0367679e-01
  1.9441987e+00
 -8.2842350e-01
 -9.9906617e-01
 -2.9291783e-02
  4.9565481e-03
  7.6575682e-02
 -3.0066970e-01
 -1.3629897e-02
 -1.5449024e-02
  1.3980908e+00
 -2.5989813e-01
  4.8575446e-02
  8.8625431e-02
  1.6154461e-02
  1.5981680e-01
  1.5390840e-02
  1.2044752e-01
 -1.0484464e-01
  1.1097379e+00
  6.4878933e-02
  7.6734304e-01
  2.4454288e-02
  1.4851327e-01
 -1.7487165e-01
  5.0311074e-02
 -5.1560807e-01
  2.1873477e-01
 -1.7853700e-01
 -4.0767591e-02
 -2.0248981e+00
  9.2337430e-02
  1.4997881e-02
 -2.5508091e-02
 -3.8414299e-01
  6.8499625e-02
  1.0551213e-01
  3.3646709e-01
 -1.4635611e-02
  8.3823502e-03
  2.2970714e-01
  6.3440704e-01
 -1.7161033e-01
  4.4476014e-01
 -9.4891712e-02
 -1.0632607e-01
  2.9396486e-02
 -2.8100967e-01
  7.0306033e-02
  6.1828472e-02
 -7.9277158e-03
 -4.9514245e-02
  2.6158014e-02
  6.4889141e-03
 -3.5842832e-02
 -2.6040113e-01
  9.8939992e-02
  1.0804065e-01
 -2.2846919e-01
 -2.4251887e-01
  9.6987054e-02
 -1.1320680e-01
  5.4577265e-02
  4.0054992e-02
  7.2218359e-02
  1.1869280e-01
  3.2504401e-01
  3.0448042e-02
  2.0642030e-01
  4.4053487e-02
  7.7686827e-03
  4.1579645e-02
 -6.9284961e-02
 -5.5181246e-02
  7.2126329e-02
  4.4807918e-02
 -5.9542960e-01
 -1.3153070e-01
 -5.5055384e-02
  4.2508182e-01
 -1.6166088e-01
  5.1471049e-01
 -3.5904464e-01
 -2.5253005e-02
  3.3333756e-02
 -1.0154323e-01
 -1.4528835e-01
 -4.2943027e-02
  1.1002871e-01
 -9.0939082e-02
 -2.1407449e-01
 -4.0959454e-01
  3.5052363e-02
  3.9295357e-01
  1.0100728e-01
  8.1082791e-02
  6.3842781e-02
  1.9427176e-01
 -4.5967838e-01
  2.2820957e-01
 -1.3549761e-01
  2.2754291e-02
 -4.3443117e-02
 -3.2181401e-02
  2.4261583e-02
  3.5029124e-02
  6.2851483e-01
  6.0821291e-02
 -1.6317064e-02
 -6.9344074e-01
  8.9599796e-02
  3.4357395e-02
  1.1331020e-01
  2.8397608e-01
 -3.7032527e-01
  3.6206264e-02
 -6.7171544e-02
  6.2954679e-02
 -1.5261039e-01
 -9.7387157e-02
 -9.9637382e-02
  2.9878741e-02
  2.4382471e-01
  2.6634555e-02
  1.0466193e-01
  9.4068751e-02
 -1.1984086e-01
 -1.3652425e-02
  5.4950859e-02
  1.3136744e-01
  4.7320321e-02
  3.2219499e-01
  2.8485863e-02
  9.8149043e-01
  1.5086170e-02
 -2.7912456e-01
 -6.8232886e-02
  6.9423519e-02
  2.1170630e+00
 -4.2476201e-01
  5.6349941e-02
 -1.6335668e-01
 -2.9815456e-02
  4.8477676e-02
 -1.0403519e-01
  1.2905955e-01
  9.9401642e-03
 -1.2458397e-02
 -2.6948377e-02
 -3.3099826e-02
 -9.4264291e-02
 -7.7852435e-02
  1.4676107e-01
 -1.3153444e-01
 -2.0550057e-02
  9.6487582e-02
 -5.1351104e-02
 -6.5223746e-02
 -4.8305422e-02
 -3.3266496e-02
 -2.9034605e-02
 -2.2404221e-01
 -7.0737958e-02
 -5.3838845e-02
  8.8402145e-02
  9.9656761e-02
 -9.8765828e-03
 -1.6435726e-01
 -2.0102115e-02
 -1.1125269e-02
 -1.8788294e-01
  9.4369642e-02
 -3.8076103e-02
  8.8166839e-01
 -1.8253358e-02
  4.2793058e-02
 -4.8634034e-02
 -3.5708912e-02
  1.6770486e-02
 -1.9171099e-01
  1.2239000e-01
 -1.7957939e-02
 -9.1749921e-02
  6.2552638e-02
 -2.0049514e-01
 -3.9685491e-02
 -6.0601294e-02
 -1.7038944e+00
 -4.7891116e-01
 -1.8654804e+00
  9.5160365e-01
  1.7564182e+00
  2.2358239e+00
 -1.7293750e+00
  4.2931017e-01
 -3.8691553e-01
 -1.4783863e+00
 -5.6732529e-01
 -3.4613830e-01
  2.5584278e-01
 -2.0963158e-01
 -3.8322306e-01
 -1.2685645e-01
 -2.1454165e+00
  2.4694800e-01
  7.4095592e-02
 -5.2105653e-01
  6.1779886e-01
  4.0193674e-01
  5.3430265e-03
 -8.7201643e-01
  7.2459668e-01
 -5.5969340e-01
 -5.9177172e-01
 -1.7953673e-01
  1.1622553e+00
  2.0950632e-01
 -4.7496846e-01
 -6.6641259e-01
  9.6930033e-01
  9.6460605e-01
  5.4112389e-03
  7.9475814e-01
 -5.2628571e-01
  3.5055161e-01
 -5.8462054e-01
 -4.3842268e-01
  2.7811998e-01
 -7.8337366e-04
 -1.1451592e-01
 -1.6998330e-01
  6.5131098e-02
  1.6755816e-02
 -5.1080104e-02
 -2.7203307e-02
  3.1637371e-01
 -3.1137151e-01
  2.9679012e-02
 -8.0820031e-02
  1.0944616e-02
 -2.4770256e-02
  2.6687115e-01
 -4.8771929e-02
  4.4486064e-01
 -3.4816295e-01
 -4.8150578e-01
  6.1273617e-01
  9.6791059e-02
 -1.1275687e+00
 -2.1817158e-01
 -9.5779719e-03
  2.8050074e-01
 -2.6207599e-01
 -1.5708795e-01
 -5.3068900e-01
  2.4038006e-01
 -1.6955186e-01
  2.1529481e-01
 -5.5205829e-02
  3.9469594e-01
  1.7289394e-01
 -1.1728727e-01
 -6.0740680e-01
 -8.4886276e-05
  3.8443405e-02
 -7.4422586e-01
  3.6312667e-01
 -5.0212985e-01
 -4.2803517e-01
 -1.1235923e-01
 -2.5928611e-01
 -7.4055630e-01
 -1.2088879e-01
 -2.6728162e-01
  5.8206147e-01
 -7.7658951e-02
  1.0431720e-01
  2.5980863e-01
 -3.4713000e-01
 -1.5840527e-01
  3.4721315e-01
 -4.7140047e-01
 -6.4992619e-01
 -1.9211614e-01
 -5.3971417e-02
  1.9346431e-02
  4.2443275e-02
 -6.8493590e-02
 -5.5122841e-02
 -2.1699565e-03
  4.2858720e-01
 -1.1940643e-01
 -6.7600578e-02
  1.4075570e-01
  3.7132673e-02
 -1.9170202e-01
 -5.5390786e-02
  1.5893662e-01
 -1.6957462e-02
  7.9116035e-01
 -2.8129584e-01
 -1.1405424e+00
  3.0567226e+00
 -1.6627398e+00
 -1.0038652e+00
 -1.9417123e+00
 -5.1879811e-01
 -5.6804210e-01
  2.4065366e-01
 -3.0054277e-01
  2.4363071e-01
 -9.1463327e-02
  5.3903723e-01
 -4.9813986e-01
  1.2637895e+00
  8.3832896e-01
  2.4257179e-01
  2.2563288e-01
  4.4031161e-01
 -3.7945583e-01
  4.1889489e-01
 -8.5957146e-01
 -1.5497651e+00
 -3.5689035e-01
  6.2522930e-01
  1.1959635e-01
  1.2602596e+00
  3.3095184e-01
  7.3173411e-02
  3.1105861e-01
 -4.7770414e-01
  2.0074296e-01
  1.8971042e-01
  3.2018951e-01
  2.9590061e-01
 -3.6816341e-01
  3.5150636e-02
 -3.6677739e-01
  5.7186186e-01
 -1.9218980e-01
 -9.7816074e-01
  1.6758342e-01
  1.1745369e-01
 -7.6281480e-02
 -8.2317352e-02
 -6.2740840e-02
 -5.7509643e-01
  1.1043538e-01
 -1.4686803e+00
  2.8884767e-02
 -3.3157796e-02
 -1.7193854e-02
  7.3995583e-02
 -2.3338441e-02
  1.0866915e-01
  3.6561343e-01
  2.6002343e+00
 -7.5661141e-01
  1.4951214e-01
  1.1761032e+00
  3.8798583e-01
 -8.9225388e-01
 -1.2312846e+00
  3.5270953e-01
 -1.4488122e-01
  3.5824317e-02
 -5.1539367e-01
 -5.9333108e-02
 -3.9336273e-01
 -5.4428774e-01
  2.7367854e-01
 -3.9967149e-01
  1.3755861e-01
  3.0622658e-01
  5.3968802e-02
 -2.2556530e-01
  3.8195664e-01
  5.5570602e-01
  2.7578452e-01
 -6.0632217e-01
 -3.9119053e-01
 -4.5755324e-01
 -5.4036289e-01
  5.7045603e+00
 -3.5457945e-01
  1.2084515e+00
 -2.5267053e-01
  2.2577254e-02
  2.4858251e-02
 -2.0168051e-02
 -3.2170784e-01
 -7.2642669e-02
  9.5359087e-02
 -1.0622115e-01
  2.0356776e-02
 -3.9508626e-01
 -2.6184903e-02
  5.0641543e-01
  2.4930829e-02
 -4.3558281e-02
 -5.4054685e-02
 -7.9907902e-02
 -3.7011999e-01
  1.6278015e-01
 -3.6935113e-02
 -1.0003789e-02
 -1.4049511e-01
 -1.1850810e-01
 -6.0841303e-02
  7.1367949e-02
  1.4778864e-01
 -1.1504581e+00
  1.2476195e+00
 -1.2109239e+00
 -1.9656295e+00
  1.2771713e+00
  5.3023183e-01
 -3.5606870e-01
 -1.6226649e+00
  1.5459652e-01
 -1.9935454e-01
  1.7805297e-02
 -7.0761830e-02
 -6.7444578e-02
 -9.8855030e-03
 -2.1320455e-01
 -1.9507040e-01
  1.5428849e-02
 -1.7084533e-01
 -1.8734415e-01
 -3.4817584e-02
  7.3572877e-04
  8.8374294e-02
  4.5660220e-02
 -8.1276327e-02
 -6.7550078e-02
 -4.6332902e-01
 -4.0556034e-01
 -2.5445047e-01
 -6.2017518e-01
 -2.6480278e-01
 -7.2589882e-02
 -1.3148187e-01
 -2.4751513e-01
  4.9934030e-01
  1.2019158e-01
 -7.2793268e-02
 -1.5942790e-01
  3.0666007e-02
 -1.3673826e-01
  6.5863982e-02
 -1.1728071e-01
  1.2416501e-01
 -7.7546132e-01
 -3.8176168e-02
 -3.8448513e-02
  7.5804941e-02
  6.7944929e-02
  2.0555729e-02
 -7.1806379e-02
 -7.7330805e-02
 -7.2718993e-02
  1.5362172e-01
  4.9156817e-03
 -7.0602521e-02
  5.5607650e-02
  6.4483061e-02
 -1.1592966e+00
  1.3672452e+00
  2.0137451e+00
 -1.4597110e+00
  5.3827411e-01
  4.1104251e-01
 -5.1757050e-01
 -1.9179748e+00
 -2.5424421e-02
 -5.2352834e-01
 -3.0464974e-01
 -2.6173979e-01
  1.3434936e-01
 -7.2349763e-01
 -3.6221698e-01
  7.0946294e-01
  5.9780914e-01
 -3.9749005e-01
 -3.9760140e-01
  5.0756985e-01
  3.7615195e-01
 -2.5472617e-01
  2.7462783e-01
 -3.0758134e-01
  4.1604978e-01
 -9.7830749e-01
  2.8580287e-02
  2.2767276e-01
 -4.0624093e-02
 -3.7015104e-01
  7.3361292e-02
 -4.0175083e-01
 -4.0397197e-01
 -4.6499571e-01
 -2.4887842e-01
 -2.5193077e-01
 -7.3205978e-02
 -4.4981173e-01
 -4.0067756e-01
  4.2482680e-01
  4.5287017e-02
  1.5754899e-01
  4.6105380e-03
 -1.2272110e-01
  1.7026490e-02
 -3.7287134e-01
  8.5855633e-02
 -3.9890921e-01
  1.4586623e-01
  4.4216756e-02
 -2.3300961e-01
 -1.9988690e-01
 -1.6911019e-02
 -1.6962470e-01
 -4.9467575e-02
  4.0566973e-02
  2.1779921e+00
 -1.7157969e+00
 -2.3127560e-01
  2.1615658e+00
 -1.0434521e+00
 -2.3955743e-01
  8.4917808e-01
  1.0878460e+00
 -3.1744489e-01
  2.2230496e-01
  4.0131730e-01
  6.1390132e-01
 -1.1528334e-01
  4.9592790e-01
 -3.5386704e-02
 -5.6347311e-01
  4.4109516e-02
  3.3192554e-01
  8.6429471e-01
  2.6786157e-01
  1.6587444e-01
  4.4671755e-02
  1.0871225e-01
  4.8208016e-01
 -3.4343314e-01
  8.7834901e-01
  3.1743622e-01
  7.6249051e-01
 -1.9892637e-01
 -2.2984037e-01
  5.4559463e-01
  3.0214170e-01
  5.3491104e-01
 -4.5390818e-02
  1.7976394e-01
  4.2169625e-01
  1.8905425e-01
  3.1002766e-01
 -3.5650131e-01
 -4.1428980e-01
  8.6795334e-03
 -2.4283782e-01
 -1.7920795e-01
 -2.4240394e-01
 -1.3476822e-03
 -6.2559478e-02
 -1.6775192e-01
  1.3605468e-01
  5.7534460e-02
 -5.8886763e-02
  1.8395467e-01
 -1.5588358e-01
 -9.8237477e-02
  7.0486240e-02
  2.7603276e-02
  9.2994653e-02
 -1.2889560e-01
 -8.0831751e-02
 -3.1669763e-01
 -1.2337337e-01
  1.8515779e-01
 -3.4679573e-02
  4.7200091e-02
 -5.5549598e-01
 -2.5692180e-01
 -1.0220535e-01
  2.2135337e-01
 -8.3485283e-02
 -1.1345420e-01
 -2.0571454e-01
 -2.6784236e-02
 -1.0971135e-01
 -2.1168697e-01
 -6.5676056e-02
 -2.1941575e-01
 -6.5088373e-01
  1.0871835e-01
 -2.8573126e-01
 -5.8631070e-02
  8.6066249e-04
  3.6543705e-02
 -1.3827570e-01
  6.1650958e-02
 -3.4775846e-02
 -1.3428627e-01
 -1.5884981e-01
  4.6516240e-01
  6.4900309e-02
 -4.1257489e-01
 -1.6262164e-02
 -3.9470352e-02
  6.6469960e-02
 -1.6080394e-01
 -7.7789679e-02
 -1.2735865e-01
 -2.6147470e-01
  1.2448164e-01
  2.2072135e-02
 -1.6322523e-01
 -1.5869351e-01
 -1.0971453e-01
  3.5388511e-02
 -5.1908292e-02
  4.3550685e-02
 -7.1453989e-02
 -1.9321946e-02
  1.1632066e-01
  1.4998275e-01
 -5.0115868e-02
 -6.3194610e-02
  1.6686689e-02
  1.9766815e-02
 -5.5918612e-02
 -1.9139649e-01
  5.3660952e-02
  3.3528503e-02
 -1.2444279e-01
 -3.8440131e-02
  1.2549818e+00
  3.7909899e-02
 -5.0788891e-02
  1.2613516e-02
 -2.5170395e-01
  8.2050547e-02
 -1.0734302e-02
 -4.6381839e-02
  5.0739836e-02
  1.5415679e-01
 -6.6822566e-02
 -1.4033291e-01
 -2.4268201e-02
  1.0283362e-01
 -5.8845230e-03
 -3.1124284e-02
 -4.3986026e-02
  1.0153794e-01
 -3.0309670e-02
  1.0343935e-01
 -1.7939404e-02
  1.0210600e-01
  5.5860043e-02
 -4.3800704e-02
 -8.4748998e-02
  3.9446179e-02
 -1.2636643e-02
  8.8118479e-02
  3.4831583e-03
 -1.0011426e-01
  1.0167378e-01
 -2.5728511e-02
  9.6368706e-03
 -5.9438374e-02
  6.0946550e-02
 -3.7431166e-02
  3.1100417e-02
  6.9916667e-03
 -7.1867257e-02
  8.2124025e-03
 -4.6718143e-02
  8.6676382e-02
  1.0659160e-01
  5.0126708e-01
 -4.3180607e-02
 -6.0007915e-02
  3.8325563e-02
 -1.0366692e-01
 -1.3831333e-02
 -5.6155317e-02
 -1.2747643e+00
  2.4993157e-01
  2.8660333e-01
 -2.6631546e-01
 -2.5993997e-01
  4.2270339e-01
  8.9554191e-02
 -2.5464168e-01
 -1.2184575e-01
 -1.9334969e-01
 -1.9181670e-01
 -2.6639562e-02
 -1.0903423e-01
 -1.2800498e-01
 -1.0035487e-01
  1.0391472e-01
  2.1910803e-01
  1.3760913e-03
 -2.5598932e-02
 -5.1601189e-01
  8.5061878e-02
 -5.0963745e-02
 -3.5512496e-02
  6.6009499e-02
  2.5949496e-01
 -7.5961947e-02
 -7.6474540e-02
 -2.0388501e-02
  1.0709351e-01
 -6.1470568e-02
  4.9668029e-01
 -2.0738302e-02
 -1.2621854e-01
 -2.0251306e-02
 -2.4062702e-01
 -2.9223902e-02
  2.1406978e-02
 -1.2980282e-01
  9.0982988e-02
  1.7435068e-01
 -3.3044886e-02
  5.5626854e-02
 -3.0190619e-02
 -1.7960592e-01
  7.0829958e-02
  6.6403411e-02
 -5.6106877e-02
 -1.9444019e-01
  6.3091719e-01
 -3.4060065e-02
  5.9714090e-02
 -4.7918309e-02
  3.8403090e-02
 -9.1302067e-02
 -1.2091565e-02
  3.3057250e-02
 -3.3290639e+00
 -6.7915565e-01
 -5.3270413e-03
 -2.4834882e-01
  1.3234454e+00
 -3.8717795e-02
 -2.7391258e-01
  1.5395859e-01
  2.5793850e-01
  4.2772621e-01
 -2.0838447e-01
 -2.5231406e-01
  9.7201294e-01
 -3.6440629e-01
 -7.9988271e-02
 -1.2316301e+00
 -2.0551810e-02
 -8.5288562e-02
  1.5101875e-01
  1.6424471e-01
 -3.8040766e-01
 -1.9848217e-01
 -2.9654169e-01
 -1.7057457e+00
  1.0830541e-01
 -9.6034461e-01
  3.3948666e-01
 -5.4701846e-02
 -2.3062732e-03
 -3.0405253e-01
  8.3479755e-02
 -7.3803693e-01
  1.2157028e-01
 -1.4320171e-01
  2.9573223e-01
 -2.7497664e-01
  3.0043247e-01
  4.7924761e-02
  1.2497190e-01
 -7.5626075e-01
 -3.2278121e-01
 -5.0325342e-02
 -1.2072729e-01
  7.4936353e-02
  2.2871016e-02
  1.1327004e-01
  4.0193129e-02
 -6.8681829e-02
 -1.9709328e-01
 -4.8384268e-02
 -7.8757137e-02
 -7.9798877e-02
 -1.2722738e-01
  3.4971505e-02
 -3.2254297e-02
  7.4781813e-02
 -2.7903605e-01
  1.4421663e+00
 -3.0855846e-01
  8.9667803e-01
  4.3816668e-01
  4.7759283e-01
 -3.3451056e-01
 -3.5537124e-01
  3.4762418e+00
  2.1155398e-02
  8.6159855e-01
 -2.1378022e-01
 -4.9064845e-02
 -1.8183465e-01
  3.6725345e-01
  3.5591528e-01
  2.5438029e-01
 -1.2261146e-01
  3.7130866e-02
  1.0712086e-01
 -2.9698825e-01
  2.5385755e-01
  1.6407390e-01
  1.0724828e+00
  2.2084811e+00
 -9.6373744e-02
  7.0297204e-02
 -4.6928197e-02
 -4.8387820e-01
 -4.2963254e-01
 -5.0845689e-01
  9.0894192e-01
  1.2690949e-01
 -3.7838027e-01
  4.4171169e-01
  3.6076739e-01
 -4.5192212e-01
 -2.6465046e-01
  7.7349806e-01
  5.4308116e-01
 -3.4061939e-01
 -1.3064329e-01
  1.6466263e-01
 -3.4891483e-01
 -7.3368341e-02
 -1.9909634e-01
 -3.0601901e-01
  2.0380299e+00
 -3.6528146e-01
  7.2487076e-03
 -1.5894035e-02
 -1.2176701e-01
  2.1964890e-01
  1.3952534e-01
  1.1749020e-01
 -4.6307549e-01
 -1.7925617e+00
 -8.4731507e-01
 -2.8892940e-01
  2.5496140e-01
 -3.9690809e+00
  1.6862242e+00
  2.6149485e-01
 -1.7447466e+00
  1.8875192e-01
 -8.7352052e-02
  1.5557264e-01
 -1.0198240e+00
  2.4664512e-01
 -9.1283911e-01
  2.6893842e-01
 -1.7674631e-02
 -2.9640812e-01
 -7.7850372e-02
  8.6105800e-01
 -2.8308764e+00
  1.1939475e-01
 -9.9931620e-03
 -2.5103331e-01
 -3.2120696e-01
 -5.2489901e-01
  7.6390970e-01
 -2.8167394e-01
 -1.3032517e+00
  8.1485972e-02
 -1.2463293e-01
  2.7101977e-02
  1.8135454e-01
 -1.5905890e-01
 -8.7300640e-01
  1.7919183e-01
 -1.5026221e+00
 -7.2788499e-02
  2.8710011e-01
  4.0618914e-01
 -2.5911090e-01
  1.3396297e-01
  1.9943279e+00
 -1.8601103e-01
 -6.1314923e-01
 -8.0661416e-01
  2.7575918e-02
 -3.2287496e-01
  5.0452650e-01
 -1.5356566e-01
  2.3371499e-02
  6.3520811e-02
  1.4384258e-01
 -1.1305743e-01
 -2.9006066e-02
  2.4129888e-02
  5.3530168e-03
  2.4191959e-01
 -4.1435972e-01
  4.3533377e-02
  2.6214653e-01
 -4.3448213e-02
 -3.4373600e-02
 -1.3081741e-01
  1.2878813e-03
 -4.1204318e-02
 -3.5027459e-02
  2.2130543e-02
 -1.0382965e-01
 -7.2404452e-02
  5.4521728e-02
 -8.5873939e-02
 -4.1368894e-02
 -1.1442431e-01
 -4.1911874e-02
  4.8842855e-02
 -2.1230191e-02
  1.4208221e-01
 -4.1188743e-02
  1.7238865e-02
 -2.4234561e-02
  2.5621712e-02
  6.4408660e-02
 -7.9635950e-03
 -3.9672535e-02
  1.0504701e+00
  6.5826364e-02
 -5.3552028e-02
 -2.7773166e-02
 -2.7598625e-02
 -2.3148037e-03
  1.4889553e-01
 -2.7908430e-01
 -6.5183550e-02
  3.4674771e-02
  1.0347261e-02
 -1.3060483e-01
  3.4864947e-02
 -1.0546698e-01
 -1.0712963e-01
 -7.6746136e-02
  8.4308617e-02
  3.7326100e-03
  5.8512963e-02
 -7.6572903e-02
 -7.7310473e-02
  9.5723560e-03
  4.8733797e-02
  6.4840270e-03
 -9.1504909e-02
  1.0311121e-01
  1.7279947e+00
  2.2160690e-01
 -1.7339526e-01
  1.5232965e-02
 -7.7562869e-01
  2.5641468e-01
  6.2916583e-01
  2.8199937e-02
 -1.3761484e-02
 -5.1895626e-02
  3.5398737e-02
  1.6312106e-01
 -1.8687887e-01
 -8.9185596e-02
 -7.2818950e-02
 -3.4601381e-01
  1.3481481e-01
 -6.7340277e-02
  1.0172760e-01
  1.0509527e-02
 -3.4185465e-02
 -1.0456128e-01
  1.1103336e-01
  2.4697790e-02
  4.3472759e-02
 -1.2061873e-01
  2.2125660e-01
 -1.4644489e-01
 -7.4365648e-04
 -7.9695396e-02
 -2.3366894e-01
  1.0020860e-01
  8.7183483e-02
  5.6813575e-02
 -1.0435950e+00
 -1.3445413e-01
 -9.9516004e-02
 -4.6800531e-02
  2.6930975e-02
 -4.9187243e-03
 -1.2459525e-02
 -6.4069480e-02
 -7.5555824e-02
  1.5094376e-02
 -6.1238557e-03
 -2.5682021e-02
  7.5458504e-02
 -1.1204915e-01
  3.8413327e-02
 -1.7739156e-02
 -1.2252835e-02
  4.8225261e-02
  6.3827924e-02
  7.3564094e-01
  1.0099713e-01
  7.5227961e-02
  3.5791177e-02
  2.9361544e+00
 -1.2508259e+00
  4.8132386e+00
 -4.3881625e-02
 -2.2643003e+00
 -3.1115181e+00
  1.4113635e+00
  2.4290130e-01
  3.0635512e+00
 -7.4109584e-01
 -4.2408061e-01
 -1.4872302e-01
 -3.7577379e-02
 -4.0712747e-01
 -6.9915372e-01
 -3.7611043e-01
  2.7994302e-01
  9.0805775e-01
  4.3333602e-01
 -5.1258373e-01
 -6.5453374e-01
 -1.4351256e-01
 -5.6560951e-01
 -1.9217412e-01
  3.9926040e-01
  8.7620229e-01
  4.4700766e-01
 -1.9392262e-01
  2.2996193e-01
 -2.2063448e-01
 -4.0989622e-01
 -3.9252383e-01
  2.5978336e-01
 -7.9417825e-02
  6.1224747e-01
 -2.1867046e-01
  8.7933183e-01
  1.1875414e+00
  1.9462716e-03
 -3.4693578e-01
 -3.6435172e-01
 -5.8965258e-02
 -1.0937114e-01
  1.1033710e-01
 -3.3156046e-01
  2.3241049e-01
 -9.7968474e-02
 -5.4666232e-02
  2.1117184e-01
 -1.7007989e-01
 -1.2791224e-01
  6.6532217e-02
  9.9871174e-02
  7.0880644e-02
 -1.8522093e-01
  1.7270769e-01
  1.0731775e-01
  2.2232687e+00
 -1.9790633e+00
  1.5516301e-02
  1.5841695e-02
  1.6394463e+00
 -2.2452672e+00
 -1.2118931e+00
  3.5534549e+00
 -4.1077301e-01
  1.0895269e+00
  5.7738725e-02
 -1.8594092e-01
 -3.4849101e-01
 -5.6368089e-01
 -5.3852908e-02
  5.7546699e-01
  5.5381119e-01
  7.3566878e-01
  3.1370643e-01
 -4.7493821e-01
  1.2187645e+00
  1.0558164e+00
 -2.4236789e-01
 -2.4783202e-01
  1.1929365e-01
  2.1592834e+00
  5.2887893e-01
  2.0750263e-01
  9.6885639e-01
  7.6605147e-01
 -3.9436984e-01
 -4.0520599e-01
  9.1293281e-01
  1.1713054e+00
  4.5834091e-01
  5.2295965e-01
 -1.8126471e+00
  1.1445700e-01
 -2.6308516e-01
  2.0271602e-01
 -2.2919117e-01
 -2.8263620e-01
  1.5717816e-01
  2.0218405e-01
  7.1651235e-02
 -3.2169050e-01
  9.6203372e-02
 -5.4961163e-01
  8.3679095e-02
  8.5467838e-02
 -9.6563548e-02
 -4.3142010e-02
  1.0677858e-01
 -1.0687640e-02
  1.9132325e-01
  1.8864666e-01
 -1.6200616e+00
  1.9427370e+00
  1.2061089e+00
  2.3728747e+00
 -9.0400642e-01
  6.0596239e-02
 -8.1313640e-01
 -4.0135574e+00
  2.1107957e-01
 -9.3213373e-01
 -3.2180765e-01
 -8.8481748e-01
  2.5016126e-01
 -5.8689392e-01
 -4.0930882e-01
  3.9763525e-01
 -4.5471117e-01
 -1.7569113e-01
 -6.0721189e-01
 -7.0814192e-02
 -2.2229844e-01
 -1.8671115e-01
 -1.4155780e+00
  6.1353987e-01
  9.3755329e-01
 -1.0570829e+00
 -2.0384942e-01
 -1.0353264e+00
  6.0018057e-01
 -2.5222346e-01
 -3.6409804e-01
  4.0756352e-04
 -3.3220404e-01
 -3.0509400e-01
  4.6586879e-02
 -7.6341939e-01
 -7.0481594e-03
  1.4477900e-01
 -7.4496174e-01
  7.4584687e-01
 -1.9483584e-01
 -1.2331999e-02
  2.6234832e-01
 -1.1247597e-01
 -6.0303241e-02
  5.5331241e-02
  2.5159636e-01
 -5.7607067e-01
  1.4679228e-01
  3.7117630e-02
 -1.1897127e-01
  2.2121983e-02
  4.0618487e-02
  1.0050717e-01
 -9.2077762e-02
  1.5969655e-01
  8.9395714e-01
 -4.3369040e-01
  1.0111688e+00
 -2.2154514e-01
  6.1684954e-01
  2.4615824e-01
  5.4658931e-01
 -6.9767457e-01
  1.4188230e+00
  2.2199500e-01
  9.3355834e-02
 -2.4111254e+00
  3.8890596e-02
  1.1369274e+00
 -7.8049326e-01
  3.3715372e+00
  1.3366477e+00
  4.4244087e-01
  8.2928407e-01
 -2.3533599e+00
 -2.0081629e-01
  9.0235692e-01
 -8.1267995e-01
  4.3834033e+00
  2.1790192e+00
 -1.3171898e-01
  4.5007357e-01
 -2.3367603e+00
  1.0436895e-01
  1.1970174e+00
  1.2709592e-01
  2.3347969e+00
  1.5976167e+00
  4.8806512e-01
  2.2156298e-01
 -1.5716563e+00
  5.0656974e-01
  4.7927621e-01
 -3.6876824e-01
  1.2427744e+00
  1.2051698e+00
 -6.3087948e-02
 -6.9393493e-02
  3.4867719e-01
  2.9348889e-01
 -5.7914418e-01
  5.7879776e-01
 -3.9260170e-01
  5.9217620e-01
 -4.3161243e-02
 -4.7458475e-03
 -1.0532745e-01
 -3.2205891e-02
  2.4442331e-01
 -8.9668706e-02
 -1.4598233e-01
 -1.0760237e+00
 -6.3145063e-03
 -4.1913828e-01
 -7.3624384e-01
  2.2399233e-01
  2.8740052e-02
 -1.7159461e-03
  2.4093416e+00
 -2.3317104e-02
 -1.5206888e-01
  1.1431567e-01
  4.2630218e-02
 -1.1304829e-01
 -9.6982390e-02
  1.3128288e-01
 -2.1929249e-01
 -1.3398464e-01
 -2.8062382e-01
  3.2686394e-02
 -1.8913548e-01
  7.0244282e-02
  2.0016521e-01
  1.1303933e-01
 -3.6369759e-01
  1.7968982e-01
 -1.1203790e-01
 -3.8056497e-02
 -2.2368699e-01
  2.1150535e-01
  2.9879177e-02
 -3.1184996e-02
 -1.4930369e-01
 -1.1235702e-01
 -8.8979706e-02
 -7.8867905e-02
 -9.4982900e-02
 -1.4725032e-01
  1.6599669e-01
 -3.1624835e-02
 -2.2950165e-01
 -9.4962148e-03
 -1.7594236e-01
 -1.5157129e-01
 -6.6903740e-02
  6.4315371e-02
 -1.4069484e-01
 -3.4267608e-02
 -2.9640542e-02
  2.6040873e-02
  9.2537425e-02
  9.3440525e-02
  2.9922485e-02
  4.8884131e-02
 -4.9065169e-02
  7.8695722e-02
  1.6049932e+00
  1.8004212e+00
  1.6364154e+00
  2.0500261e-01
  4.2929694e-01
 -1.3225344e+00
 -1.2941585e+00
 -2.8850055e-01
  4.0891819e+00
  1.3619087e+00
 -9.7851890e-01
 -1.8765680e-01
 -1.9844957e-01
  4.0399474e-01
 -1.1363519e+00
 -2.8652179e-01
  1.4976074e+00
 -5.7974052e-01
 -3.8630176e-01
 -3.0498078e-01
 -2.4070419e-01
  2.2653230e-01
 -9.8775136e-01
 -1.3936573e-03
  7.3829204e-01
  1.2119482e-01
 -7.8758633e-01
  9.6256249e-02
  1.4225583e+00
  1.1770282e+00
 -7.0568182e-02
  6.1500674e-01
 -1.2094011e+00
  5.4396428e-02
  9.0788051e-02
  6.2578535e-01
  4.1783914e-01
  4.5081666e-01
 -1.8370397e-01
  2.5543931e-01
 -5.8043402e-01
 -2.9086360e-01
  7.8393929e-02
 -4.4056222e-01
 -9.3691953e-02
 -1.2008222e-01
  2.6802933e-01
 -1.1921964e-01
  1.3317773e+00
  6.9448017e-02
  8.6125538e-02
 -7.2413158e-01
 -1.6774049e-01
 -2.8031090e-02
 -2.6530465e-01
  2.2658679e-01
 -3.6026426e-03
 -4.7938541e-01
 -3.1473660e+00
  3.8834932e+00
 -5.0799079e+00
  1.2545668e-01
 -9.0601057e-02
  2.2057533e+00
 -2.8517309e-01
  1.0011146e+00
  1.0725449e+00
 -1.7391163e-01
 -1.1802454e+00
 -1.5950921e-01
 -7.8325635e-01
  4.6235472e-01
  1.3691540e+00
  3.7660179e-01
  9.2633903e-02
  1.5201441e-02
 -4.0391934e-01
  1.4897899e-01
 -1.4571722e-02
  6.6368032e-01
 -1.0125537e+00
  1.6255331e-01
  9.8994845e-01
 -1.2924857e-01
 -1.4331093e+00
  7.1270943e-01
  6.9759881e-01
 -1.1917069e+00
  8.4016925e-01
  5.4698478e-02
  2.9793906e-01
 -1.3914343e-03
 -1.3318299e-01
  3.8002464e-01
  3.7777242e-01
 -6.4338669e-02
  3.7002510e-01
  1.5857504e-01
 -1.2095929e-02
  1.4254981e-01
 -2.3070002e-01
 -2.7785908e-02
 -2.2092326e-01
  3.3532552e-02
 -4.4599661e-01
 -4.1444644e-02
  6.2982224e-02
 -8.3328754e-02
  4.6920738e-01
  9.6885294e-02
 -3.1550361e-03
 -5.0000101e-02
  1.5562460e-01
  1.3555236e+00
  1.7195108e+00
  6.6438508e-01
  1.0666348e-01
 -4.7253260e-01
  2.0259438e+00
 -2.2427790e+00
 -5.6756961e-01
  1.2459109e+00
  7.3246723e-01
  4.9739257e-02
 -5.6642547e-02
 -1.0142199e+00
 -7.0423561e-01
 -4.7056141e-01
  2.2157042e+00
  4.9144939e-02
  1.8591997e-01
  4.6281222e-02
  3.5968417e-01
 -1.2462884e+00
  2.1733950e-01
 -4.5010018e-01
 -1.0103828e+00
 -1.6841034e+00
  7.9399967e-01
  3.2142857e-01
 -1.7037600e-01
  6.2769890e-01
  4.3132439e-01
  7.8427607e-01
  3.3561826e+00
  1.5805264e+00
  1.9826373e-01
  1.0905326e-01
  2.3470262e-01
  4.1562876e-01
  3.2663953e-01
 -2.4957684e-01
  2.1541295e+00
  4.1753343e-01
  1.1021277e-01
 -1.8828167e-01
  9.0185240e-02
 -3.2660818e-01
  2.3383021e-01
  3.3144098e-02
  2.3413420e+00
 -1.1982412e+00
 -1.6659508e-02
 -4.3274947e-02
 -3.7988943e-01
  1.6479893e-01
  3.6995909e-01
 -1.3233390e-01
 -1.0194314e+00
 -4.8171014e-02
  3.7577319e-01
  3.7708071e-01
  3.1492281e-01
 -1.0576784e-02
  1.6464730e-01
  2.2618647e-01
  6.9453132e-01
 -1.1540015e+00
 -2.0289958e-01
  7.0025824e-02
  3.4144882e-02
 -1.6971353e-01
  1.3299084e-01
 -9.1926321e-02
  3.7974274e-01
 -6.1461139e-01
 -3.4045932e-01
  1.1870973e-02
  2.7948263e-01
 -3.0065101e-02
  3.5707372e-01
 -3.0069420e-01
  4.2755452e-01
 -5.1956172e+00
 -1.3744114e-01
  2.6605436e-01
 -5.1609803e-02
  8.5304916e-02
  1.4486576e-03
  8.2587354e-02
  2.5605857e-01
 -6.1652654e-01
 -1.2314726e+00
  1.2318798e-01
  6.7937911e-02
  1.8974227e-01
 -2.0525459e-02
  3.8400788e-02
  2.1592094e-01
  1.9689928e-01
 -3.7697896e-02
 -2.5775071e-02
  3.8254872e-01
  1.4538425e-01
 -2.2281274e-02
  9.9215746e-02
 -2.3254581e-01
  1.6588415e-01
 -2.9369086e-02
  4.1595481e-02
 -7.0323548e-03
 -1.6745332e-01
  5.3370938e-02
  8.5263411e-03
  5.1199243e-04
  5.2040774e-01
 -1.6559561e-01
 -5.5399674e-01
 -1.3582249e-01
  1.2134783e-01
 -4.0123144e-01
  2.4433653e-01
  4.3643874e-01
  3.9834160e-01
 -3.1187735e-02
 -4.7169905e-02
  1.6722032e-01
  2.2610898e-01
 -1.5688236e-01
  3.2612562e-01
  5.7136935e-01
  1.2011381e-01
 -3.1394807e-01
  2.1483538e-01
 -7.0842118e-03
  5.2855980e-01
 -2.1797867e-01
  4.0014103e-01
 -1.7876226e+00
  3.8282382e-01
 -2.7330333e-01
 -1.8853762e+00
 -2.1232831e-01
 -2.9870227e-01
  2.4806899e-01
 -4.3213609e-01
 -3.0952626e-01
  6.5668744e-01
  1.7120636e-01
 -2.8132033e-01
 -1.9960094e-02
 -1.7916203e-01
 -6.9799021e-02
  3.1579491e-02
 -5.5726302e-01
 -1.4447141e-01
  2.0406556e+00
 -8.5693002e-03
  6.2754579e-02
 -1.0100096e-01
  4.6584122e-02
 -6.7115419e-02
  1.3435093e+00
 -2.6450353e-02
  7.9652153e-02
 -3.5996139e-02
 -5.2387845e-02
 -5.2514277e-02
  5.9074280e-03
  1.0535926e-01
  1.2163966e-01
  1.0063940e+00
  1.6152004e+00
  1.3428932e+00
 -4.3842158e-01
  1.5839081e+00
 -7.3418725e-01
  1.3530501e+00
 -1.4388086e+00
  9.5947546e-01
  1.5603901e+00
 -5.4439735e-01
 -1.5509100e+00
  1.8752234e+00
  1.6575060e+00
  9.5486593e-01
  7.4416810e-01
  1.7033915e-01
  2.7291722e+00
  1.5490068e+00
 -1.3311132e+00
 -2.1220462e+00
  1.5571818e+00
  1.0010026e-01
  1.6011119e-02
  1.3818364e+00
  2.3742774e-01
  9.4273359e-01
  1.3155625e+00
 -1.8271480e+00
 -6.5621626e-01
  1.4173795e+00
  9.0899962e-01
 -8.2422435e-01
 -1.2485485e+00
  1.5291643e+00
  1.4132424e-01
 -3.0997257e+00
 -1.4795108e+00
 -1.6011950e+00
  1.7840055e+00
  5.7579941e-01
 -1.2996595e+00
 -1.4572728e+00
 -1.9377680e+00
 -1.2584823e+00
 -1.6987724e+00
  6.3869971e-01
  1.1089610e+00
  1.1534452e+00
  1.7090596e+00
  1.1660380e+00
  9.6120678e-02
 -2.8377527e-01
  7.8969240e-01
  2.6445441e+00
  3.1016527e-02
  9.9005544e-01
 -1.3965683e-01
  1.3263204e+00
  9.5397145e-01
 -1.9167769e+00
  2.2475247e+00
 -1.1761427e+00
 -4.8271787e-01
 -1.6367655e+00
 -1.4798841e+00
  1.6653461e+00
  1.1712929e+00
  7.2007734e-01
  7.4017698e-01
 -5.9769857e-01
  6.9720864e-02
 -1.8931656e+00
 -1.1426246e+00
  2.7665332e-01
  7.1337932e-01
 -4.9069577e-01
  7.0196694e-01
  8.9293689e-01
 -9.8171908e-01
 -5.0028020e-01
  3.7396976e-01
 -6.5064228e-01
 -1.8433598e+00
  5.0946105e-01
 -8.6071944e-01
  1.6391335e-01
  7.5348425e-01
 -2.6816005e-01
  7.5613660e-01
 -4.1567552e-01
  5.6377643e-01
 -4.0573411e+00
 -8.0851322e-01
  4.0640765e-01
  8.4213793e-01
  4.0090210e-03
  1.6110647e+00
  5.8934176e-01
  8.5217202e-01
 -1.8974934e+00
 -5.1660419e-01
  1.4405749e+00
  9.6561939e-01
 -1.8330453e-01
 -8.8969636e-01
 -1.7665529e+00
 -1.9482321e+00
 -1.9492452e+00
 -1.9667605e+00
  7.1373391e-01
  8.3562231e-01
 -4.2059354e-02
  8.5760939e-01
 -3.7782201e-01
  4.4701491e-02
 -2.0672278e+00
 -3.0811423e-01
 -3.3986253e-01
 -1.1860783e+00
 -2.2108593e+00
 -1.2069029e+00
 -7.6839846e-01
 -1.1737655e+00
 -1.6013201e+00
 -1.6653209e+00
 -8.4438717e-01
  2.1455595e+00
 -7.0650756e-01
 -2.5040739e+00
 -3.6037117e-01
  9.0430701e-01
  3.8007531e-01
  4.7854733e-01
  6.4595771e-01
  1.0835998e+00
  1.1134304e+00
 -6.6576093e-01
  2.7264872e+00
  1.6557406e+00
 -9.1950577e-01
  7.1312642e-01
  5.6398487e-01
 -7.3213004e-02
 -5.9016395e-01
  4.2089963e-01
 -1.7521261e+00
  1.5215482e+00
 -1.1148074e-02
  2.3590639e-01
  5.8996236e-01
 -1.0688014e+00
 -7.1649045e-01
 -2.2847760e+00
  2.6277396e-01
  9.3158847e-01
 -9.6723592e-01
 -2.1210647e+00
 -3.2458693e-01
  8.7851971e-01
  1.0698288e-01
 -2.1956959e-01
  6.7671180e-02
 -1.7208160e-01
  4.7618699e-01
 -2.5679497e-02
  2.1985354e-01
  2.9028344e-01
 -1.3339782e-01
  3.1597286e-01
 -6.8333238e-02
 -5.4481462e-02
  1.4676391e-01
  4.1846514e-02
 -7.0899618e-03
  1.4392158e-01
  2.6048422e-02
 -1.3752891e-01
  5.2973013e-03
  1.2948100e-02
  5.3066280e-02
  2.9594373e-02
  1.7622289e-01
 -2.9278584e-02
  2.5363972e-02
  1.5180843e-01
  1.6007456e-01
 -6.8938486e-02
 -1.0757659e-01
 -1.5659668e-01
 -1.1867210e-01
 -8.5405238e-02
  1.8924500e-01
  1.3085476e-01
 -2.7896829e-02
 -4.5645181e-02
  4.7725156e-02
  6.0262963e-02
  2.4456007e-02
 -1.6288218e-01
  5.8359642e-02
 -1.1300611e-01
  1.2418749e-02
 -3.1999230e-02
 -1.5628199e-01
 -6.0536228e-02
  3.0885210e-02
 -9.0949729e-02
  1.7915992e-01
 -7.3916599e-02
  1.5910819e-01
 -6.0450070e-02
  3.3124295e-01
  1.9199830e-02
  3.1573600e-01
  2.1514244e-02
  1.5130612e+00
 -4.6166852e-01
  2.5343881e+00
  4.0220204e-01
  1.9383733e-01
  2.8016171e+00
 -7.9003938e-02
  1.1548661e-01
  4.7076273e-01
  5.9062260e-01
  6.2867492e-01
  2.5777426e-01
  1.0725238e+00
 -1.4319108e-01
  7.1326062e-02
  1.3258450e+00
 -1.9972925e-01
  3.1963191e-03
  4.4737002e-01
  2.3812017e-01
  7.6102778e-02
  5.7807893e-01
  7.1691167e-01
 -8.8686520e-01
  1.7884023e-01
  1.1839284e-01
  3.1076819e-01
  2.4675329e-01
  4.7520480e-01
  2.1780875e-01
  7.2289741e-01
  5.6612259e-01
 -7.0119882e-01
 -9.5392573e-01
  1.0408682e+00
 -1.4285473e+00
 -1.6196805e-01
  3.6494070e-01
 -4.7726637e-01
  2.9886534e+00
  1.7021832e-01
  3.9674023e-01
  5.9612963e-04
 -1.2114198e-01
 -1.3062020e-02
 -2.1495277e-02
  2.2939722e-01
  1.1138231e-02
 -7.4275725e-02
 -2.6083868e-02
 -7.2544858e-02
  1.5896507e-01
 -1.7471926e-01
  2.3385949e-02
 -1.0088767e-01
  2.3016055e-01
 -3.1894937e-02
 -1.5453427e-01
 -1.4419609e-01
  5.1159364e-01
  8.3595169e-01
 -2.6684037e-01
  1.8246652e-01
  1.2698568e+00
 -4.3328536e-01
 -1.2201674e-01
  1.6269064e-01
 -6.1013955e-03
 -1.7195450e-01
 -1.6750313e-01
  8.4148355e-02
  3.8966697e-01
 -1.0126448e+00
 -4.4077456e-02
 -8.0783702e-02
  2.6552875e-02
 -9.9415153e-02
 -1.4789325e-01
  1.1968806e-01
  3.1198885e-02
 -3.5369387e-01
  6.1222517e-01
 -7.3925495e-02
  1.2813632e-01
  1.4106318e-01
 -5.4913275e-02
  3.2195252e-01
 -5.9554365e-04
 -2.9083070e-01
  9.2783555e-02
 -7.8640455e-01
 -9.3853764e-02
  3.1037529e-03
  3.0941835e-01
  4.4466686e-01
  4.1463014e-02
 -8.8543767e-01
  7.4032252e-04
  3.7407298e-02
  4.9110770e-02
 -6.8463571e-02
  5.3013995e-02
 -3.0454738e-02
 -3.6680486e-02
 -1.6354603e-01
  1.8573177e-01
 -2.6660752e-02
  1.6104566e-02
 -2.9681614e-03
 -7.8564174e-02
 -1.9768375e-01
  9.4184928e-02
  6.4974403e-01
 -1.8530142e-01
  2.8685576e-01
  1.7544448e+00
  2.9223639e-01
 -9.2127800e-02
 -2.4706218e-01
 -1.2031654e+00
 -1.9294640e-01
 -1.5178028e-02
  1.5757763e-01
  3.2722235e-02
 -8.1299953e-02
  1.8411539e-01
  1.3742933e-01
  9.4779946e-02
 -2.2566950e-01
 -1.2699801e-01
 -2.3792593e-01
  3.2906228e-01
  9.0367764e-02
  3.7091315e-02
 -1.8941458e-01
 -4.4256732e-02
 -8.2550466e-02
 -1.7896475e-01
  5.1537245e-03
  1.5578866e-01
 -6.7862079e-02
  2.7258135e-03
  7.8719653e-02
 -1.9641416e-02
 -7.3194861e-02
 -1.5861315e-01
  6.5573983e-02
  1.8263535e-01
  2.4115727e+00
  1.3143381e-01
  3.2015670e-02
  4.4118851e-02
  1.8549082e-01
  5.1712405e-02
  1.9422941e-02
  5.1820540e-01
 -1.1945653e-01
 -7.1064360e-02
  1.0918982e-03
 -9.9067658e-02
 -1.0555116e-02
  5.2065756e-02
 -1.4105189e-01
  1.2808064e-02
 -6.4812168e-02
  5.4617643e-02
 -4.4233054e-02
 -7.7039450e-02
 -2.7733317e-01
 -4.6383832e-02
  3.9930561e-01
 -6.2736727e-02
 -6.8103433e-01
 -1.1895083e-01
  3.9011464e-02
  5.9165657e-01
 -1.1135413e-01
  3.3872098e-02
  2.3673140e-01
  1.7082568e-01
  1.4211336e-01
  8.8456243e-02
 -6.6594593e-02
  1.1486038e-01
  5.8203302e-03
  1.5482514e-02
 -1.9100955e-02
 -7.0009544e-02
  6.3355625e-02
 -5.3788265e-03
 -1.9932060e-02
 -8.5148372e-02
 -2.6890999e-02
 -1.2987094e-01
 -2.4834668e-02
  8.7022111e-02
 -1.4584343e-01
  4.9399689e-02
  9.1037229e-02
  1.2970776e-02
 -9.8202311e-02
 -2.1279087e-02
  7.1799308e-02
 -1.3080740e-02
 -9.3281478e-02
  2.3529501e-01
  3.9234556e-02
 -1.4051598e-02
  1.3129845e-01
  1.3714088e-01
 -1.2891435e-02
  1.7658813e-02
  6.1762553e-01
  5.3524636e-02
  4.7601614e-02
 -6.6201240e-02
 -1.7909077e-01
 -6.9087450e-03
  4.0916555e-02
  4.6499778e-02
 -2.0415761e-02
  2.3571528e-02
  9.4638921e-02
 -3.0595610e-02
  7.9224087e-02
  2.2365749e-01
  2.0371444e+00
  1.3587382e-01
 -4.0884840e-01
  9.4964570e-01
  3.5202906e-01
 -7.9068726e-01
 -5.2560296e-02
 -7.9086848e-02
  2.7586544e-01
 -8.0155455e-02
  7.8157818e-01
 -2.8085557e-01
  1.9204283e-01
  6.2456489e-02
 -7.4693605e-02
 -4.3642020e-01
 -1.6092964e-01
 -9.3772057e-03
  5.0717306e-01
 -1.1644342e-01
 -4.6173796e-01
  1.3276105e-01
 -2.1999113e-01
  2.4205832e-01
  1.5170106e-02
 -5.8417235e-02
 -6.9231638e-03
  1.6823865e-02
  1.2879767e+00
 -2.8357980e-01
 -8.3742255e-01
 -5.0632960e-01
 -2.0452540e-02
 -1.8796043e-01
 -8.2053471e-01
  6.7187840e-01
 -3.9008665e-01
  1.2732205e-01
  9.6479177e-02
  1.1028473e-01
  6.3385206e-01
  5.8413357e-03
 -3.8144242e-02
  6.9325307e-04
  8.1513189e-02
 -2.8041129e-03
  1.0396834e-01
  2.4564851e-03
 -5.0544029e-01
 -5.7378024e-02
 -8.9798413e-02
  4.0795244e-02
 -1.6673496e-02
 -1.4361398e-01
  1.9686593e-02
 -5.2698939e-03
  1.7088020e-01
 -8.9578003e-02
  9.6219359e-03
 -8.0842981e-03
  2.8859898e-01
  2.8013602e-01
 -3.2241214e-02
  2.6947488e-03
  1.8471472e-01
  1.2661687e-02
 -1.1446721e-01
  3.2650109e-02
  4.0519651e-02
  2.3710586e-02
  1.4371203e-01
 -3.5464518e-02
  3.3539257e-03
 -2.1818807e+00
 -1.5544181e-01
  2.1486545e-01
 -1.6003105e-01
 -1.5842342e-01
 -7.8269042e-02
  3.3443499e-02
 -1.5928611e-01
  2.4243093e-03
 -2.3028362e-03
  9.2464685e-02
  3.4001283e-02
  4.9986407e-02
 -7.3858597e-03
  1.7563270e-02
 -5.5986345e-02
 -4.0149044e-02
  1.8717458e-02
  2.2522113e-01
  3.9310122e-01
 -5.1991332e-02
 -1.6275272e-02
  1.0146024e-02
  3.3792086e-02
  1.9033322e-01
 -3.8362123e-04
  5.9999358e-02
  4.6244249e-02
 -9.8278858e-02
  3.1409808e-02
 -3.7049908e-02
  4.0276479e-02
 -9.4964713e-02
 -1.2266201e-04
 -5.7699066e-02
 -1.4990580e-01
 -2.0308770e-01
 -4.0332613e+00
 -1.2521546e+00
 -3.1157203e+00
  1.7077753e-01
 -1.3916113e+00
 -3.4054785e+00
 -1.0132238e+00
  1.3082509e+00
  4.0887564e-01
 -1.2961271e+00
 -1.0754102e-01
  3.3787686e-01
  1.2631290e-01
  8.1219423e-01
  9.0885979e-01
 -1.7602345e+00
  6.7111099e-01
 -4.1336548e-01
 -4.5591158e-01
 -1.4486729e-02
 -5.5433935e-01
  1.0478530e+00
 -6.7413914e-01
 -9.5376015e-01
 -1.3086806e-01
 -8.1474960e-01
  5.7021052e-01
 -3.1116880e-02
  2.3355961e+00
  1.5976903e+00
 -2.1703747e-01
  2.8063270e-01
 -1.3410145e-01
  1.3173681e-01
 -4.5010146e-01
  1.5773013e+00
  1.1251180e+00
 -9.3263453e-01
  1.2593551e+00
 -1.0926988e+00
 -2.1534671e-01
  2.5682846e-01
  4.4179779e-01
  2.0179337e-01
 -8.5275814e-02
  8.2363665e-02
 -1.7978264e-01
 -8.0851249e-02
 -1.5036257e-01
  9.3123931e-03
 -1.6893476e-01
  1.0061039e-01
 -9.9862270e-02
 -6.6025488e-02
 -3.4808737e-01
  2.1376450e-02
  9.7356069e-01
 -8.7264776e-01
 -1.9745215e+00
  2.2139468e+00
  5.1486931e+00
  1.6088630e+00
 -2.6095207e+00
 -3.2534139e+00
  5.2441280e-02
  3.3307672e-01
  5.6263134e-02
  4.7305588e-02
  4.0773329e-01
  4.6206754e-02
 -2.8015884e-02
  6.3984722e-01
  2.9539061e-01
  2.1404191e-03
  2.1163854e-03
  5.2338447e-02
  2.0293358e-01
 -3.8007468e-02
  3.9452538e-02
  3.8427600e-01
 -7.9299346e-02
  5.8725363e-01
  4.5913815e-01
 -1.6267601e-01
  8.2703406e-01
  1.4753995e-02
  1.3042344e-01
  4.4145164e-01
 -7.7911809e-02
  3.2926077e-01
  9.0340972e-02
  5.9673795e-04
  4.9457765e-01
  2.8995859e-02
 -1.9968713e-03
  2.3248678e-01
  1.2486029e-01
  2.5635540e+00
 -2.8236143e-02
 -3.6978874e-02
 -8.8893287e-02
 -4.0957153e-01
 -2.5581071e-01
  7.1119010e-02
 -3.2031146e-01
 -7.6638174e-01
  1.1864531e-01
 -6.2855557e-03
  1.8108737e-02
 -4.6968815e-01
  2.1928025e-02
  4.3007802e-02
  1.9783768e-01
  1.1664867e+00
  1.2594750e+00
 -1.4884373e+00
 -1.8075273e+00
 -2.1341874e-01
  4.1124484e-01
  1.2827947e+00
 -1.5529330e-01
 -6.1742139e-01
  1.9234431e-01
 -1.0157227e-01
  4.9938449e-01
  5.2139276e-01
  4.1215599e-01
  8.7786061e-01
 -1.4445715e-01
 -7.0594025e-01
  7.9628423e-02
  3.7154043e-01
  1.6235732e-01
 -4.0605980e-01
 -5.0800610e-01
 -9.1827488e-01
 -1.0953765e-02
  1.1199803e+00
 -7.9071057e-01
  3.0034083e-01
  2.4844676e-01
  4.3017751e-01
  7.8633288e-03
  5.7571620e-01
  2.9663029e-01
 -4.8192638e-01
  8.2030898e-01
  3.2532048e-01
 -4.0566641e-01
  7.5981027e-01
 -2.2127900e-01
  2.2336431e+00
  5.8392961e-02
 -1.1621282e-01
 -1.1260870e+00
  5.3792629e-02
 -1.9002548e-01
 -3.1218100e-01
  1.4615101e-01
 -3.4808147e-01
  1.9486273e-03
 -1.3918163e-01
 -5.2610818e-02
 -1.4935822e-02
  1.0639650e-01
 -1.5667744e-01
 -1.3396922e-02
  3.1448532e-02
 -5.5535231e-02
  1.2216772e-01
 -1.1129097e-02
 -1.2013974e-01
  2.7965921e-01
  1.2001705e-02
  8.3813496e-02
  2.1573944e-01
 -6.1540019e-02
  7.0130751e-02
 -9.8563440e-02
 -4.5726723e-03
  6.9809621e-03
 -5.7053566e-03
  5.4339397e-01
  2.1609493e-02
 -4.7989722e-02
 -7.4498224e-01
  7.8689426e-02
  7.5823456e-02
 -1.9664885e-01
  2.1319515e-03
  6.3571560e-01
  6.2041029e-02
 -6.5705948e-02
  6.9178594e-03
 -7.9584979e-03
  1.1264616e-02
 -1.0522166e-02
  4.5347188e-02
 -7.3739588e-02
 -2.0948645e-01
  2.5077915e-02
  4.0186573e-02
 -1.1992750e-01
 -1.1010531e-01
  5.1469214e-02
  4.1992873e-01
  1.2348037e-01
  7.3094950e-03
  6.4369142e-02
 -7.3386602e-02
 -9.1156237e-02
 -6.1184853e-02
 -7.5066790e-02
 -3.5045892e-02
  2.0196076e-02
 -1.3623152e-02
  1.2694099e-02
 -3.5847429e-02
  7.2002739e-02
  1.7801151e-01
  2.8804868e-02
  1.6437136e-01
  5.5424228e-02
 -1.0228946e-01
 -6.9431877e-01
  3.0616271e-01
  7.5528073e-01
  6.1048144e-01
 -3.7782159e-01
  1.5321236e+00
  1.7105526e+00
 -3.1418631e+00
 -1.3357656e-01
 -4.5717813e-02
 -3.5229516e-01
  8.4762238e-02
  1.2749556e+00
 -4.4330177e-01
  1.9634674e-01
  8.5993716e-03
 -5.2690893e-01
 -4.7714946e-01
  2.8954870e-01
 -1.3718699e-01
  3.2685968e-01
  3.9587423e-01
  7.9061204e-01
 -1.2072455e-02
 -3.8799611e-01
  6.7035481e-02
  5.1291776e-01
 -5.0929940e-01
 -3.6328304e-01
  2.9960707e-01
  3.3086658e-01
 -1.8408875e-01
 -3.6452717e-01
 -1.7863779e-01
  1.6928063e-01
 -1.0030593e+00
 -5.0322598e-01
  3.1188399e-01
 -2.5405225e-01
  6.7320488e-02
 -2.1637570e-02
  4.2094913e-01
 -1.4138375e-01
  1.4869337e-01
 -1.9980969e-02
 -3.0814216e-03
  2.0392098e-02
 -1.0657129e-01
 -4.9233325e-02
  1.4147271e-01
 -9.2566088e-02
  7.0764802e-02
 -1.5755764e-01
  1.4326958e-01
  2.0154530e-02
  2.2364026e-02
 -8.7628864e-02
 -8.9019901e-01
  9.6306551e-01
  3.4194942e+00
  8.0634987e-01
  1.6369174e+00
  2.2323047e-01
  5.7617393e+00
 -1.0286486e+00
 -2.8598270e-01
 -5.9934840e-02
 -7.3129773e-02
  7.0888367e-03
 -4.0418819e-01
  5.1121098e-01
 -1.7247921e-02
 -2.2212515e+00
  1.3763145e-01
  1.2828049e-01
 -9.7239919e-02
  1.3954011e-01
 -3.1486323e-01
  7.4790478e-01
 -1.6998605e+00
 -3.7987587e-01
 -4.6055850e-02
 -5.1568460e-01
 -2.5069675e-01
  3.4377563e-01
  4.3958771e-01
  7.2607592e-02
 -6.2879078e-02
 -1.1573249e+00
 -5.2413207e-01
 -7.0451808e-01
 -7.9432499e-01
  2.0503201e-01
 -1.7784517e-01
  1.1607456e+00
 -5.7991391e-01
 -1.1633743e+00
  5.2232450e-01
 -2.1086961e-01
 -2.3519179e-01
  2.0081574e-01
  6.9004107e-01
 -1.4312991e-01
 -6.3780092e-02
 -5.7739931e-01
  1.1088562e-01
 -1.3405932e-01
  9.7275831e-02
 -2.3904684e-01
  2.9443133e-01
 -2.6396897e-01
  1.2499923e-01
  1.6595796e-01
  2.4580473e-01
  4.4460762e-02
 -1.2763664e-01
 -1.7036195e+00
 -2.1365166e-01
  1.7598611e-01
  8.2288253e-01
 -4.4842415e-02
 -2.3089123e-01
  1.3440120e-02
  1.2020478e-01
  1.1546857e-01
  7.7303126e-02
 -7.8709148e-02
 -1.5738173e-01
 -3.5527766e-01
  1.6931182e-01
 -2.6113665e-01
 -1.2733410e-01
  1.9415205e-02
  1.2117580e+00
 -1.5265487e-01
 -4.9525950e-02
 -1.4426106e-01
  1.1252934e+00
  2.5034243e-01
 -1.4977719e-01
 -2.8273711e-01
 -1.7195316e-01
 -1.3943067e-01
  1.0831749e-01
 -8.0539286e-02
  2.7262743e+00
 -1.0323155e-01
  1.2918288e-01
 -1.4978501e-01
 -1.0740706e-01
  3.4847368e-02
 -3.5548222e-01
 -6.0577586e-02
  1.1530121e-01
  1.2358816e-02
  1.1120052e-02
  2.6715232e-02
 -4.8599467e-03
 -4.1768488e-02
 -1.5635228e-02
 -8.1440955e-02
  1.3616487e-01
 -8.1497818e-02
 -5.0647818e-02
 -4.9449429e-02
 -9.6893400e-02
 -3.4246048e-01
  1.4751139e-01
  2.2949837e-01
  1.6959438e-01
  9.2067130e-02
 -7.4742429e-02
 -5.1388842e-01
  1.8970540e-01
  7.0923954e-02
 -1.9622047e+00
 -2.4237087e-01
 -1.5006572e-01
 -1.0221595e-01
 -1.7479925e-01
  2.3901659e-01
 -2.4289866e-01
 -7.8485608e-03
 -8.5443556e-02
 -2.1732333e-01
  1.1424547e-02
 -1.6992700e-01
 -9.6252227e-01
  1.8436063e-02
  9.5855676e-02
 -1.0545433e-01
  4.8508175e-02
 -1.9964979e+00
 -1.0662154e-01
  6.3189879e-02
 -2.1000469e-01
  1.1146331e-01
 -5.3730104e-02
  9.3978286e-02
 -1.2434141e-03
 -7.2545864e-02
  1.4221552e-01
 -1.3525032e+00
  2.0033631e+00
  1.7410682e-01
  2.4834295e-01
  1.2169160e-01
 -1.0011078e-01
  1.0847132e+00
 -5.0583500e-01
  1.4415862e-01
  6.1331932e-02
 -1.1725589e-01
 -1.0416996e-01
  1.0809102e-01
 -1.6656272e-02
  6.3614957e-02
  8.6001903e-02
  7.4020199e-02
 -7.2052017e-02
 -6.3014321e-02
 -2.0121459e-03
  9.5152155e-02
  2.3208815e-01
 -6.1948782e-01
  4.1169554e-01
  6.7769283e-01
  1.4802296e+00
  1.1525439e+00
  2.6443288e-01
 -5.5355698e-01
 -6.4296466e-01
  3.6301047e-01
  5.3364855e-01
  3.0752683e-01
 -9.5061056e-02
  5.2478123e-01
  5.6197906e-01
  3.2310796e-01
  9.6728373e-01
  6.9450927e-01
  7.5289476e-01
  3.4798399e-02
 -2.1672089e-01
  1.1620108e-01
 -1.3622122e-01
 -1.9327292e-01
  2.9977205e-01
 -3.4563206e-02
  2.2271146e-01
 -1.1282082e-01
  1.6203558e-01
  4.3832183e-01
 -2.8823861e-01
  8.4962204e-02
 -8.0373362e-02
  9.5388550e-01
 -5.7099187e-01
 -2.4763396e-01
  6.6390359e-01
  5.1828951e-01
 -1.1387035e-01
 -1.9787627e-01
  7.1478081e-01
  1.8831554e-01
 -2.6209208e-01
 -5.1146828e-02
  1.1863595e-01
 -4.1306546e-01
  2.3670298e-01
  6.0393047e-02
  9.3851410e-02
  4.2611459e-01
  1.9219624e-01
  6.2415831e-02
 -8.1021436e-02
  1.0022815e-01
 -1.8523119e-01
  1.9703008e-01
  3.3270862e-02
  2.5556327e-03
 -3.9188647e-01
 -4.9223757e-01
  3.4746507e-01
  3.0932450e-01
  4.8733447e-02
 -7.0019639e-01
 -8.4476620e-01
  1.5958659e-01
  8.1683151e-02
  5.5489589e-02
  1.8085556e-01
  1.2345505e-01
  1.6812267e-02
  1.3903165e-01
  2.4364639e-02
 -6.7951344e-02
  2.9308686e-01
 -9.2298582e-02
  5.1831761e-03
 -1.6809699e-01
 -3.1290677e-01
  2.1511088e-01
 -1.9996527e-01
  8.0913246e-02
  2.1705957e-02
 -5.4523006e-02
  1.4214872e-01
  1.8116428e-01
 -1.3108064e-01
 -9.5286906e-02
 -2.6815273e-02
  1.7122290e-01
 -3.2657972e-01
 -7.7803679e-02
  1.2006170e-01
 -2.7062416e-02
 -7.8434959e-02
 -1.3128966e-01
  3.2080945e-01
  6.1703458e-02
 -2.8296191e-01
  2.4520595e+00
 -4.3751992e-02
  7.6456941e-03
 -9.8481728e-03
 -1.3763495e-01
 -1.2906826e-01
 -1.1109512e-01
  1.7353758e-01
 -8.1540467e-03
  2.9747048e-02
  6.6532642e-02
 -8.9505166e-02
  5.4800748e-03
 -9.7309180e-02
  2.3755965e+00
 -2.4805701e-01
  1.7150955e-01
 -2.9425142e+00
  2.2040806e+00
  2.9423022e+00
 -3.5277648e+00
  1.1799792e+00
  3.4502354e-02
  4.9562263e-01
  2.1008592e+00
  1.2034777e+00
  1.0503700e+00
  3.2062262e-01
  1.5482001e+00
  1.1625979e+00
  1.6893142e-01
  1.9795762e+00
  1.0518365e+00
  4.1035131e-01
  1.1435554e+00
  2.4056360e-01
  2.6548231e-02
  1.0041945e+00
 -4.8315084e-01
  9.1214466e-01
  2.9702115e-01
  1.0094146e-01
  4.6504036e-01
  1.0884037e-01
 -9.7776347e-01
  9.9395198e-01
 -2.4044152e-01
  4.8735121e-01
  1.6788903e-01
  2.0007886e-02
  6.4617240e-01
 -1.0017771e+00
  2.2628520e-01
 -2.6529551e-01
 -1.0511797e-01
 -3.8397735e-01
  7.1278170e-02
  9.1492884e-02
  2.6490080e-01
  1.4006741e-01
 -2.3405172e-01
 -1.1437645e+00
 -1.7943390e-01
 -3.3067856e-03
  1.0648644e-01
  4.6192903e-02
 -9.1409490e-02
 -1.3333973e-01
  1.9721372e-01
 -7.8274809e-02
  1.0322939e+00
  2.9287035e+00
 -1.9887712e+00
  2.3604214e+00
 -1.4659929e+00
  1.7816175e+00
 -1.3573401e+00
 -4.7028747e-01
 -8.3374542e-01
  3.4511134e-01
  4.2528722e-01
 -5.2225083e-02
  2.0247014e-01
  7.2176909e-01
 -4.8518926e-02
  1.9849254e+00
 -6.5683985e-01
 -5.6546283e-01
 -4.1458163e-02
  6.2946612e-01
  6.6924506e-01
  1.4289424e-02
 -1.4280374e+00
 -1.4226788e+00
 -7.3030394e-01
  1.4165051e+00
 -9.0980929e-01
  3.5329688e-01
  7.5224459e-01
 -1.6358200e+00
 -8.3538747e-01
  1.6719450e+00
 -1.4449804e+00
  1.1181871e+00
  1.0761890e+00
 -5.0180703e-01
 -3.2088894e-01
 -1.1648177e+00
  2.0854712e+00
  2.7236090e+00
 -1.1291546e+00
  3.6887590e-02
  1.0218600e-01
 -7.3810227e-02
  2.1596445e-01
 -4.2066023e-02
  1.1206309e-01
 -5.6600803e-01
 -6.8470103e-01
 -3.9404288e-02
 -1.2261456e-01
  9.7512253e-02
 -2.4432576e-01
 -1.8469585e+00
  3.6348324e-02
  1.9093210e-02
 -3.2201672e-01
 -1.3344344e+00
 -1.1108890e+00
  2.4999816e+00
  2.8074031e+00
  7.9758346e-01
  1.1606576e+00
 -3.9954880e-01
 -4.9068302e-01
 -2.6691744e-01
  8.5515147e-01
 -7.4601471e-02
 -5.6044042e-02
  3.3367869e-02
 -3.3730802e-01
 -7.7856523e-01
 -1.7999546e-01
  1.5652144e-01
  5.1990932e-01
  6.7495519e-01
 -2.7450201e-01
  6.8441612e-01
 -6.8333797e-02
 -5.2371371e-01
 -4.7187057e-01
  6.2542662e-02
 -8.0819667e-04
  6.7234850e-01
 -3.3689058e-01
 -5.3714771e-02
  1.2500523e+00
 -1.5258938e+00
 -2.2395013e-02
 -3.7645541e-02
  2.5797656e-01
  1.1445609e+00
 -2.2215767e-01
  6.0601306e-01
  1.1109622e+00
 -6.8119270e-01
 -1.2624669e-01
  1.8161298e-01
  1.8797685e-01
  2.1646315e-01
 -1.3854104e-01
  2.0804584e+00
  1.2897100e-01
 -4.4612933e-02
 -1.9154435e-02
  2.7426230e-02
  7.6175071e-02
  6.7055650e-02
 -9.9790551e-02
  3.0908498e-01
 -7.9913303e-02
  1.1396823e-01
 -6.9689298e-01
 -6.5640396e-01
 -6.8367589e-01
  1.1886057e+00
  1.8789984e+00
  3.4176239e-01
 -1.1008976e+00
 -3.4103647e-01
  2.4902764e-01
 -1.5098375e-01
 -6.6725355e-01
  1.7332749e-01
  4.7535393e-02
  2.6350576e-01
 -5.8176972e-02
 -2.6493752e-01
  8.6553581e-02
  5.1099133e-01
 -5.6697327e-01
  2.6422155e-01
  6.5583922e-03
  5.6994468e-01
  3.9197165e-01
  1.7485516e-01
  1.4455903e-01
  2.1642189e-01
  4.4013014e-01
 -5.7098549e-02
  1.5304208e-01
  2.5083706e-01
 -3.0734664e-01
  6.6605669e-01
  7.6938622e-02
  5.3650802e-01
 -1.5107180e-01
 -8.2139485e-02
  4.6862772e-01
 -2.5658069e-02
  3.7301056e-02
  9.0430123e-01
 -4.3619294e-02
 -4.0251516e-02
  2.5681114e-02
 -6.2087879e-02
  4.9712107e-02
 -1.8575822e-01
  9.9590905e-02
  1.1116137e-01
 -5.8236462e-03
 -3.2091353e-02
 -2.6215814e-02
 -1.5718749e-01
  8.5477233e-02
 -1.2780359e-02
 -2.9793862e-04
 -1.3209207e-01
 -2.7600151e-01
  1.0751482e-01
  4.9595457e-02
  1.8418723e-01
  3.5063729e-01
  1.9366482e-01
 -8.5373707e-02
 -6.7061228e-01
  4.5421091e-01
  2.1381696e-01
  2.1840448e-02
  1.6811436e-01
  1.2750156e-01
  1.2661132e-01
  1.4488097e-01
  9.7564876e-02
  1.1674224e+00
  3.8803083e-01
  8.0509208e-02
 -1.1445355e-02
  3.5783831e-02
 -2.0347357e-02
 -6.8941340e-02
 -8.2228917e-01
  2.6237717e-01
  1.0167682e-01
  7.8472652e-02
  1.8490809e-01
  1.4671274e-01
  2.1280214e-01
  1.1032672e-01
 -8.3197765e-02
  2.7830848e-01
 -5.3383373e-02
  2.2909479e-02
  2.4569869e-01
  2.5695467e-02
  3.5694558e-02
  7.6541319e-02
  4.4278447e-03
  1.1140804e-01
 -3.4548230e-02
 -5.7503916e-02
  1.9958215e-02
 -1.4979793e-01
 -1.2325805e-01
 -5.3125735e-02
 -3.7660345e-02
  4.2877767e-02
 -1.9384956e-02
  1.1837652e-01
 -7.1654618e-02
  5.4439783e-02
 -3.9215107e-02
  9.8559231e-02
  9.0777092e-03
 -2.5587851e-01
 -1.6700847e-01
 -7.9523334e-03
 -3.1048471e-01
 -2.9616055e-01
  5.6939162e-02
 -2.1146014e-02
 -4.0353549e-01
 -4.3400738e-01
  2.5236702e-01
  7.4524552e-01
  1.9420948e-02
 -2.7072588e-01
 -5.7733521e-02
  2.9667941e-01
  2.1302153e-01
  1.5179308e-01
  2.2830591e-01
  4.6149945e-01
 -8.4630802e-02
 -1.5340352e-01
 -1.0497709e-01
  2.4579592e-01
  2.8457740e-01
  2.6774070e-01
  5.5465424e-01
  1.5943385e+00
  2.4078608e-01
  3.0460966e-01
 -5.3428751e-01
  2.3043531e-01
  2.1434261e-01
  2.7294493e-01
  4.6337700e-01
  4.6521347e-02
  2.3529647e-01
 -4.3600127e-02
 -3.0320567e-01
  2.1370199e-01
 -3.8909342e-02
  8.4887490e-02
 -1.3977009e-01
  3.1537596e-02
 -3.6232110e-02
 -3.3650048e-02
 -1.0546464e-01
 -1.4373471e-01
  1.0519661e-02
  2.3293712e-03
 -1.8196493e-01
 -1.7237331e-01
  8.4717184e-02
  4.8662670e-02
 -1.4273997e-01
  7.9205222e-02
 -1.8896417e-01
  2.7958820e+00
  3.7912318e-01
  1.8613349e+00
  5.2467096e-01
  2.8043011e-01
 -2.3921919e+00
 -1.2009554e+00
 -1.6298864e+00
 -7.2734147e-02
 -2.5837216e-01
 -7.0089400e-01
 -3.3415750e-01
 -1.9414303e-01
 -3.0026856e-01
 -2.5097543e-01
 -2.3969450e+00
 -3.2200497e-01
  7.9026324e-01
  6.5490633e-02
 -2.0637745e-01
 -5.0080436e-01
 -9.1440386e-01
 -1.7636553e+00
  1.4034911e-01
 -1.7432734e-01
  1.5908375e+00
  1.3877781e-01
  2.6658719e-02
  2.7429992e-02
 -5.1226610e-01
 -4.4468632e+00
 -3.2606301e+00
 -3.7797344e-01
 -8.9224629e-02
  2.6722223e-01
 -4.7492975e-01
  8.4033334e-01
 -1.0404117e+00
 -7.4876681e-02
  5.4522142e-02
 -1.3666190e-01
  3.7407663e-02
 -1.9956487e-01
  1.6341199e-01
  2.6418969e-02
  3.4363717e-01
 -7.1604371e-02
 -1.1171160e-01
 -1.0550372e-01
  4.4923395e-02
 -1.4332016e-01
  4.6191961e-02
 -1.8342608e-01
  5.5714786e-02
 -1.2392595e-01
  1.4659765e-01
 -3.4668766e-02
  3.1887441e+00
  5.5723912e-01
 -1.5511510e-01
 -6.6009775e-02
  5.9046638e-01
  3.6362773e-01
 -2.0423133e+00
  4.4470987e-01
  5.1730996e-01
 -9.5660612e-02
  6.6608226e-01
  9.1029906e-01
  1.2080670e-01
  7.4794191e-01
 -8.5081685e-01
 -3.9747632e+00
 -5.0609875e-01
 -4.4552076e-01
  3.3869827e-01
 -3.5819706e-01
 -1.2857571e+00
  2.9204047e-01
  4.1154304e-01
 -1.7071828e-01
 -7.2806430e-01
 -1.9534424e-02
 -6.1686784e-01
 -2.3308589e-01
 -1.4334819e+00
 -1.3464462e+00
 -1.6717520e+00
 -7.0720655e-01
 -3.6987615e-01
 -5.1535547e-01
 -5.2544320e-01
  9.8545931e-02
 -1.1472671e-01
 -5.0501740e-01
  8.9397436e-01
  1.8829395e+00
  1.1091889e-01
  3.2434043e-01
 -8.3190851e-02
  2.4162053e-01
  1.4351825e-01
 -1.1478384e+00
 -3.2481119e-01
 -5.3518772e-01
  8.3664432e-03
  6.0630776e-03
 -6.0394645e-02
 -9.5170468e-02
  2.5790757e-01
 -6.5682739e-02
  2.4404618e-01
 -4.6991032e-01
 -3.1728005e+00
 -2.2022355e+00
 -1.0236469e-01
  9.8867750e-01
  6.3566011e-01
 -1.1951993e+00
 -3.2579246e-01
 -1.2184972e+00
 -6.1589366e-01
  9.4636190e-01
 -6.7728782e-01
  1.3591614e+00
 -1.5934948e+00
 -1.7490786e-01
 -7.3522401e-01
  2.4040891e-01
 -3.9281407e-01
  7.2479618e-01
  1.3882904e+00
  1.1026310e+00
  1.1782596e+00
  6.1832964e-01
  5.4564033e-02
 -8.2212406e-01
 -5.0778395e-01
 -5.8063698e-01
  5.7065016e-01
 -2.9010546e-01
 -3.9496118e-01
  2.2185318e-01
 -5.5009627e-01
 -1.3035681e+00
  7.7914929e-01
  3.9596525e-01
  9.5251518e-01
 -2.7341247e-01
  1.3209206e+00
  1.5605022e+00
 -6.5500200e-01
 -1.6519375e-01
  5.4380830e-02
  3.9734196e-02
  4.4781823e-02
 -2.2047096e-01
 -2.8470403e-01
  4.1529606e-03
  6.8230987e-01
 -5.3878558e-01
 -6.5013804e-02
  4.2168859e-02
 -2.5205943e-03
 -4.9850192e-02
  3.7926602e-01
 -2.3729932e-02
  1.7300083e-01
 -3.2330644e+00
 -5.6734663e-01
  1.7282213e+00
  1.6131306e+00
  1.1074220e+00
 -2.7962410e+00
  4.3877470e-01
  3.2178950e-01
  2.9264069e-01
 -5.5900669e-01
 -9.7646832e-01
  8.7957889e-01
  6.9151801e-01
  3.3336796e-02
  4.1968286e-01
 -2.5045373e+00
  2.0573074e-01
  1.4131854e+00
  3.9918378e-01
  3.8070735e-01
 -3.9149031e-01
  3.9935160e-01
 -2.0020800e+00
  3.7679651e-01
  3.5017985e-01
 -2.7430251e-01
 -2.4732317e-01
 -8.3692104e-02
  5.5161972e-02
  3.6142623e-01
 -3.0078870e-01
  3.5808814e-01
  1.5017122e-01
  1.4044920e+00
  2.9712769e-01
 -1.7888407e+00
  3.5681412e-01
  6.2069453e-02
  6.7992067e-01
  1.2073839e+00
  3.5771083e-02
  8.9578964e-02
  2.9737508e-01
 -1.0449740e-01
  7.0905097e-02
 -4.8785144e-01
 -1.9045301e-01
 -1.9430493e-01
 -2.7999466e-02
 -1.8743338e-04
  5.7307117e-02
 -6.3087486e-02
  1.8923439e-01
 -1.3506624e-01
 -1.4349416e+00
 -2.2739492e-01
 -1.3092697e+00
  4.7287658e-02
  5.5711791e-02
 -4.4548056e-01
  7.2340959e-01
  1.8345225e-01
 -6.0421091e-01
  1.0575881e+00
 -4.1897390e-02
 -7.6131709e-02
  2.8351326e-02
  4.1018415e-02
  1.1839291e-01
 -3.4978015e-03
 -1.5076505e-01
  5.0159134e-02
 -8.6903453e-02
  3.6189221e-02
 -1.1767782e-01
 -8.4581105e-03
  1.5610836e-03
 -4.3496151e-02
  6.4608611e-02
 -4.8881106e-02
 -1.3198248e-01
  1.1876306e-01
 -3.7602514e-02
 -1.5367979e-01
 -2.9647997e-01
  4.5773197e-02
  1.5157560e-01
  2.4858657e-01
  9.9310331e-02
  2.2548214e-01
 -7.9747534e-01
 -8.2369678e-02
 -4.7269724e-03
  8.8647448e-02
 -5.4402512e-01
  7.1794004e-03
 -1.3023776e-01
 -5.4043256e-02
 -1.8958712e-01
  8.9579120e-02
  9.7139120e-02
  8.1784673e-02
 -3.3759911e-02
 -8.0781095e-02
 -1.3390041e-03
 -1.5999066e-02
  3.2766469e-02
  1.2885047e-01
 -3.0340376e-01
 -9.6911676e-02
 -7.6828517e-02
 -7.7385083e-02
 -2.5501616e+00
  6.8500347e-02
 -1.0669129e+00
 -1.0622482e+00
  1.4879049e-01
  1.2298181e+00
  3.5915029e+00
 -1.2212582e+00
 -2.1484374e-01
 -7.8029716e-01
  9.3309659e-01
  3.7758085e-01
  6.5467641e-02
  1.0349603e+00
 -1.7491819e-01
  1.2504059e+00
  1.7765312e+00
 -5.9981215e-01
 -7.3602241e-01
  1.1942368e+00
  1.2205140e-01
 -2.9270157e-01
 -1.3255988e+00
  7.0068890e-01
 -1.2233447e+00
 -3.4040257e-01
 -2.6231282e+00
 -6.0115123e-01
  5.6931257e-01
 -7.4811977e-01
  1.7565116e+00
  1.6194164e+00
 -1.3069823e+00
  5.1622200e-01
 -9.9968743e-01
 -7.7082956e-01
